
\data\
ngram 1=4881
ngram 2=8392
ngram 3=59
ngram 4=10

\1-grams:
-1.701149	</s>
-3.974549	<oov>
-99	<s>	-0.01806842
-3.145727	آ	-0.09142012
-3.446771	آؤ	-0.01223888
-3.923945	آؤٹ	-0.01223888
-3.622875	آئی	-0.3132689
-3.923945	آئیز	-0.01223888
-3.923945	آئین	-0.01223888
-3.923945	آئیندہ	-0.01223888
-3.923945	آئیوڈین	-0.01223888
-3.923945	آئیں	-0.01223888
-3.923945	آئیے	-0.01223888
-3.446771	آئے	-0.01223888
-3.923945	آباد	-0.01223888
-3.923945	آباواجداد	-0.01223888
-3.923945	آبدوزیں	-0.01223888
-3.923945	آبرو	-0.01223888
-3.923945	آبشار	-0.01223888
-3.622875	آتا	-0.3132689
-3.923945	آتشزدگی	-0.01223888
-3.923945	آتشیں	-0.01223888
-3.622875	آتی	-0.01223888
-3.923945	آج	-0.01223888
-3.923945	آخرالزمان	-0.01223888
-3.923945	آخری	-0.01223888
-3.923945	آدمی	-0.01223888
-3.923945	آدھ	-0.01223888
-3.923945	آدھا	-0.01223888
-3.923945	آدھے	-0.01223888
-3.923945	آرتھو	-0.01223888
-3.923945	آرتھوپیڈک	-0.01223888
-3.923945	آرزوئیں	-0.01223888
-3.923945	آرٹلری	-0.01223888
-3.923945	آرڈیننس	-0.01223888
-3.923945	آرکائیوز	-0.01223888
-3.923945	آرگنائزنگ	-0.01223888
-3.923945	آرگنائزیشن	-0.01223888
-3.923945	آزاد	-0.01223888
-3.923945	آزادی	-0.01223888
-3.923945	آزمائیں	-0.01223888
-3.622875	آسان	-0.01223888
-3.923945	آسرا	-0.01223888
-3.923945	آسمان	-0.01223888
-3.923945	آسٹریلوی	-0.01223888
-3.923945	آسیہ	-0.01223888
-3.923945	آشرم	-0.01223888
-3.923945	آشنا	-0.01223888
-3.923945	آشوب	-0.01223888
-3.923945	آشیانہ	-0.01223888
-3.923945	آشیرباد	-0.01223888
-3.923945	آغا	-0.01223888
-3.923945	آغاز	-0.01223888
-3.923945	آغوش	-0.01223888
-3.923945	آف	-0.01223888
-3.923945	آفریدی	-0.01223888
-3.923945	آفرین	-0.01223888
-3.923945	آفس	-0.01223888
-3.923945	آفیشلز	-0.01223888
-3.923945	آقاؤں	-0.01223888
-3.923945	آلود	-0.01223888
-3.923945	آلودگی	-0.01223888
-3.923945	آماجگاہ	-0.01223888
-3.923945	آمدنی	-0.01223888
-3.923945	آمدورفت	-0.01223888
-3.923945	آمیزش	-0.01223888
-3.923945	آن	-0.01223888
-3.923945	آنسو	-0.01223888
-3.923945	آنسوؤں	-0.01223888
-3.446771	آنکھ	-0.01223888
-3.923945	آنکھو	-0.01223888
-3.923945	آنکھوں	-0.01223888
-3.622875	آنکھیں	-0.01223888
-3.923945	آنگن	-0.01223888
-3.622875	آنے	-0.01223888
-3.622875	آواز	-0.01223888
-3.923945	آوازیں	-0.01223888
-3.923945	آویزاں	-0.01223888
-3.622875	آٹھ	-0.01223888
-3.923945	آٹھواں	-0.01223888
-3.923945	آٹھوں	-0.01223888
-3.923945	آٹھویں	-0.01223888
-3.020785	آپ	-0.05799637
-3.923945	آپریشن	-0.01223888
-3.923945	آڑ	-0.01223888
-3.923945	آڑو	-0.01223888
-3.923945	آڑھتی	-0.01223888
-3.923945	آڑے	-0.01223888
-3.923945	آکر	-0.01223888
-3.923945	آکسیجن	-0.01223888
-3.923945	آگ	-0.01223888
-3.923945	آگاہی	-0.01223888
-3.923945	آگے	-0.01223888
-3.622875	آہستہ	-0.01223888
-3.923945	آیئں	-0.01223888
-3.145727	آیا	-0.7903901
-3.923945	اؤٹ	-0.01223888
-3.446771	اب	-0.01223888
-3.923945	ابتدائی	-0.01223888
-3.923945	ابجد	-0.01223888
-3.923945	ابرار	-0.01223888
-3.923945	ابصار	-0.01223888
-3.923945	ابلاغ	-0.01223888
-3.923945	ابو	-0.01223888
-3.923945	ابواب	-0.01223888
-3.622875	ابڑو	-0.01223888
-3.923945	ابھار	-0.01223888
-3.923945	ابھر	-0.01223888
-3.923945	ابھرا	-0.01223888
-3.923945	ابھری	-0.01223888
-3.923945	ابھریں	-0.01223888
-3.923945	ابھرے	-0.01223888
-3.923945	اتحاد	-0.01223888
-3.923945	اتفاق	-0.01223888
-3.923945	اتھارٹی	-0.01223888
-3.923945	اتھل	-0.01223888
-3.923945	اتھلیٹس	-0.01223888
-3.923945	اتھلیٹکس	-0.01223888
-3.923945	اثاثوں	-0.01223888
-3.622875	اثر	-0.01223888
-3.923945	اثرورسوخ	-0.01223888
-3.923945	اثنا	-0.01223888
-3.923945	اجازت	-0.01223888
-3.622875	اجاڑ	-0.01223888
-3.923945	اجاگر	-0.01223888
-3.923945	اجتماعی	-0.01223888
-3.923945	اجرا	-0.01223888
-3.923945	اجرت	-0.01223888
-3.923945	اجزا	-0.01223888
-3.923945	اجسام	-0.01223888
-3.923945	اجلاس	-0.01223888
-3.923945	اجناس	-0.01223888
-3.923945	اجڑی	-0.01223888
-3.923945	اجڑے	-0.01223888
-3.923945	احتجاج	-0.01223888
-3.923945	احترام	-0.01223888
-3.923945	احساس	-0.01223888
-3.923945	احسن	-0.01223888
-3.923945	احمد	-0.01223888
-3.923945	احوال	-0.01223888
-3.923945	اخبار	-0.01223888
-3.923945	اخبارنویسوں	-0.01223888
-3.923945	اختر	-0.01223888
-3.923945	اخراج	-0.01223888
-3.923945	اخراجات	-0.01223888
-3.923945	اخروٹ	-0.01223888
-3.923945	اخلاقی	-0.01223888
-3.923945	اخوندزادہ	-0.01223888
-3.923945	ادائیگی	-0.01223888
-3.923945	ادائیگیوں	-0.01223888
-3.923945	اداروں	-0.01223888
-3.923945	ادارے	-0.01223888
-3.923945	اداس	-0.01223888
-3.923945	اداکاراؤں	-0.01223888
-3.923945	اداکارائیں	-0.01223888
-3.923945	ادب	-0.01223888
-3.923945	ادغام	-0.01223888
-3.923945	ادویات	-0.01223888
-3.923945	ادھار	-0.01223888
-3.923945	ادھم	-0.01223888
-3.923945	ادھورا	-0.01223888
-3.923945	ادھیڑ	-0.01223888
-3.923945	ادھیڑنے	-0.01223888
-3.923945	ادیبوں	-0.01223888
-3.923945	ارب	-0.01223888
-3.923945	ارتعاش	-0.01223888
-3.923945	ارجمند	-0.01223888
-3.923945	ارزاں	-0.01223888
-3.923945	ارشاد	-0.01223888
-3.923945	ارشد	-0.01223888
-3.923945	ارمغان	-0.01223888
-3.923945	ارکان	-0.01223888
-3.923945	اریگیشن	-0.01223888
-3.923945	از	-0.01223888
-3.923945	ازالہ	-0.01223888
-3.923945	ازبک	-0.01223888
-3.923945	ازخود	-0.01223888
-3.923945	ازدواجی	-0.01223888
-3.923945	ازسرنو	-0.01223888
-2.71975	اس	-0.06054355
-3.923945	استاد	-0.01223888
-3.923945	استحصالی	-0.01223888
-3.923945	استحقاق	-0.01223888
-3.923945	استعفے	-0.01223888
-3.622875	استعمال	-0.01223888
-3.923945	استغاثہ	-0.01223888
-3.923945	استغراق	-0.01223888
-3.923945	استغفار	-0.01223888
-3.923945	استغنا	-0.01223888
-3.923945	استفادے	-0.01223888
-3.923945	استفسار	-0.01223888
-3.923945	استفہامیہ	-0.01223888
-3.923945	استقلال	-0.01223888
-3.923945	اسجد	-0.01223888
-3.923945	اسرائیلی	-0.01223888
-3.923945	اسسٹنٹ	-0.01223888
-3.923945	اسقاط	-0.01223888
-3.923945	اسلامی	-0.01223888
-3.923945	اسلحہ	-0.01223888
-3.923945	اسلم	-0.01223888
-3.923945	اسلوب	-0.01223888
-3.923945	اسمبلی	-0.01223888
-3.923945	اسود	-0.01223888
-3.923945	اسٹورز	-0.01223888
-3.622875	اسکواڈ	-0.01223888
-3.923945	اسہال	-0.01223888
-3.622875	اسی	-0.01223888
-3.446771	اسے	-0.01223888
-3.923945	اشارہ	-0.01223888
-3.923945	اشاعت	-0.01223888
-3.923945	اشجار	-0.01223888
-3.923945	اشخاص	-0.01223888
-3.923945	اشد	-0.01223888
-3.923945	اشرف	-0.01223888
-3.923945	اشعار	-0.01223888
-3.923945	اشفاق	-0.01223888
-3.923945	اصحاب	-0.01223888
-3.923945	اصغر	-0.01223888
-3.923945	اصل	-0.01223888
-3.923945	اصلاحات	-0.01223888
-3.923945	اضافہ	-0.01223888
-3.923945	اضافے	-0.01223888
-3.923945	اطالوی	-0.01223888
-3.622875	اطلاعات	-0.01223888
-3.923945	اظہار	-0.01223888
-3.923945	اعادہ	-0.01223888
-3.923945	اعانت	-0.01223888
-3.923945	اعتبار	-0.01223888
-3.923945	اعتراف	-0.01223888
-3.923945	اعتماد	-0.01223888
-3.923945	اعدادوشمار	-0.01223888
-3.923945	اعزاز	-0.01223888
-3.923945	اعزہ	-0.01223888
-3.622875	اعظم	-0.01223888
-3.923945	اعلان	-0.01223888
-3.923945	اغوا	-0.01223888
-3.923945	اغیار	-0.01223888
-3.923945	افادہ	-0.01223888
-3.923945	افتادہ	-0.01223888
-3.923945	افراد	-0.01223888
-3.923945	افراط	-0.01223888
-3.923945	افزائش	-0.01223888
-3.923945	افزودگی	-0.01223888
-3.923945	افسانے	-0.01223888
-3.923945	افسران	-0.01223888
-3.923945	افسردہ	-0.01223888
-3.923945	افسوس	-0.01223888
-3.923945	افسوسناک	-0.01223888
-3.923945	افضل	-0.01223888
-3.923945	افغان	-0.01223888
-3.923945	افق	-0.01223888
-3.923945	افلاس	-0.01223888
-3.923945	افواج	-0.01223888
-3.923945	افورڈ	-0.01223888
-3.923945	افیم	-0.01223888
-3.923945	افیون	-0.01223888
-3.923945	افیکٹ	-0.01223888
-3.923945	اقبال	-0.01223888
-3.923945	اقتصادی	-0.01223888
-3.923945	اقدامات	-0.01223888
-3.923945	اقرار	-0.01223888
-3.923945	اقربا	-0.01223888
-3.923945	اقلیتوں	-0.01223888
-3.923945	اقوام	-0.01223888
-3.923945	الاؤنس	-0.01223888
-3.923945	البتہ	-0.01223888
-3.622875	الجھ	-0.01223888
-3.923945	الجھا	-0.01223888
-3.923945	الجھاؤ	-0.01223888
-3.923945	الجھی	-0.01223888
-3.923945	الجھیں	-0.01223888
-3.923945	الجھے	-0.01223888
-3.923945	الحاج	-0.01223888
-3.923945	الحاق	-0.01223888
-3.923945	الزام	-0.01223888
-3.923945	السی	-0.01223888
-3.923945	الفاظ	-0.01223888
-3.622875	اللہ	-0.01223888
-3.923945	الہیات	-0.01223888
-3.923945	الیون	-0.01223888
-3.923945	الیکڑانکس	-0.01223888
-3.923945	امجد	-0.01223888
-3.923945	امداد	-0.01223888
-3.923945	امراض	-0.01223888
-3.923945	امرتا	-0.01223888
-3.923945	امرتسری	-0.01223888
-3.923945	امرود	-0.01223888
-3.923945	امروہی	-0.01223888
-3.923945	امریکی	-0.01223888
-3.923945	امور	-0.01223888
-3.923945	امپائر	-0.01223888
-3.923945	امیج	-0.01223888
-3.923945	امیگریشن	-0.01223888
-3.321825	ان	-0.01223888
-3.923945	انار	-0.01223888
-3.923945	اناسیواں	-0.01223888
-3.923945	اناڑی	-0.01223888
-3.923945	انتخابات	-0.01223888
-3.923945	انتقال	-0.01223888
-3.923945	انتھک	-0.01223888
-3.923945	انتہاؤں	-0.01223888
-3.923945	انتہائی	-0.01223888
-3.923945	انجام	-0.01223888
-3.923945	انجری	-0.01223888
-3.923945	انجمن	-0.01223888
-3.923945	انجنیئر	-0.01223888
-3.923945	انجکشن	-0.01223888
-3.923945	انحصار	-0.01223888
-3.923945	انحطاط	-0.01223888
-3.923945	انخلا	-0.01223888
-3.446771	انداز	-0.01223888
-3.923945	اندھادھند	-0.01223888
-3.923945	اندھیروں	-0.01223888
-3.622875	اندھیرے	-0.01223888
-3.923945	اندھے	-0.01223888
-3.622875	انسان	-0.01223888
-3.923945	انسانیت	-0.01223888
-3.923945	انستھیزیا	-0.01223888
-3.923945	انسولیشن	-0.01223888
-3.923945	انسولین	-0.01223888
-3.923945	انسٹھویں	-0.01223888
-3.923945	انشائیہ	-0.01223888
-3.923945	انشااللہ	-0.01223888
-3.923945	انشورنس	-0.01223888
-3.923945	انضمام	-0.01223888
-3.923945	انظباتی	-0.01223888
-3.923945	انعقاد	-0.01223888
-3.923945	انفارمیشن	-0.01223888
-3.923945	انفرادی	-0.01223888
-3.923945	انفلوئنزا	-0.01223888
-3.923945	انفورسمنٹ	-0.01223888
-3.923945	انقلاب	-0.01223888
-3.923945	اننگز	-0.01223888
-3.923945	انوالومنٹ	-0.01223888
-3.923945	انور	-0.01223888
-3.923945	انوسٹمنٹ	-0.01223888
-3.923945	انوکھی	-0.01223888
-3.622875	انوکھے	-0.01223888
-3.923945	انٹر	-0.01223888
-3.923945	انٹرفیس	-0.01223888
-3.923945	انٹلیکچوئل	-0.01223888
-3.923945	انٹیلجنس	-0.01223888
-3.923945	انٹیلیجینس	-0.01223888
-3.923945	انڈسٹری	-0.01223888
-3.923945	انکشاف	-0.01223888
-3.923945	انکلوژر	-0.01223888
-3.923945	انگریزوں	-0.01223888
-3.923945	انگریزی	-0.01223888
-3.923945	انگلش	-0.01223888
-3.923945	انگلی	-0.01223888
-3.923945	انگوٹھا	-0.01223888
-3.923945	انگوٹھی	-0.01223888
-3.923945	انگوٹھے	-0.01223888
-3.923945	انگیخت	-0.01223888
-3.923945	انہونی	-0.01223888
-3.923945	انہوں	-0.01223888
-3.923945	انہی	-0.01223888
-3.622875	انہیں	-0.01223888
-3.923945	انیس	-0.01223888
-3.923945	انیق	-0.01223888
-3.923945	اوباش	-0.01223888
-3.923945	اوج	-0.01223888
-3.923945	اوجھل	-0.01223888
-3.923945	اوجھڑی	-0.01223888
-3.923945	اودھم	-0.01223888
-1.4675	اور	-0.01663312
-3.923945	اورنگ	-0.01223888
-3.923945	اوزار	-0.01223888
-3.923945	اوس	-0.01223888
-3.923945	اوصاف	-0.01223888
-3.622875	اوقات	-0.01223888
-3.923945	اولاد	-0.01223888
-3.923945	اولولعزم	-0.01223888
-3.923945	اولی	-0.01223888
-3.923945	اولین	-0.01223888
-3.923945	اومیگا	-0.01223888
-3.923945	اونس	-0.01223888
-3.923945	اونچی	-0.01223888
-3.923945	اونی	-0.01223888
-3.923945	اونے	-0.01223888
-3.923945	اوور	-0.01223888
-3.923945	اوورلوڈنگ	-0.01223888
-3.923945	اوپر	-0.01223888
-3.923945	اوچھے	-0.01223888
-3.923945	اوڈھو	-0.01223888
-3.923945	اوڑھ	-0.01223888
-3.923945	اوڑھا	-0.01223888
-3.923945	اوڑھنا	-0.01223888
-3.923945	اوڑھے	-0.01223888
-3.923945	اوکاڑوی	-0.01223888
-3.923945	اوکھا	-0.01223888
-3.923945	اوہام	-0.01223888
-3.923945	اویئرنس	-0.01223888
-3.923945	اویسی	-0.01223888
-3.923945	اُمید	-0.01223888
-3.923945	اُٹھاؤں	-0.01223888
-3.923945	اُٹھانے	-0.01223888
-3.923945	اُٹھایا	-0.01223888
-3.622875	اٹھا	-0.01223888
-3.923945	اٹھاؤ	-0.01223888
-3.923945	اٹھائیس	-0.01223888
-3.622875	اٹھائے	-0.01223888
-3.923945	اٹھارہ	-0.01223888
-3.923945	اٹھاسی	-0.01223888
-3.923945	اٹھاون	-0.01223888
-3.923945	اٹھایا	-0.01223888
-3.923945	اٹھتر	-0.01223888
-3.923945	اٹھنے	-0.01223888
-3.923945	اٹھوا	-0.01223888
-3.923945	اٹھی	-0.01223888
-3.923945	اٹھیں	-0.01223888
-3.923945	اٹھے	-0.01223888
-3.923945	اپروچ	-0.01223888
-3.622875	اپنا	-0.01223888
-3.923945	اپنائیں	-0.01223888
-3.145727	اپنی	-0.01223888
-2.923873	اپنے	-0.01223888
-3.923945	اپوزیشن	-0.01223888
-3.923945	اپیلیں	-0.01223888
-3.622875	اچانک	-0.01223888
-3.923945	اچاٹ	-0.01223888
-3.923945	اچنبھے	-0.01223888
-3.923945	اچک	-0.01223888
-3.923945	اچھال	-0.01223888
-3.923945	اچھل	-0.01223888
-3.923945	اچھی	-0.01223888
-3.446771	اچھے	-0.01223888
-3.923945	اچیومنٹ	-0.01223888
-3.923945	اڈوں	-0.01223888
-3.923945	اڈے	-0.01223888
-3.923945	اڑا	-0.01223888
-3.622875	اڑائیں	-0.01223888
-3.622875	اڑانے	-0.01223888
-3.923945	اڑایا	-0.01223888
-3.923945	اڑتالیس	-0.01223888
-3.923945	اڑسٹھ	-0.01223888
-3.923945	اڑوں	-0.01223888
-3.923945	اڑیں	-0.01223888
-3.923945	اژدھا	-0.01223888
-3.923945	اژدھام	-0.01223888
-3.923945	اکرم	-0.01223888
-3.923945	اکٹھی	-0.01223888
-3.923945	اکھاڑ	-0.01223888
-3.923945	اکھنڈ	-0.01223888
-3.923945	اکھڑنا	-0.01223888
-3.923945	اکیسویں	-0.01223888
-3.923945	اگائے	-0.01223888
-3.622875	اگر	-0.01223888
-3.923945	اگرچہ	-0.01223888
-3.923945	اگلا	-0.01223888
-3.923945	اگلے	-0.01223888
-3.446771	اہل	-0.01223888
-3.923945	اہلخانہ	-0.01223888
-3.923945	اہلسنت	-0.01223888
-3.923945	اہلکار	-0.01223888
-3.923945	اہلیہ	-0.01223888
-3.923945	اہم	-0.01223888
-3.923945	ای	-0.01223888
-3.446771	ایئر	-0.01223888
-3.923945	ایام	-0.01223888
-3.923945	ایتھرنیٹ	-0.01223888
-3.923945	ایتھلیٹ	-0.01223888
-3.923945	ایثار	-0.01223888
-3.622875	ایجنسی	-0.01223888
-3.923945	ایجنسیز	-0.01223888
-3.923945	ایجنسیوں	-0.01223888
-3.923945	ایجوکیشن	-0.01223888
-3.923945	ایرانی	-0.01223888
-3.923945	ایری	-0.01223888
-3.923945	ایریا	-0.01223888
-3.923945	ایس	-0.01223888
-3.923945	ایسا	-0.01223888
-3.923945	ایسڈ	-0.01223888
-3.622875	ایسی	-0.01223888
-3.923945	ایسے	-0.01223888
-3.923945	ایشز	-0.01223888
-3.923945	ایشو	-0.01223888
-3.923945	ایشوز	-0.01223888
-3.923945	ایشیائی	-0.01223888
-3.923945	ایشیائیوں	-0.01223888
-3.923945	ایف	-0.01223888
-3.923945	ایفا	-0.01223888
-3.923945	ایفروایشین	-0.01223888
-3.923945	ایفکٹ	-0.01223888
-3.622875	ایقان	-0.01223888
-3.923945	ایل	-0.01223888
-3.923945	ایلوویرا	-0.01223888
-3.923945	ایلویٹ	-0.01223888
-3.923945	ایلیمنٹری	-0.01223888
-3.923945	ایلیٹ	-0.01223888
-3.923945	ایم	-0.01223888
-3.923945	ایمبولینس	-0.01223888
-3.923945	ایمبیسی	-0.01223888
-3.923945	ایمرجنسی	-0.01223888
-3.923945	ایندھن	-0.01223888
-3.923945	اینٹھن	-0.01223888
-3.923945	اینڈ	-0.01223888
-3.923945	اینگرو	-0.01223888
-3.923945	اینگزائٹی	-0.01223888
-3.923945	اینگلو	-0.01223888
-3.923945	ایوارڈ	-0.01223888
-3.923945	ایوان	-0.01223888
-3.923945	ایونٹ	-0.01223888
-3.923945	ایونیو	-0.01223888
-3.923945	ایچ	-0.01223888
-3.923945	ایڈجسٹ	-0.01223888
-3.923945	ایڈریس	-0.01223888
-3.923945	ایڈز	-0.01223888
-3.923945	ایڈوائزری	-0.01223888
-3.923945	ایڈوانسڈ	-0.01223888
-3.923945	ایڈورٹائزنگ	-0.01223888
-3.923945	ایڈونچر	-0.01223888
-3.923945	ایڈووکیٹ	-0.01223888
-3.923945	ایڈڈ	-0.01223888
-3.923945	ایڈہاک	-0.01223888
-3.923945	ایڈیشنل	-0.01223888
-2.581446	ایک	-0.01223888
-3.923945	ایکسیئن	-0.01223888
-3.923945	ایکسیڈنٹ	-0.01223888
-3.923945	ایکویٹی	-0.01223888
-3.923945	ایگزامینر	-0.01223888
-3.923945	ایگزیکٹو	-0.01223888
-3.923945	ایگلز	-0.01223888
-3.923945	ایں	-0.01223888
-3.923945	ایہام	-0.01223888
-3.923945	اے	-0.01223888
-3.923945	بآسانی	-0.01223888
-3.923945	با	-0.01223888
-3.923945	باآسانی	-0.01223888
-3.923945	باؤلر	-0.01223888
-3.923945	باؤنڈری	-0.01223888
-3.923945	بائیس	-0.01223888
-3.923945	بائیولوجیکل	-0.01223888
-3.923945	بائیں	-0.01223888
-3.923945	بااثر	-0.01223888
-3.923945	باادب	-0.01223888
-3.923945	بااصول	-0.01223888
-3.923945	بااللہ	-0.01223888
-3.923945	باب	-0.01223888
-3.622875	بات	-0.3132689
-3.923945	باتھو	-0.01223888
-3.923945	باجرہ	-0.01223888
-3.923945	باجوہ	-0.01223888
-3.923945	باخبر	-0.01223888
-3.923945	باد	-0.01223888
-3.923945	بادشاہ	-0.01223888
-3.923945	باذوق	-0.01223888
-3.923945	بار	-0.01223888
-3.923945	باران	-0.01223888
-3.923945	بارش	-0.01223888
-3.923945	بارونق	-0.01223888
-3.923945	باریش	-0.01223888
-3.923945	بارے	-0.01223888
-3.923945	بازو	-0.01223888
-3.923945	بازوؤں	-0.01223888
-3.923945	بازیاب	-0.01223888
-3.923945	بازیچہ	-0.01223888
-3.923945	باشعور	-0.01223888
-3.923945	باشندوں	-0.01223888
-3.622875	باعث	-0.01223888
-3.923945	باغ	-0.01223888
-3.923945	باغبانی	-0.01223888
-3.923945	باغوں	-0.01223888
-3.923945	باغیانہ	-0.01223888
-3.923945	باغیوں	-0.01223888
-3.923945	باغیچہ	-0.01223888
-3.923945	بافتوں	-0.01223888
-3.923945	باقر	-0.01223888
-3.622875	باقی	-0.01223888
-3.923945	بالاخر	-0.01223888
-3.923945	بالخصوص	-0.01223888
-3.923945	بالغ	-0.01223888
-3.923945	بالغان	-0.01223888
-3.923945	بالغوں	-0.01223888
-3.923945	بالواسطہ	-0.01223888
-3.923945	بالکل	-0.01223888
-3.923945	بام	-0.01223888
-3.923945	بانجھ	-0.01223888
-3.923945	باندھ	-0.01223888
-3.923945	باندھنے	-0.01223888
-3.923945	باندھیں	-0.01223888
-3.923945	بانسری	-0.01223888
-3.923945	بانو	-0.01223888
-3.923945	بانگ	-0.01223888
-3.923945	بانہیں	-0.01223888
-3.622875	باوجود	-0.01223888
-3.923945	باورچی	-0.01223888
-3.923945	باولنگ	-0.01223888
-3.923945	باڈی	-0.01223888
-3.923945	باڑھ	-0.01223888
-3.923945	باڑہ	-0.01223888
-3.923945	باگ	-0.01223888
-3.622875	باہر	-0.01223888
-3.923945	بتاؤں	-0.01223888
-3.622875	بتایا	-0.01223888
-3.923945	بتدریج	-0.01223888
-3.923945	بجاآوری	-0.01223888
-3.923945	بجائے	-0.01223888
-3.923945	بجلی	-0.01223888
-3.923945	بجنوری	-0.01223888
-3.923945	بجٹ	-0.01223888
-3.923945	بجھائی	-0.01223888
-3.923945	بجھی	-0.01223888
-3.923945	بجیں	-0.01223888
-3.923945	بجے	-0.01223888
-3.923945	بحث	-0.01223888
-3.923945	بحثتا	-0.01223888
-3.923945	بحثوں	-0.01223888
-3.622875	بحثیں	-0.01223888
-3.923945	بحران	-0.01223888
-3.923945	بحرانی	-0.01223888
-3.923945	بحیثیت	-0.01223888
-3.923945	بحیرہ	-0.01223888
-3.923945	بخاری	-0.01223888
-3.923945	بخدمت	-0.01223888
-3.923945	بخشش	-0.01223888
-3.923945	بخشی	-0.01223888
-3.923945	بخشیں	-0.01223888
-3.923945	بخشے	-0.01223888
-3.923945	بخوبی	-0.01223888
-3.923945	بخود	-0.01223888
-3.923945	بداخلاقی	-0.01223888
-3.923945	بدحالی	-0.01223888
-3.923945	بدروح	-0.01223888
-3.923945	بدسلوکی	-0.01223888
-3.923945	بدشگونی	-0.01223888
-3.923945	بدصورت	-0.01223888
-3.923945	بدظن	-0.01223888
-3.923945	بدقسمتی	-0.01223888
-3.622875	بدل	-0.01223888
-3.923945	بدلو	-0.01223888
-3.923945	بدلیں	-0.01223888
-3.923945	بدلے	-0.01223888
-3.923945	بدمزگی	-0.01223888
-3.923945	بدچلنی	-0.01223888
-3.923945	بدھ	-0.01223888
-3.923945	بدھا	-0.01223888
-3.923945	بدہضمی	-0.01223888
-3.923945	براؤزر	-0.01223888
-3.622875	برابر	-0.01223888
-3.923945	براوو	-0.01223888
-3.923945	براں	-0.01223888
-3.923945	براہمن	-0.01223888
-3.923945	برتن	-0.01223888
-3.923945	برج	-0.01223888
-3.923945	برخلاف	-0.01223888
-3.923945	بردار	-0.01223888
-3.923945	برداشت	-0.01223888
-3.923945	برس	-0.01223888
-3.923945	برساتا	-0.01223888
-3.923945	برسراقتدار	-0.01223888
-3.923945	برسوں	-0.01223888
-3.923945	برش	-0.01223888
-3.923945	برطانوی	-0.01223888
-3.923945	برطرفی	-0.01223888
-3.923945	برعظیم	-0.01223888
-3.923945	برعکس	-0.01223888
-3.923945	برفباری	-0.01223888
-3.923945	برقرار	-0.01223888
-3.622875	بروز	-0.01223888
-3.923945	بروکلی	-0.01223888
-3.622875	برڈ	-0.01223888
-3.923945	بری	-0.01223888
-3.923945	بریتھلائزر	-0.01223888
-3.923945	بریفنگ	-0.01223888
-3.923945	بریگیڈیر	-0.01223888
-3.923945	بزدل	-0.01223888
-3.923945	بزرگ	-0.01223888
-3.923945	بزرگوار	-0.01223888
-3.923945	بزنس	-0.01223888
-3.923945	بس	-0.01223888
-3.923945	بسا	-0.01223888
-3.923945	بسائیں	-0.01223888
-3.923945	بستر	-0.01223888
-3.923945	بسر	-0.01223888
-3.923945	بسوں	-0.01223888
-3.923945	بسیار	-0.01223888
-3.923945	بسیں	-0.01223888
-3.923945	بش	-0.01223888
-3.923945	بشاش	-0.01223888
-3.923945	بشمول	-0.01223888
-3.923945	بشیر	-0.01223888
-3.923945	بطخوں	-0.01223888
-3.923945	بظاہر	-0.01223888
-3.446771	بعد	-0.01223888
-3.622875	بعدازاں	-0.01223888
-3.923945	بعض	-0.01223888
-3.923945	بعینہ	-0.01223888
-3.622875	بغاوت	-0.01223888
-3.923945	بغدادی	-0.01223888
-3.923945	بغلگیر	-0.01223888
-3.923945	بغور	-0.01223888
-3.020785	بغیر	-0.01223888
-3.923945	بفرزون	-0.01223888
-3.923945	بقایا	-0.01223888
-3.923945	بقایاجات	-0.01223888
-3.923945	بقول	-0.01223888
-3.923945	بقیہ	-0.01223888
-3.923945	بل	-0.01223888
-3.446771	بلا	-0.01223888
-3.923945	بلاخوف	-0.01223888
-3.923945	بلاسوچے	-0.01223888
-3.923945	بلبل	-0.01223888
-3.923945	بلدیاتی	-0.01223888
-3.923945	بلغم	-0.01223888
-3.923945	بلند	-0.01223888
-3.923945	بلونگڑے	-0.01223888
-3.923945	بلوچ	-0.01223888
-3.923945	بلوچوں	-0.01223888
-3.923945	بلوچی	-0.01223888
-3.923945	بلوں	-0.01223888
-3.923945	بلڈ	-0.01223888
-3.923945	بلڈنگ	-0.01223888
-3.923945	بلڈوزر	-0.01223888
-3.923945	بلڈوزروں	-0.01223888
-3.622875	بلکہ	-0.01223888
-3.923945	بلگرامی	-0.01223888
-3.923945	بلی	-0.01223888
-3.923945	بلین	-0.01223888
-3.923945	بم	-0.01223888
-3.078779	بن	-0.1583669
-3.078779	بنا	-0.1583669
-3.923945	بناؤں	-0.01223888
-3.923945	بنائی	-0.01223888
-3.923945	بنائیں	-0.01223888
-3.923945	بنانا	-0.01223888
-3.622875	بنانے	-0.3132689
-3.446771	بنایا	-0.4893602
-3.923945	بند	-0.01223888
-3.923945	بندوق	-0.01223888
-3.923945	بنوری	-0.01223888
-3.923945	بنولہ	-0.01223888
-3.923945	بنگالی	-0.01223888
-3.923945	بنگلہ	-0.01223888
-3.923945	بنگلے	-0.01223888
-3.622875	بنیں	-0.01223888
-3.923945	بنے	-0.01223888
-3.923945	بو	-0.01223888
-3.923945	بوئنگ	-0.01223888
-3.923945	بوئے	-0.01223888
-3.923945	بوائے	-0.01223888
-3.923945	بوبی	-0.01223888
-3.923945	بوجوہ	-0.01223888
-3.622875	بوجھ	-0.01223888
-3.923945	بودلہ	-0.01223888
-3.923945	بورڈ	-0.01223888
-3.923945	بورڈر	-0.01223888
-3.923945	بوریت	-0.01223888
-3.923945	بوسن	-0.01223888
-3.923945	بوسنیائی	-0.01223888
-3.923945	بوقت	-0.01223888
-3.923945	بولروں	-0.01223888
-3.923945	بولنگ	-0.01223888
-3.923945	بولنے	-0.01223888
-3.923945	بولو	-0.01223888
-3.923945	بولوں	-0.01223888
-3.923945	بولیں	-0.01223888
-3.923945	بولے	-0.01223888
-3.923945	بوم	-0.01223888
-3.923945	بونس	-0.01223888
-3.923945	بوچھاڑ	-0.01223888
-3.923945	بوڑھا	-0.01223888
-3.923945	بوڑھوں	-0.01223888
-3.923945	بوڑھی	-0.01223888
-3.923945	بوڑھے	-0.01223888
-3.923945	بوکھلاہٹ	-0.01223888
-3.923945	بوگس	-0.01223888
-3.923945	بویا	-0.01223888
-3.923945	بَلّا	-0.01223888
-3.923945	بُدھی	-0.01223888
-3.923945	بٹورتا	-0.01223888
-3.923945	بٹھا	-0.01223888
-3.923945	بپھر	-0.01223888
-3.923945	بپھرے	-0.01223888
-3.923945	بچاؤ	-0.01223888
-3.923945	بچائیں	-0.01223888
-3.923945	بچار	-0.01223888
-3.923945	بچایا	-0.01223888
-3.923945	بچنے	-0.01223888
-3.923945	بچوں	-0.01223888
-3.923945	بچّو	-0.01223888
-3.923945	بچّی	-0.01223888
-3.923945	بچھانے	-0.01223888
-3.923945	بچھونا	-0.01223888
-3.923945	بچھڑ	-0.01223888
-3.923945	بچھڑا	-0.01223888
-3.923945	بچھڑوں	-0.01223888
-3.923945	بچھڑے	-0.01223888
-3.923945	بچھے	-0.01223888
-3.622875	بچہ	-0.01223888
-3.923945	بچی	-0.01223888
-3.923945	بچیاں	-0.01223888
-3.923945	بچیوں	-0.01223888
-3.923945	بچیں	-0.01223888
-3.622875	بچے	-0.01223888
-3.923945	بڈھا	-0.01223888
-3.923945	بڑا	-0.01223888
-3.923945	بڑھ	-0.01223888
-3.923945	بڑھئی	-0.01223888
-3.923945	بڑھا	-0.01223888
-3.923945	بڑھائیں	-0.01223888
-3.923945	بڑھائے	-0.01223888
-3.923945	بڑھانے	-0.01223888
-3.923945	بڑھاوا	-0.01223888
-3.923945	بڑھاوں	-0.01223888
-3.923945	بڑھاپے	-0.01223888
-3.923945	بڑھوتری	-0.01223888
-3.622875	بڑی	-0.01223888
-3.622875	بڑے	-0.01223888
-3.923945	بکھری	-0.01223888
-3.923945	بکھرے	-0.01223888
-3.923945	بکھیر	-0.01223888
-3.923945	بکھیرنے	-0.01223888
-3.923945	بگاڑنے	-0.01223888
-3.923945	بگٹی	-0.01223888
-3.923945	بگڑ	-0.01223888
-3.923945	بگھی	-0.01223888
-3.923945	بھئی	-0.01223888
-3.923945	بھائی	-0.01223888
-3.923945	بھائیوں	-0.01223888
-3.923945	بھابی	-0.01223888
-3.923945	بھارتی	-0.01223888
-3.923945	بھاری	-0.01223888
-3.923945	بھاشا	-0.01223888
-3.923945	بھال	-0.01223888
-3.923945	بھانجے	-0.01223888
-3.923945	بھانپ	-0.01223888
-3.923945	بھاوج	-0.01223888
-3.923945	بھاڑ	-0.01223888
-3.923945	بھاگ	-0.01223888
-3.923945	بھجن	-0.01223888
-3.923945	بھجوا	-0.01223888
-3.923945	بھجوائیں	-0.01223888
-3.923945	بھدی	-0.01223888
-3.923945	بھر	-0.01223888
-3.923945	بھربھری	-0.01223888
-3.923945	بھرتا	-0.01223888
-3.923945	بھروسہ	-0.01223888
-3.923945	بھرٹ	-0.01223888
-3.923945	بھری	-0.01223888
-3.923945	بھلا	-0.01223888
-3.923945	بھنوؤں	-0.01223888
-3.923945	بھنڈی	-0.01223888
-3.923945	بھنگڑا	-0.01223888
-3.923945	بھنگڑے	-0.01223888
-3.923945	بھوت	-0.01223888
-3.923945	بھوجپوری	-0.01223888
-3.923945	بھورا	-0.01223888
-3.923945	بھورے	-0.01223888
-3.622875	بھول	-0.01223888
-3.923945	بھولا	-0.01223888
-3.923945	بھولنا	-0.01223888
-3.923945	بھولو	-0.01223888
-3.923945	بھولیں	-0.01223888
-3.923945	بھومی	-0.01223888
-3.923945	بھون	-0.01223888
-3.923945	بھونچال	-0.01223888
-3.923945	بھونڈی	-0.01223888
-3.923945	بھٹو	-0.01223888
-3.923945	بھڑوں	-0.01223888
-3.622875	بھڑک	-0.01223888
-3.923945	بھگت	-0.01223888
-3.923945	بھگدڑ	-0.01223888
-3.923945	بھگو	-0.01223888
-3.923945	بھگوئیں	-0.01223888
-3.923945	بھگوڑوں	-0.01223888
-2.969632	بھی	-0.01223887
-3.923945	بھیانک	-0.01223888
-3.321825	بھیج	-0.1371776
-3.923945	بھیجا	-0.01223888
-3.923945	بھیجنے	-0.01223888
-3.923945	بھیجوں	-0.01223888
-3.923945	بھیجی	-0.01223888
-3.923945	بھیجیں	-0.01223888
-3.923945	بھیجے	-0.01223888
-3.923945	بھید	-0.01223888
-3.923945	بھیس	-0.01223888
-3.923945	بھیم	-0.01223888
-3.622875	بھینس	-0.01223888
-3.923945	بھینسیں	-0.01223888
-3.923945	بھینٹ	-0.01223888
-3.923945	بھیڑوں	-0.01223888
-3.923945	بھیڑیا	-0.01223888
-3.923945	بھیڑیے	-0.01223888
-3.923945	بھیگی	-0.01223888
-3.923945	بہ	-0.01223888
-3.923945	بہائیں	-0.01223888
-3.923945	بہبود	-0.01223888
-3.622875	بہت	-0.01223888
-3.923945	بہتر	-0.01223888
-3.923945	بہتری	-0.01223888
-3.923945	بہترین	-0.01223888
-3.923945	بہرحال	-0.01223888
-3.923945	بہن	-0.01223888
-3.923945	بہنوئی	-0.01223888
-3.923945	بہو	-0.01223888
-3.923945	بیان	-0.01223888
-3.923945	بیباک	-0.01223888
-3.622875	بیج	-0.01223888
-3.923945	بیجوں	-0.01223888
-3.923945	بیدار	-0.01223888
-3.923945	بیداری	-0.01223888
-3.923945	بیراج	-0.01223888
-3.923945	بیرونی	-0.01223888
-3.923945	بیزار	-0.01223888
-3.923945	بیس	-0.01223888
-3.923945	بیساکھی	-0.01223888
-3.923945	بیسمنٹ	-0.01223888
-3.923945	بیسن	-0.01223888
-3.923945	بیسٹ	-0.01223888
-3.923945	بیشتر	-0.01223888
-3.923945	بیضوی	-0.01223888
-3.923945	بیضے	-0.01223888
-3.923945	بیعانہ	-0.01223888
-3.923945	بیعت	-0.01223888
-3.923945	بیلدار	-0.01223888
-3.923945	بیلوں	-0.01223888
-3.923945	بیلٹ	-0.01223888
-3.923945	بیلچہ	-0.01223888
-3.923945	بیماری	-0.01223888
-3.923945	بینات	-0.01223888
-3.923945	بینظیر	-0.01223888
-3.923945	بینچ	-0.01223888
-3.923945	بینک	-0.01223888
-3.923945	بینگن	-0.01223888
-3.923945	بیورو	-0.01223888
-3.923945	بیوروکریسی	-0.01223888
-3.923945	بیوروکریٹس	-0.01223888
-3.923945	بیوپار	-0.01223888
-3.923945	بیوگان	-0.01223888
-3.923945	بیوہ	-0.01223888
-3.923945	بیوی	-0.01223888
-3.923945	بیویوں	-0.01223888
-3.923945	بیٹھ	-0.01223888
-3.622875	بیٹھا	-0.01223888
-3.923945	بیٹھتے	-0.01223888
-3.923945	بیٹھک	-0.01223888
-3.923945	بیٹھی	-0.01223888
-3.622875	بیچ	-0.01223888
-3.923945	بیچارے	-0.01223888
-3.923945	بیچلر	-0.01223888
-3.923945	بیچنے	-0.01223888
-3.923945	بیچوں	-0.01223888
-3.923945	بیچیں	-0.01223888
-3.923945	بیچے	-0.01223888
-3.923945	بیڈروم	-0.01223888
-3.923945	بیڑیاں	-0.01223888
-3.923945	بیڑے	-0.01223888
-3.923945	بیک	-0.01223888
-3.923945	بیگ	-0.01223888
-3.923945	بیگج	-0.01223888
-3.923945	بیگز	-0.01223888
-3.622875	بیگم	-0.01223888
-3.923945	بیہوش	-0.01223888
-3.020785	بے	-0.01223888
-3.923945	بےاختیار	-0.01223888
-3.923945	بےجا	-0.01223888
-3.923945	بےعزتی	-0.01223888
-3.923945	بےقصور	-0.01223888
-3.923945	بےمعنی	-0.01223888
-3.923945	بےہودہ	-0.01223888
-3.923945	تابش	-0.01223888
-3.923945	تاثر	-0.01223888
-3.923945	تاثرات	-0.01223888
-3.923945	تاجدار	-0.01223888
-3.923945	تاجر	-0.01223888
-3.923945	تاجروں	-0.01223888
-3.923945	تاجور	-0.01223888
-3.923945	تاخیر	-0.01223888
-3.923945	تارڑ	-0.01223888
-3.622875	تاریخ	-0.01223888
-3.923945	تاریخوں	-0.01223888
-3.923945	تاریخی	-0.01223888
-3.923945	تامل	-0.01223888
-3.923945	تباہی	-0.01223888
-3.923945	تبدیل	-0.01223888
-3.622875	تبدیلی	-0.01223888
-3.923945	تبدیلیاں	-0.01223888
-3.923945	تبسم	-0.01223888
-3.923945	تبلیغ	-0.01223888
-3.923945	تبلیغی	-0.01223888
-3.923945	تجارت	-0.01223888
-3.923945	تجربات	-0.01223888
-3.923945	تجربہ	-0.01223888
-3.923945	تجرد	-0.01223888
-3.923945	تجزیوں	-0.01223888
-3.923945	تجزیہ	-0.01223888
-3.923945	تجزیے	-0.01223888
-3.923945	تجوریاں	-0.01223888
-3.622875	تجویز	-0.01223888
-3.923945	تحائف	-0.01223888
-3.923945	تحریر	-0.01223888
-3.923945	تحریروں	-0.01223888
-3.923945	تحریک	-0.01223888
-3.923945	تحصیل	-0.01223888
-3.923945	تحصیلدار	-0.01223888
-3.923945	تحصیلوں	-0.01223888
-3.923945	تحفتا	-0.01223888
-3.923945	تحفہ	-0.01223888
-3.923945	تحفے	-0.01223888
-3.923945	تحقیق	-0.01223888
-3.923945	تحقیقات	-0.01223888
-3.923945	تحویل	-0.01223888
-3.923945	تحیر	-0.01223888
-3.923945	تخریب	-0.01223888
-3.923945	تخفیف	-0.01223888
-3.923945	تخلص	-0.01223888
-3.923945	تخلیق	-0.01223888
-3.923945	تخیّل	-0.01223888
-3.923945	تدابیر	-0.01223888
-3.923945	تدریس	-0.01223888
-3.923945	تدفین	-0.01223888
-3.923945	تذبذب	-0.01223888
-3.923945	تذلیل	-0.01223888
-3.923945	تراجم	-0.01223888
-3.923945	تراشوں	-0.01223888
-3.923945	تربیتی	-0.01223888
-3.923945	ترجمان	-0.01223888
-3.923945	ترجمانی	-0.01223888
-3.923945	ترجیح	-0.01223888
-3.923945	ترجیحات	-0.01223888
-3.923945	ترشول	-0.01223888
-3.923945	ترغیب	-0.01223888
-3.923945	ترقی	-0.01223888
-3.923945	ترقیات	-0.01223888
-3.923945	ترقیوں	-0.01223888
-3.923945	ترمذی	-0.01223888
-3.923945	ترمیم	-0.01223888
-3.923945	ترویج	-0.01223888
-3.923945	ترچھا	-0.01223888
-3.923945	ترچھی	-0.01223888
-3.923945	تزئین	-0.01223888
-3.923945	تساہل	-0.01223888
-3.923945	تسخیر	-0.01223888
-3.923945	تسلسل	-0.01223888
-3.923945	تسلیم	-0.01223888
-3.923945	تشبیہ	-0.01223888
-3.923945	تشخص	-0.01223888
-3.923945	تشخیص	-0.01223888
-3.923945	تشدد	-0.01223888
-3.923945	تشریف	-0.01223888
-3.923945	تشنج	-0.01223888
-3.923945	تشویش	-0.01223888
-3.923945	تشہیر	-0.01223888
-3.923945	تصحیح	-0.01223888
-3.923945	تصدق	-0.01223888
-3.923945	تصدیق	-0.01223888
-3.923945	تصفیے	-0.01223888
-3.923945	تصور	-0.01223888
-3.923945	تصورات	-0.01223888
-3.923945	تصویر	-0.01223888
-3.923945	تصویریں	-0.01223888
-3.923945	تضحیک	-0.01223888
-3.923945	تعارف	-0.01223888
-3.622875	تعاقب	-0.01223888
-3.923945	تعالی	-0.01223888
-3.923945	تعاون	-0.01223888
-3.923945	تعداد	-0.01223888
-3.923945	تعریفیں	-0.01223888
-3.622875	تعلق	-0.01223888
-3.923945	تعلقوں	-0.01223888
-3.923945	تعلیم	-0.01223888
-3.923945	تعمیر	-0.01223888
-3.923945	تعوذ	-0.01223888
-3.923945	تعیشات	-0.01223888
-3.923945	تعین	-0.01223888
-3.923945	تغافل	-0.01223888
-3.923945	تغلق	-0.01223888
-3.923945	تفاوت	-0.01223888
-3.923945	تفتیش	-0.01223888
-3.923945	تفتیشی	-0.01223888
-3.923945	تفرقہ	-0.01223888
-3.923945	تفریحی	-0.01223888
-3.923945	تفنن	-0.01223888
-3.923945	تفویض	-0.01223888
-3.923945	تفہیم	-0.01223888
-3.923945	تقاضوں	-0.01223888
-3.923945	تقدس	-0.01223888
-3.923945	تقرری	-0.01223888
-3.923945	تقریباً	-0.01223888
-3.923945	تقسیم	-0.01223888
-3.923945	تقویت	-0.01223888
-3.923945	تلاش	-0.01223888
-3.923945	تلخ	-0.01223888
-3.923945	تلخی	-0.01223888
-3.923945	تلخیاں	-0.01223888
-3.923945	تلخیوں	-0.01223888
-3.923945	تلمیحات	-0.01223888
-3.923945	تلور	-0.01223888
-3.622875	تلے	-0.01223888
-3.622875	تم	-0.01223888
-3.923945	تماشائیوں	-0.01223888
-3.622875	تمام	-0.01223888
-3.923945	تمسخر	-0.01223888
-3.923945	تمغوں	-0.01223888
-3.923945	تمغہ	-0.01223888
-3.923945	تمناؤں	-0.01223888
-3.923945	تمہارے	-0.01223888
-3.923945	تمہیں	-0.01223888
-3.923945	تناؤ	-0.01223888
-3.923945	تنازع	-0.01223888
-3.923945	تنازعے	-0.01223888
-3.923945	تناسب	-0.01223888
-3.923945	تناول	-0.01223888
-3.923945	تنخواہ	-0.01223888
-3.923945	تندہی	-0.01223888
-3.923945	تنزلی	-0.01223888
-3.923945	تنسیخ	-0.01223888
-3.622875	تنظیم	-0.01223888
-3.923945	تنفس	-0.01223888
-3.923945	تنقید	-0.01223888
-3.923945	تنقیص	-0.01223888
-3.923945	تنوع	-0.01223888
-3.923945	تنولی	-0.01223888
-3.923945	تنگ	-0.01223888
-3.923945	تنگدستی	-0.01223888
-2.233671	تو	-0.05898228
-3.923945	توازن	-0.01223888
-3.923945	توجہ	-0.01223888
-3.923945	توجیہ	-0.01223888
-3.923945	توسیع	-0.01223888
-3.923945	توسیعی	-0.01223888
-3.923945	توصیف	-0.01223888
-3.923945	توضیح	-0.01223888
-3.923945	توضیحات	-0.01223888
-3.923945	توفیق	-0.01223888
-3.923945	توقع	-0.01223888
-3.923945	توقعات	-0.01223888
-3.923945	توقف	-0.01223888
-3.923945	تولید	-0.01223888
-3.923945	تولیے	-0.01223888
-3.923945	توڑیں	-0.01223888
-3.923945	توہین	-0.01223888
-3.020785	تک	-0.01223888
-3.923945	تکلف	-0.01223888
-3.923945	تکلم	-0.01223888
-2.777743	تھا	-0.8573369
-3.923945	تھائی	-0.01223888
-3.923945	تھام	-0.01223888
-3.923945	تھانہ	-0.01223888
-3.923945	تھانیدار	-0.01223888
-3.622875	تھر	-0.01223888
-3.923945	تھری	-0.01223888
-3.923945	تھریپیس	-0.01223888
-3.923945	تھل	-0.01223888
-3.923945	تھنوں	-0.01223888
-3.923945	تھنک	-0.01223888
-3.923945	تھو	-0.01223888
-3.923945	تھوتھا	-0.01223888
-3.923945	تھوڑا	-0.01223888
-3.923945	تھوڑی	-0.01223888
-3.923945	تھوڑے	-0.01223888
-3.923945	تھوہر	-0.01223888
-3.923945	تھڑے	-0.01223888
-3.923945	تھک	-0.01223888
-3.321825	تھی	-0.3132689
-3.923945	تھیری	-0.01223888
-3.923945	تھیسس	-0.01223888
-3.923945	تھیلی	-0.01223888
-3.923945	تھیم	-0.01223888
-3.923945	تھینکس	-0.01223888
-3.923945	تھیوا	-0.01223888
-3.923945	تھیوری	-0.01223888
-3.923945	تھیٹر	-0.01223888
-3.446771	تھیں	-0.4893602
-3.145727	تھے	-0.7903901
-3.923945	تہتر	-0.01223888
-3.923945	تہذیب	-0.01223888
-3.923945	تہوار	-0.01223888
-3.923945	تہیں	-0.01223888
-3.923945	تہیہ	-0.01223888
-3.923945	تیار	-0.01223888
-3.923945	تیاگ	-0.01223888
-3.923945	تیروں	-0.01223888
-3.923945	تیرگی	-0.01223888
-3.923945	تیری	-0.01223888
-3.923945	تیرے	-0.01223888
-3.923945	تیز	-0.01223888
-3.923945	تیزرفتار	-0.01223888
-3.923945	تیزگام	-0.01223888
-3.923945	تیزی	-0.01223888
-3.923945	تیسر	-0.01223888
-3.923945	تیسرے	-0.01223888
-3.923945	تیقن	-0.01223888
-3.446771	تین	-0.01223888
-3.923945	ثاقب	-0.01223888
-3.923945	ثریا	-0.01223888
-3.923945	ثقافت	-0.01223888
-3.923945	ثقل	-0.01223888
-3.923945	ثلث	-0.01223888
-3.923945	ثمر	-0.01223888
-3.020785	جا	-0.1213834
-3.622875	جاؤ	-0.3132689
-3.923945	جاؤں	-0.01223888
-3.923945	جائزہ	-0.01223888
-3.923945	جائیداد	-0.01223888
-3.622875	جائیں	-0.01223888
-3.145727	جائے	-0.4893601
-3.321825	جاتا	-0.6142989
-3.446771	جاتی	-0.01223888
-3.923945	جادوئی	-0.01223888
-3.923945	جادوگر	-0.01223888
-3.923945	جارج	-0.01223888
-3.923945	جارحیت	-0.01223888
-3.923945	جاری	-0.01223888
-3.923945	جاسوسی	-0.01223888
-3.923945	جال	-0.01223888
-3.923945	جالندھری	-0.01223888
-3.923945	جامعہ	-0.01223888
-3.446771	جان	-0.01223888
-3.446771	جانا	-0.01223888
-3.923945	جانب	-0.01223888
-3.923945	جانبدار	-0.01223888
-3.145727	جانے	-0.09142013
-3.923945	جاوید	-0.01223888
-3.923945	جاگزیں	-0.01223888
-3.923945	جاگنگ	-0.01223888
-3.923945	جاگیرداروں	-0.01223888
-3.923945	جایا	-0.01223888
-3.923945	جب	-0.01223888
-3.923945	جبری	-0.01223888
-3.923945	جبڑا	-0.01223888
-3.923945	جبڑوں	-0.01223888
-3.923945	جبیں	-0.01223888
-3.923945	جتنی	-0.01223888
-3.923945	جج	-0.01223888
-3.923945	ججوں	-0.01223888
-3.923945	جدا	-0.01223888
-3.923945	جداگانہ	-0.01223888
-3.923945	جدوجہد	-0.01223888
-3.923945	جدول	-0.01223888
-3.923945	جدون	-0.01223888
-3.923945	جدید	-0.01223888
-3.622875	جذبات	-0.01223888
-3.923945	جرنیل	-0.01223888
-3.923945	جرگہ	-0.01223888
-3.923945	جزو	-0.01223888
-3.923945	جس	-0.01223888
-3.923945	جست	-0.01223888
-3.923945	جستجو	-0.01223888
-3.923945	جسم	-0.01223888
-3.923945	جسٹس	-0.01223888
-3.923945	جشن	-0.01223888
-3.923945	جعفری	-0.01223888
-3.923945	جعلسازی	-0.01223888
-3.923945	جعلی	-0.01223888
-3.923945	جغرافیائی	-0.01223888
-3.923945	جل	-0.01223888
-3.923945	جلالہ	-0.01223888
-3.622875	جلد	-0.01223888
-3.923945	جلدازجلد	-0.01223888
-3.923945	جلدی	-0.01223888
-3.923945	جلسوں	-0.01223888
-3.923945	جلسہ	-0.01223888
-3.923945	جلسے	-0.01223888
-3.923945	جلو	-0.01223888
-3.923945	جلوس	-0.01223888
-3.923945	جلوسوں	-0.01223888
-3.923945	جلووں	-0.01223888
-3.923945	جماعت	-0.01223888
-3.622875	جمخانہ	-0.01223888
-3.923945	جمشید	-0.01223888
-3.923945	جمعہ	-0.01223888
-3.923945	جمگھٹا	-0.01223888
-3.923945	جمہوریت	-0.01223888
-3.923945	جمیعت	-0.01223888
-3.923945	جن	-0.01223888
-3.923945	جناب	-0.01223888
-3.923945	جنرک	-0.01223888
-3.923945	جنریشن	-0.01223888
-3.446771	جنم	-0.01223888
-3.923945	جنوبی	-0.01223888
-3.923945	جنگ	-0.01223888
-3.923945	جنگجو	-0.01223888
-3.923945	جنگجوؤں	-0.01223888
-3.923945	جنگجویانہ	-0.01223888
-3.923945	جنگلوں	-0.01223888
-3.923945	جنگوں	-0.01223888
-3.923945	جنگی	-0.01223888
-3.224911	جو	-0.01223888
-3.923945	جوئیں	-0.01223888
-3.923945	جوئیہ	-0.01223888
-3.923945	جوائنٹ	-0.01223888
-3.923945	جواب	-0.01223888
-3.923945	جوار	-0.01223888
-3.923945	جوبلی	-0.01223888
-3.923945	جوجوبا	-0.01223888
-3.923945	جور	-0.01223888
-3.923945	جوس	-0.01223888
-3.622875	جوش	-0.01223888
-3.622875	جوق	-0.01223888
-3.923945	جولانی	-0.01223888
-3.923945	جون	-0.01223888
-3.923945	جونا	-0.01223888
-3.923945	جونہی	-0.01223888
-3.923945	جونیئر	-0.01223888
-3.923945	جونیجو	-0.01223888
-3.923945	جوڈیشری	-0.01223888
-3.923945	جوڈیشل	-0.01223888
-3.923945	جوڑیاں	-0.01223888
-3.923945	جوڑیں	-0.01223888
-3.923945	جوڑے	-0.01223888
-3.923945	جوکھوں	-0.01223888
-3.923945	جوگی	-0.01223888
-3.622875	جوں	-0.01223888
-3.923945	جوے	-0.01223888
-3.923945	جَلد	-0.01223888
-3.923945	جچتا	-0.01223888
-3.923945	جڑ	-0.01223888
-3.923945	جڑواں	-0.01223888
-3.923945	جڑی	-0.01223888
-3.923945	جڑیں	-0.01223888
-3.923945	جکڑن	-0.01223888
-3.923945	جکھرانی	-0.01223888
-3.923945	جگ	-0.01223888
-3.923945	جگہ	-0.01223888
-3.923945	جگہوں	-0.01223888
-3.923945	جھائیاں	-0.01223888
-3.923945	جھالر	-0.01223888
-3.923945	جھانکنے	-0.01223888
-3.923945	جھاڑو	-0.01223888
-3.923945	جھاڑیوں	-0.01223888
-3.923945	جھاگ	-0.01223888
-3.923945	جھجک	-0.01223888
-3.923945	جھجھک	-0.01223888
-3.923945	جھرنے	-0.01223888
-3.923945	جھریاں	-0.01223888
-3.923945	جھریوں	-0.01223888
-3.923945	جھلس	-0.01223888
-3.923945	جھلک	-0.01223888
-3.923945	جھلی	-0.01223888
-3.923945	جھم	-0.01223888
-3.923945	جھمکے	-0.01223888
-3.923945	جھنجھلاہٹ	-0.01223888
-3.923945	جھنجھوڑ	-0.01223888
-3.923945	جھنڈے	-0.01223888
-3.923945	جھنگوی	-0.01223888
-3.923945	جھولوں	-0.01223888
-3.923945	جھولے	-0.01223888
-3.923945	جھوم	-0.01223888
-3.923945	جھونپڑی	-0.01223888
-3.923945	جھونکے	-0.01223888
-3.923945	جھوٹ	-0.01223888
-3.923945	جھٹکے	-0.01223888
-3.923945	جھڑپ	-0.01223888
-3.923945	جھڑک	-0.01223888
-3.923945	جھکاؤ	-0.01223888
-3.923945	جھگڑا	-0.01223888
-3.923945	جھگڑالو	-0.01223888
-3.923945	جھگڑوں	-0.01223888
-3.923945	جھگڑے	-0.01223888
-3.923945	جھگی	-0.01223888
-3.923945	جھیل	-0.01223888
-3.923945	جھیلوں	-0.01223888
-3.923945	جھینگے	-0.01223888
-3.923945	جہاد	-0.01223888
-3.923945	جہانگیر	-0.01223888
-3.923945	جہاں	-0.01223888
-3.923945	جہتیں	-0.01223888
-3.923945	جہد	-0.01223888
-3.923945	جی	-0.01223888
-3.923945	جیب	-0.01223888
-3.923945	جید	-0.01223888
-3.923945	جیز	-0.01223888
-3.923945	جیسی	-0.01223888
-3.446771	جیسے	-0.01223888
-3.923945	جیل	-0.01223888
-3.923945	جیلانی	-0.01223888
-3.923945	جیم	-0.01223888
-3.923945	جینوئن	-0.01223888
-3.923945	جیو	-0.01223888
-3.923945	جیوئش	-0.01223888
-3.923945	جیوری	-0.01223888
-3.923945	جیولری	-0.01223888
-3.923945	جیومیٹری	-0.01223888
-3.923945	جیون	-0.01223888
-3.923945	جیٹ	-0.01223888
-3.923945	جیگوار	-0.01223888
-3.923945	حائل	-0.01223888
-3.923945	حاجی	-0.01223888
-3.923945	حادثاتی	-0.01223888
-3.923945	حادثے	-0.01223888
-3.622875	حاشیے	-0.01223888
-3.622875	حاصل	-0.01223888
-3.923945	حاضری	-0.01223888
-3.923945	حافظ	-0.01223888
-3.923945	حافظے	-0.01223888
-3.923945	حال	-0.01223888
-3.622875	حالات	-0.01223888
-3.622875	حالانکہ	-0.01223888
-3.923945	حامد	-0.01223888
-3.923945	حامل	-0.01223888
-3.923945	حاوی	-0.01223888
-3.923945	حبس	-0.01223888
-3.923945	حبشی	-0.01223888
-3.923945	حبیب	-0.01223888
-3.923945	حجاج	-0.01223888
-3.923945	حجت	-0.01223888
-3.923945	حد	-0.01223888
-3.923945	حدود	-0.01223888
-3.923945	حدیث	-0.01223888
-3.923945	حروں	-0.01223888
-3.923945	حریت	-0.01223888
-3.923945	حریفوں	-0.01223888
-3.923945	حزب	-0.01223888
-3.923945	حزن	-0.01223888
-3.923945	حسن	-0.01223888
-3.923945	حسین	-0.01223888
-3.923945	حسینی	-0.01223888
-3.923945	حسیں	-0.01223888
-3.923945	حشر	-0.01223888
-3.923945	حصص	-0.01223888
-3.923945	حصول	-0.01223888
-3.923945	حصوں	-0.01223888
-3.622875	حصے	-0.01223888
-3.923945	حضرات	-0.01223888
-3.923945	حضرت	-0.01223888
-3.923945	حضور	-0.01223888
-3.923945	حفاظ	-0.01223888
-3.923945	حفاظت	-0.01223888
-3.923945	حفیظ	-0.01223888
-3.923945	حق	-0.01223888
-3.923945	حقوق	-0.01223888
-3.923945	حقیقت	-0.01223888
-3.923945	حلف	-0.01223888
-3.923945	حلیہ	-0.01223888
-3.923945	حمایت	-0.01223888
-3.923945	حملوں	-0.01223888
-3.923945	حملہ	-0.01223888
-3.923945	حملے	-0.01223888
-3.923945	حوصلہ	-0.01223888
-3.923945	حوصلے	-0.01223888
-3.923945	حوض	-0.01223888
-3.923945	حویلی	-0.01223888
-3.923945	حکمراں	-0.01223888
-3.622875	حکومت	-0.01223888
-3.923945	حیثیت	-0.01223888
-3.923945	حیران	-0.01223888
-3.923945	حیراں	-0.01223888
-3.923945	حیرت	-0.01223888
-3.923945	خاتمے	-0.01223888
-3.923945	خاتون	-0.01223888
-3.923945	خادم	-0.01223888
-3.923945	خارجہ	-0.01223888
-3.923945	خاص	-0.01223888
-3.923945	خاصی	-0.01223888
-3.923945	خاصے	-0.01223888
-3.923945	خاطر	-0.01223888
-3.923945	خاقان	-0.01223888
-3.923945	خالد	-0.01223888
-3.923945	خام	-0.01223888
-3.923945	خاموش	-0.01223888
-3.923945	خاموشی	-0.01223888
-3.321825	خان	-0.1371776
-3.923945	خانقاہوں	-0.01223888
-3.923945	خانگی	-0.01223888
-3.923945	خاوند	-0.01223888
-3.923945	خاں	-0.01223888
-3.923945	خبر	-0.01223888
-3.923945	خبروں	-0.01223888
-3.923945	خبریں	-0.01223888
-3.923945	ختم	-0.01223888
-3.923945	خداؤں	-0.01223888
-3.923945	خدانخواستہ	-0.01223888
-3.923945	خدشہ	-0.01223888
-3.923945	خدشے	-0.01223888
-3.923945	خدمات	-0.01223888
-3.923945	خدوخال	-0.01223888
-3.923945	خروش	-0.01223888
-3.923945	خرچ	-0.01223888
-3.622875	خرید	-0.01223888
-3.923945	خریدوفروخت	-0.01223888
-3.923945	خریدیں	-0.01223888
-3.923945	خریدے	-0.01223888
-3.923945	خزانہ	-0.01223888
-3.923945	خزاں	-0.01223888
-3.923945	خسارے	-0.01223888
-3.923945	خسرو	-0.01223888
-3.923945	خشخاش	-0.01223888
-3.923945	خشوع	-0.01223888
-3.923945	خصوصا	-0.01223888
-3.923945	خصوصی	-0.01223888
-3.923945	خضوع	-0.01223888
-3.923945	خفت	-0.01223888
-3.923945	خفگی	-0.01223888
-3.923945	خفیہ	-0.01223888
-3.923945	خلائی	-0.01223888
-3.923945	خلاف	-0.01223888
-3.923945	خلجی	-0.01223888
-3.923945	خلق	-0.01223888
-3.923945	خلل	-0.01223888
-3.923945	خلیفہ	-0.01223888
-3.923945	خلیل	-0.01223888
-3.923945	خلیے	-0.01223888
-3.923945	خمار	-0.01223888
-3.923945	خوابیدہ	-0.01223888
-3.923945	خواتین	-0.01223888
-3.923945	خواجہ	-0.01223888
-3.923945	خوار	-0.01223888
-3.923945	خوارزمی	-0.01223888
-3.923945	خواری	-0.01223888
-3.923945	خواستگار	-0.01223888
-3.923945	خواص	-0.01223888
-3.923945	خوان	-0.01223888
-3.923945	خواہ	-0.01223888
-3.923945	خواہش	-0.01223888
-3.923945	خواہشمند	-0.01223888
-3.923945	خوبصورت	-0.01223888
-3.321825	خود	-0.01223888
-3.923945	خودرو	-0.01223888
-3.923945	خودسر	-0.01223888
-3.923945	خودسوزی	-0.01223888
-3.923945	خودکشیوں	-0.01223888
-3.923945	خوراک	-0.01223888
-3.923945	خورشید	-0.01223888
-3.923945	خوشبو	-0.01223888
-3.923945	خوشبوؤں	-0.01223888
-3.923945	خوشبوئیں	-0.01223888
-3.923945	خوشحالی	-0.01223888
-3.923945	خوشخبری	-0.01223888
-3.923945	خوشنودی	-0.01223888
-3.923945	خوشگوار	-0.01223888
-3.923945	خوشہ	-0.01223888
-3.622875	خوشی	-0.01223888
-3.923945	خوشیوں	-0.01223888
-3.923945	خوف	-0.01223888
-3.923945	خوفزدہ	-0.01223888
-3.923945	خوفناک	-0.01223888
-3.923945	خوفوں	-0.01223888
-3.923945	خول	-0.01223888
-3.923945	خون	-0.01223888
-3.923945	خوگر	-0.01223888
-3.923945	خویش	-0.01223888
-3.923945	خیال	-0.01223888
-3.923945	خیام	-0.01223888
-3.622875	خیر	-0.01223888
-3.923945	خیرخواہ	-0.01223888
-3.923945	خیرہ	-0.01223888
-3.923945	خیز	-0.01223888
-3.923945	خیل	-0.01223888
-3.923945	خیلوی	-0.01223888
-3.923945	خیمے	-0.01223888
-3.923945	داؤ	-0.01223888
-3.923945	داؤد	-0.01223888
-3.923945	داؤدی	-0.01223888
-3.923945	دائِیں	-0.01223888
-3.923945	دائیں	-0.01223888
-3.923945	داخل	-0.01223888
-3.622875	داخلوں	-0.01223888
-3.923945	دارالحکومت	-0.01223888
-3.923945	دارلخلافہ	-0.01223888
-3.923945	دارومدار	-0.01223888
-3.923945	داستان	-0.01223888
-3.923945	داغ	-0.01223888
-3.923945	داغدار	-0.01223888
-3.923945	داغنے	-0.01223888
-3.923945	دانش	-0.01223888
-3.923945	دانشو	-0.01223888
-3.923945	دانشور	-0.01223888
-3.923945	داڑھی	-0.01223888
-3.923945	دب	-0.01223888
-3.923945	دبائے	-0.01223888
-3.923945	دبایا	-0.01223888
-3.622875	دبیز	-0.01223888
-3.923945	در	-0.01223888
-3.923945	درآمدات	-0.01223888
-3.923945	دراوڑی	-0.01223888
-3.622875	درج	-0.3132689
-3.923945	درجوں	-0.01223888
-3.923945	درجے	-0.01223888
-3.923945	درخت	-0.01223888
-3.923945	درخشاں	-0.01223888
-3.622875	درخواست	-0.01223888
-3.923945	درخور	-0.01223888
-3.622875	درد	-0.01223888
-3.923945	درس	-0.01223888
-3.923945	درست	-0.01223888
-3.923945	درستگی	-0.01223888
-3.923945	درسگاہ	-0.01223888
-3.923945	درسگاہوں	-0.01223888
-3.923945	درمیان	-0.01223888
-3.923945	درود	-0.01223888
-3.923945	درہم	-0.01223888
-3.923945	دریاؤں	-0.01223888
-3.923945	دریافت	-0.01223888
-3.923945	دریغ	-0.01223888
-3.923945	دریچوں	-0.01223888
-3.923945	دریچے	-0.01223888
-3.923945	دریں	-0.01223888
-3.923945	دس	-0.01223888
-3.923945	دستاویزات	-0.01223888
-3.923945	دستاویزی	-0.01223888
-3.923945	دسویں	-0.01223888
-3.923945	دشمن	-0.01223888
-3.923945	دشوار	-0.01223888
-3.923945	دعا	-0.01223888
-3.923945	دعاؤں	-0.01223888
-3.923945	دعائیں	-0.01223888
-3.923945	دعائیہ	-0.01223888
-3.923945	دعاگو	-0.01223888
-3.923945	دغا	-0.01223888
-3.923945	دفاع	-0.01223888
-3.923945	دفتر	-0.01223888
-3.923945	دفن	-0.01223888
-3.446771	دل	-0.01223888
-3.923945	دلبرداشتہ	-0.01223888
-3.923945	دلجوئی	-0.01223888
-3.923945	دلخراش	-0.01223888
-3.923945	دلسوزی	-0.01223888
-3.923945	دلشاد	-0.01223888
-3.923945	دلفریب	-0.01223888
-3.923945	دلنشیں	-0.01223888
-3.923945	دلوں	-0.01223888
-3.923945	دلچسپی	-0.01223888
-3.923945	دلہن	-0.01223888
-3.923945	دم	-0.01223888
-3.923945	دماغی	-0.01223888
-3.622875	دن	-0.01223888
-3.923945	دنگ	-0.01223888
-3.923945	دنیا	-0.01223888
-3.923945	دنیاوی	-0.01223888
-3.145727	دو	-0.09142011
-3.923945	دوا	-0.01223888
-3.923945	دواؤں	-0.01223888
-3.923945	دوبارہ	-0.01223888
-3.923945	دوبھر	-0.01223888
-3.923945	دوجے	-0.01223888
-3.923945	دودھ	-0.01223888
-3.923945	دودھیا	-0.01223888
-3.923945	دودھیل	-0.01223888
-3.446771	دور	-0.01223888
-3.923945	دوران	-0.01223888
-3.923945	دورانئے	-0.01223888
-3.923945	دورانیے	-0.01223888
-3.923945	دوراں	-0.01223888
-3.923945	دوردراز	-0.01223888
-3.923945	دوررس	-0.01223888
-3.923945	دورے	-0.01223888
-3.923945	دوست	-0.01223888
-3.923945	دوسرا	-0.01223888
-3.923945	دوسروں	-0.01223888
-3.923945	دوسری	-0.01223888
-3.923945	دوسرے	-0.01223888
-3.923945	دوشیزہ	-0.01223888
-3.923945	دوعالم	-0.01223888
-3.923945	دوغلا	-0.01223888
-3.923945	دوغلی	-0.01223888
-3.923945	دولت	-0.01223888
-3.923945	دولخت	-0.01223888
-3.923945	دولہا	-0.01223888
-3.923945	دوم	-0.01223888
-3.923945	دونوں	-0.01223888
-3.923945	دوچار	-0.01223888
-3.923945	دوچند	-0.01223888
-3.923945	دوڑ	-0.01223888
-3.923945	دوڑائیں	-0.01223888
-3.923945	دوڑانے	-0.01223888
-3.923945	دوڑنے	-0.01223888
-3.923945	دوگانہ	-0.01223888
-3.923945	دوگنا	-0.01223888
-3.923945	دوں	-0.01223888
-3.923945	دکھ	-0.01223888
-3.622875	دکھا	-0.01223888
-3.923945	دکھائی	-0.01223888
-3.923945	دکھائیں	-0.01223888
-3.923945	دکھاوے	-0.01223888
-3.923945	دکھایا	-0.01223888
-3.923945	دکھنے	-0.01223888
-3.923945	دکھوں	-0.01223888
-3.923945	دکھی	-0.01223888
-3.923945	دھار	-0.01223888
-3.923945	دھاندلی	-0.01223888
-3.923945	دھاڑ	-0.01223888
-3.923945	دھبے	-0.01223888
-3.923945	دھجیاں	-0.01223888
-3.923945	دھرا	-0.01223888
-3.923945	دھل	-0.01223888
-3.923945	دھماکہ	-0.01223888
-3.923945	دھو	-0.01223888
-3.923945	دھوئیں	-0.01223888
-3.923945	دھوئے	-0.01223888
-3.923945	دھواں	-0.01223888
-3.923945	دھوبی	-0.01223888
-3.923945	دھول	-0.01223888
-3.923945	دھولیں	-0.01223888
-3.923945	دھونی	-0.01223888
-3.923945	دھونے	-0.01223888
-3.622875	دھوپ	-0.3132689
-3.923945	دھویں	-0.01223888
-3.923945	دھچکا	-0.01223888
-3.923945	دھڑام	-0.01223888
-3.923945	دھڑلے	-0.01223888
-3.923945	دھڑے	-0.01223888
-3.923945	دھیان	-0.01223888
-3.923945	دھیرے	-0.01223888
-3.923945	دھیمی	-0.01223888
-3.923945	دھینگا	-0.01223888
-3.923945	دہرانے	-0.01223888
-3.923945	دہرایا	-0.01223888
-3.923945	دہشت	-0.01223888
-3.923945	دہلوی	-0.01223888
-3.923945	دہلی	-0.01223888
-3.923945	دہندگان	-0.01223888
-3.145727	دی	-0.3132689
-3.446771	دیئے	-0.4893602
-2.809928	دیا	-0.4101789
-3.923945	دیانتدار	-0.01223888
-3.923945	دیباچہ	-0.01223888
-3.923945	دیباچے	-0.01223888
-3.446771	دیتا	-0.1883301
-3.923945	دیتی	-0.01223888
-3.923945	دیتے	-0.01223888
-3.923945	دیر	-0.01223888
-3.923945	دیرینہ	-0.01223888
-3.923945	دیسی	-0.01223888
-3.923945	دیش	-0.01223888
-3.923945	دین	-0.01223888
-3.622875	دینا	-0.01223888
-3.622875	دینے	-0.01223887
-3.923945	دیو	-0.01223888
-3.923945	دیوار	-0.01223888
-3.923945	دیوبند	-0.01223888
-3.923945	دیوبندی	-0.01223888
-3.923945	دیوداس	-0.01223888
-3.923945	دیول	-0.01223888
-3.923945	دیومالائی	-0.01223888
-3.923945	دیوہیکل	-0.01223888
-3.923945	دیوی	-0.01223888
-3.321825	دیکھ	-0.1371776
-3.923945	دیکھئے	-0.01223888
-3.321825	دیکھا	-0.01223888
-3.923945	دیکھتے	-0.01223888
-3.923945	دیکھنے	-0.01223888
-3.923945	دیکھو	-0.01223888
-3.923945	دیکھوں	-0.01223888
-3.446771	دیکھی	-0.01223888
-3.446771	دیکھیں	-0.4893602
-3.923945	دیکھیے	-0.01223888
-3.923945	دیکھے	-0.01223888
-3.923945	دیگر	-0.01223888
-3.078779	دیں	-0.3802156
-3.923945	دیہاتیوں	-0.01223888
-3.224911	دیے	-0.1091489
-3.321825	دے	-0.01223888
-3.923945	ذاد	-0.01223888
-3.923945	ذادہ	-0.01223888
-3.923945	ذخائر	-0.01223888
-3.923945	ذخیرہ	-0.01223888
-3.923945	ذریعہ	-0.01223888
-3.923945	ذریعے	-0.01223888
-3.923945	ذوالجلال	-0.01223888
-3.923945	ذوالجناح	-0.01223888
-3.923945	ذوالفقار	-0.01223888
-3.923945	ذوق	-0.01223888
-3.923945	ذکر	-0.01223888
-3.923945	ذہن	-0.01223888
-3.622875	ذہنی	-0.01223888
-3.923945	ذیشان	-0.01223888
-3.923945	رؤف	-0.01223888
-3.923945	راؤ	-0.01223888
-3.923945	راؤنڈر	-0.01223888
-3.923945	رائگاں	-0.01223888
-3.923945	رائیگاں	-0.01223888
-3.923945	رابطے	-0.01223888
-3.923945	رابعہ	-0.01223888
-3.923945	راجباہوں	-0.01223888
-3.923945	راجن	-0.01223888
-3.923945	راجیہ	-0.01223888
-3.923945	راجے	-0.01223888
-3.923945	رازداں	-0.01223888
-3.923945	رازق	-0.01223888
-3.923945	راستے	-0.01223888
-3.923945	راسخ	-0.01223888
-3.923945	راشد	-0.01223888
-3.923945	راغب	-0.01223888
-3.923945	رافعہ	-0.01223888
-3.923945	راقم	-0.01223888
-3.923945	رانجھا	-0.01223888
-3.923945	رانجھن	-0.01223888
-3.923945	راولا	-0.01223888
-3.923945	راٹھور	-0.01223888
-3.923945	راہبر	-0.01223888
-3.923945	راہداری	-0.01223888
-3.923945	راہو	-0.01223888
-3.622875	راہگیر	-0.01223888
-3.923945	رباب	-0.01223888
-3.923945	ربیعہ	-0.01223888
-3.923945	رتھ	-0.01223888
-3.622875	رجحان	-0.01223888
-3.923945	رجوع	-0.01223888
-3.923945	رحم	-0.01223888
-3.923945	رحمت	-0.01223888
-3.923945	رحیل	-0.01223888
-3.923945	رحیم	-0.01223888
-3.923945	رخ	-0.01223888
-3.923945	رخساروں	-0.01223888
-3.923945	رخشندہ	-0.01223888
-3.923945	رخصت	-0.01223888
-3.923945	رخنہ	-0.01223888
-3.923945	رخوں	-0.01223888
-3.622875	رزاق	-0.01223888
-3.923945	رزق	-0.01223888
-3.923945	رساؤ	-0.01223888
-3.923945	رسوائی	-0.01223888
-3.923945	رسول	-0.01223888
-3.923945	رسولی	-0.01223888
-3.923945	رسیا	-0.01223888
-3.923945	رسیدہ	-0.01223888
-3.923945	رشید	-0.01223888
-3.923945	رضا	-0.01223888
-3.923945	رضوان	-0.01223888
-3.923945	رضوی	-0.01223888
-3.923945	رعائتیں	-0.01223888
-3.622875	رعایت	-0.01223888
-3.923945	رعشہ	-0.01223888
-3.923945	رعیت	-0.01223888
-3.923945	رغبت	-0.01223888
-3.923945	رفتار	-0.01223888
-3.923945	رفعت	-0.01223888
-3.923945	رفو	-0.01223888
-3.923945	رفیعہ	-0.01223888
-3.923945	رفیق	-0.01223888
-3.923945	رفیوجی	-0.01223888
-3.923945	رقاصاؤں	-0.01223888
-3.923945	رقص	-0.01223888
-3.923945	رقصاں	-0.01223888
-3.923945	رقم	-0.01223888
-3.923945	رقوم	-0.01223888
-3.923945	رقیب	-0.01223888
-3.923945	رقیہ	-0.01223888
-3.923945	رم	-0.01223888
-3.923945	رمزی	-0.01223888
-3.923945	رنجش	-0.01223888
-3.923945	رنجیدہ	-0.01223888
-3.923945	رندھاوا	-0.01223888
-3.923945	رنز	-0.01223888
-3.923945	رنگ	-0.01223888
-3.923945	رنگوں	-0.01223888
-3.923945	رنگین	-0.01223888
-3.622875	رو	-0.01223888
-3.923945	روئی	-0.01223888
-3.923945	روئیداد	-0.01223888
-3.923945	روئیں	-0.01223888
-3.923945	روات	-0.01223888
-3.622875	رواں	-0.01223888
-3.923945	روایت	-0.01223888
-3.923945	روحانی	-0.01223888
-3.923945	روحیں	-0.01223888
-3.923945	روز	-0.01223888
-3.923945	روزافزوں	-0.01223888
-3.923945	روزانہ	-0.01223888
-3.923945	روزبروز	-0.01223888
-3.923945	روزمرہ	-0.01223888
-3.923945	روزنامہ	-0.01223888
-3.923945	روزوں	-0.01223888
-3.923945	روزگار	-0.01223888
-3.923945	روزہ	-0.01223888
-3.923945	روسی	-0.01223888
-3.923945	روش	-0.01223888
-3.923945	روشن	-0.01223888
-3.923945	روشناس	-0.01223888
-3.923945	روشنی	-0.01223888
-3.923945	روشنیوں	-0.01223888
-3.923945	روضہ	-0.01223888
-3.923945	روضے	-0.01223888
-3.923945	روغن	-0.01223888
-3.923945	رول	-0.01223888
-3.923945	رولز	-0.01223888
-3.923945	رونق	-0.01223888
-3.923945	رونے	-0.01223888
-3.923945	روور	-0.01223888
-3.923945	روٹھ	-0.01223888
-3.923945	روٹھیں	-0.01223888
-3.923945	روپے	-0.01223888
-3.923945	روڈ	-0.01223888
-3.923945	روہی	-0.01223888
-3.923945	رویا	-0.01223888
-3.923945	رویوں	-0.01223888
-3.923945	رویہ	-0.01223888
-3.923945	رویے	-0.01223888
-3.923945	روے	-0.01223888
-3.923945	رپورتاژ	-0.01223888
-3.622875	رپورٹ	-0.01223888
-3.923945	رچاؤ	-0.01223888
-3.923945	رکن	-0.01223888
-3.923945	رکھ	-0.01223888
-3.622875	رکھا	-0.3132689
-3.923945	رکھاؤ	-0.01223888
-3.321825	رکھتا	-0.3132688
-3.923945	رکھتے	-0.01223888
-3.321825	رکھنے	-0.1371776
-3.622875	رکھو	-0.3132689
-3.923945	رکھوا	-0.01223888
-3.923945	رکھوں	-0.01223888
-3.622875	رکھی	-0.01223888
-3.923945	رکھیو	-0.01223888
-3.923945	رکھیں	-0.01223888
-3.923945	رکھیے	-0.01223888
-3.923945	رکھے	-0.01223888
-3.923945	رگڑیں	-0.01223888
-3.622875	رہ	-0.01223888
-3.020785	رہا	-0.3132688
-3.923945	رہائش	-0.01223888
-3.622875	رہائشی	-0.01223888
-3.923945	رہتے	-0.01223888
-3.923945	رہزنی	-0.01223888
-3.923945	رہنما	-0.01223888
-3.923945	رہنماؤں	-0.01223888
-3.923945	رہو	-0.01223888
-3.145727	رہی	-0.2552769
-3.446771	رہیں	-0.1883301
-2.969632	رہے	-0.3644214
-3.923945	ریاست	-0.01223888
-3.923945	ریاض	-0.01223888
-3.923945	ریان	-0.01223888
-3.923945	ریجنل	-0.01223888
-3.923945	ریحانہ	-0.01223888
-3.923945	ریزرو	-0.01223888
-3.923945	ریزروز	-0.01223888
-3.923945	ریزولوشن	-0.01223888
-3.923945	ریسرچ	-0.01223888
-3.923945	ریسلینگ	-0.01223888
-3.923945	ریسورس	-0.01223888
-3.923945	ریسٹورنٹ	-0.01223888
-3.923945	ریسپشنسٹ	-0.01223888
-3.923945	ریسکیو	-0.01223888
-3.923945	ریشمی	-0.01223888
-3.923945	ریلی	-0.01223888
-3.923945	ریلیز	-0.01223888
-3.923945	ریلیف	-0.01223888
-3.923945	ریلیکس	-0.01223888
-3.923945	ریمبو	-0.01223888
-3.923945	رینجرز	-0.01223888
-3.923945	رینگتی	-0.01223888
-3.923945	رینگتے	-0.01223888
-3.923945	ریورس	-0.01223888
-3.923945	ریونیو	-0.01223888
-3.923945	ریوڑ	-0.01223888
-3.923945	ریٹائرمنٹ	-0.01223888
-3.923945	ریٹائرڈ	-0.01223888
-3.923945	ریچھ	-0.01223888
-3.923945	ریچھوں	-0.01223888
-3.923945	ریڈ	-0.01223888
-3.923945	ریڈیو	-0.01223888
-3.923945	ریڑھی	-0.01223888
-3.622875	ریکارڈ	-0.01223888
-3.923945	ریگن	-0.01223888
-3.923945	ریگولر	-0.01223888
-3.923945	زاید	-0.01223888
-3.923945	زبردست	-0.01223888
-3.923945	زبوں	-0.01223888
-3.923945	زخمی	-0.01223888
-3.622875	زدہ	-0.01223888
-3.923945	زراعت	-0.01223888
-3.923945	زرخیز	-0.01223888
-3.923945	زرقاوی	-0.01223888
-3.923945	زرمبادلہ	-0.01223888
-3.923945	زعما	-0.01223888
-3.923945	زلزلے	-0.01223888
-3.923945	زلفوں	-0.01223888
-3.923945	زلفی	-0.01223888
-3.923945	زلفیں	-0.01223888
-3.923945	زلیخا	-0.01223888
-3.923945	زمرے	-0.01223888
-3.446771	زمین	-0.01223888
-3.923945	زمینداروں	-0.01223888
-3.923945	زنجیر	-0.01223888
-3.923945	زنخوں	-0.01223888
-3.446771	زندگی	-0.01223888
-3.622875	زنگ	-0.3132689
-3.923945	زوال	-0.01223888
-3.923945	زوجیت	-0.01223888
-3.923945	زود	-0.01223888
-3.923945	زودحس	-0.01223888
-3.622875	زور	-0.01223888
-3.923945	زوردار	-0.01223888
-3.923945	زون	-0.01223888
-3.923945	زچ	-0.01223888
-3.923945	زچگی	-0.01223888
-3.923945	زہریلی	-0.01223888
-3.446771	زیادہ	-0.01223888
-3.923945	زیب	-0.01223888
-3.923945	زیدی	-0.01223888
-3.622875	زیر	-0.01223888
-3.923945	زیرآب	-0.01223888
-3.923945	زیراستعمال	-0.01223888
-3.923945	زیرانتظام	-0.01223888
-3.923945	زیراہتمام	-0.01223888
-3.923945	زیردست	-0.01223888
-3.923945	زیرعنوان	-0.01223888
-3.923945	زیرغور	-0.01223888
-3.923945	زیرقیادت	-0.01223888
-3.923945	زیست	-0.01223888
-3.923945	زیور	-0.01223888
-3.923945	زیورات	-0.01223888
-3.923945	زیڈ	-0.01223888
-3.923945	ساؤتھ	-0.01223888
-3.923945	سائبان	-0.01223888
-3.923945	سائنسدانوں	-0.01223888
-3.923945	سائیڈ	-0.01223888
-3.923945	سائیکل	-0.01223888
-3.923945	سائیں	-0.01223888
-3.923945	سابق	-0.01223888
-3.923945	ساتویں	-0.01223888
-3.622875	ساتھ	-0.01223888
-3.923945	ساتھی	-0.01223888
-3.923945	ساتھیو	-0.01223888
-3.622875	ساتھیوں	-0.01223888
-3.622875	ساجد	-0.01223888
-3.923945	ساحل	-0.01223888
-3.923945	ساخت	-0.01223888
-3.923945	ساختہ	-0.01223888
-3.923945	سادھو	-0.01223888
-3.923945	سارز	-0.01223888
-3.923945	ساری	-0.01223888
-3.923945	ساریو	-0.01223888
-3.923945	ساز	-0.01223888
-3.923945	سازباز	-0.01223888
-3.923945	سازوسامان	-0.01223888
-3.923945	سازگار	-0.01223888
-3.923945	ساعت	-0.01223888
-3.622875	ساغر	-0.01223888
-3.923945	سال	-0.01223888
-3.923945	سالگرہ	-0.01223888
-3.923945	سالہ	-0.01223888
-3.923945	سالہاسال	-0.01223888
-3.923945	سامان	-0.01223888
-3.923945	سامعین	-0.01223888
-3.321825	سامنے	-0.01223888
-3.923945	سانحوں	-0.01223888
-3.923945	سانحے	-0.01223888
-3.923945	سانسوں	-0.01223888
-3.923945	سانولے	-0.01223888
-3.923945	ساٹھویں	-0.01223888
-3.923945	ساڑھے	-0.01223888
-3.923945	ساگر	-0.01223888
-3.923945	سایہ	-0.01223888
-3.923945	سب	-0.01223888
-3.923945	سبب	-0.01223888
-3.923945	سبجیکٹ	-0.01223888
-3.923945	سبز	-0.01223888
-3.923945	سبزواری	-0.01223888
-3.923945	سبزی	-0.01223888
-3.622875	سبزیوں	-0.01223888
-3.923945	سبسڈی	-0.01223888
-3.622875	سبھا	-0.01223888
-3.923945	ستانویں	-0.01223888
-3.923945	سترھویں	-0.01223888
-3.923945	ستھرا	-0.01223888
-3.923945	ستھرے	-0.01223888
-3.923945	سجاتے	-0.01223888
-3.923945	سجاد	-0.01223888
-3.923945	سجدہ	-0.01223888
-3.923945	سجھائی	-0.01223888
-3.923945	سخت	-0.01223888
-3.923945	سدباب	-0.01223888
-3.923945	سدھ	-0.01223888
-3.923945	سدھو	-0.01223888
-3.923945	سربراہ	-0.01223888
-3.923945	سرحد	-0.01223888
-3.923945	سرخ	-0.01223888
-3.923945	سرخرو	-0.01223888
-3.923945	سرخی	-0.01223888
-3.923945	سردخانے	-0.01223888
-3.923945	سرزمین	-0.01223888
-3.923945	سرعام	-0.01223888
-3.923945	سرفراز	-0.01223888
-3.923945	سرفہرست	-0.01223888
-3.923945	سرمایے	-0.01223888
-3.923945	سرنجیں	-0.01223888
-3.923945	سروس	-0.01223888
-3.923945	سرونٹ	-0.01223888
-3.923945	سروں	-0.01223888
-3.923945	سرویئر	-0.01223888
-3.923945	سروے	-0.01223888
-3.923945	سرکا	-0.01223888
-3.923945	سرکاری	-0.01223888
-3.923945	سرگرمیوں	-0.01223888
-3.923945	سرہندی	-0.01223888
-3.622875	سزا	-0.01223888
-3.923945	سزائیں	-0.01223888
-3.923945	سست	-0.01223888
-3.923945	سسرال	-0.01223888
-3.923945	سسٹم	-0.01223888
-3.923945	سعادت	-0.01223888
-3.923945	سعودی	-0.01223888
-3.923945	سعید	-0.01223888
-3.923945	سفر	-0.01223888
-3.923945	سفید	-0.01223888
-3.923945	سفیدی	-0.01223888
-3.923945	سفیدے	-0.01223888
-3.923945	سقوط	-0.01223888
-3.923945	سلائیڈنگ	-0.01223888
-3.923945	سلجھائیں	-0.01223888
-3.923945	سلسلے	-0.01223888
-3.923945	سلطان	-0.01223888
-3.923945	سلفیٹ	-0.01223888
-3.923945	سلور	-0.01223888
-3.923945	سلیولائیٹ	-0.01223888
-3.923945	سماجی	-0.01223888
-3.923945	سماوی	-0.01223888
-3.923945	سمتھ	-0.01223888
-3.622875	سمجھ	-0.01223888
-3.923945	سمجھا	-0.01223888
-3.923945	سمجھائیں	-0.01223888
-3.923945	سمجھانے	-0.01223888
-3.923945	سمجھتے	-0.01223888
-3.923945	سمجھدار	-0.01223888
-3.923945	سمجھنے	-0.01223888
-3.923945	سمجھو	-0.01223888
-3.923945	سمجھی	-0.01223888
-3.923945	سمجھیں	-0.01223888
-3.923945	سمفنی	-0.01223888
-3.923945	سموئے	-0.01223888
-3.923945	سموسے	-0.01223888
-3.923945	سمگلروں	-0.01223888
-3.923945	سمگلنگ	-0.01223888
-3.446771	سمیت	-0.01223888
-3.622875	سن	-0.3132689
-3.622875	سنئے	-0.01223888
-3.923945	سنائی	-0.01223888
-3.923945	سنایا	-0.01223888
-3.622875	سنبھال	-0.01223888
-3.923945	سنبھل	-0.01223888
-3.923945	سنبھلی	-0.01223888
-3.923945	سنتا	-0.01223888
-3.923945	سندھو	-0.01223888
-3.923945	سندھی	-0.01223888
-3.923945	سندھیوں	-0.01223888
-3.923945	سنو	-0.01223888
-3.923945	سنوارا	-0.01223888
-3.923945	سنور	-0.01223888
-3.923945	سنٹر	-0.01223888
-3.923945	سنچری	-0.01223888
-3.923945	سنگباری	-0.01223888
-3.923945	سنگسار	-0.01223888
-3.923945	سنگل	-0.01223888
-3.923945	سنگھ	-0.01223888
-3.923945	سنگھار	-0.01223888
-3.923945	سنگھاسن	-0.01223888
-3.923945	سنگھاڑے	-0.01223888
-3.923945	سنگین	-0.01223888
-3.923945	سنیں	-0.01223888
-3.923945	سنے	-0.01223888
-3.923945	سوئس	-0.01223888
-3.923945	سوئمنگ	-0.01223888
-3.923945	سوئنگ	-0.01223888
-3.923945	سوئٹرز	-0.01223888
-3.923945	سوئچ	-0.01223888
-3.923945	سوئی	-0.01223888
-3.923945	سوئیوں	-0.01223888
-3.923945	سوئے	-0.01223888
-3.923945	سوا	-0.01223888
-3.923945	سوال	-0.01223888
-3.923945	سوجن	-0.01223888
-3.923945	سوجنے	-0.01223888
-3.923945	سوجھ	-0.01223888
-3.923945	سوجھی	-0.01223888
-3.923945	سوختہ	-0.01223888
-3.923945	سود	-0.01223888
-3.923945	سودا	-0.01223888
-3.923945	سوراخ	-0.01223888
-3.923945	سورما	-0.01223888
-3.923945	سوری	-0.01223888
-3.923945	سوزش	-0.01223888
-3.923945	سوزوکی	-0.01223888
-3.923945	سوسائٹی	-0.01223888
-3.923945	سوشل	-0.01223888
-3.923945	سوشلزم	-0.01223888
-3.923945	سوغات	-0.01223888
-3.923945	سول	-0.01223888
-3.923945	سوم	-0.01223888
-3.923945	سومرو	-0.01223888
-3.923945	سونامی	-0.01223888
-3.923945	سونگ	-0.01223888
-3.923945	سونگھنے	-0.01223888
-3.923945	سونے	-0.01223888
-3.923945	سوواں	-0.01223888
-3.923945	سوویت	-0.01223888
-3.622875	سوویں	-0.01223888
-3.622875	سوچ	-0.01223888
-3.622875	سوچا	-0.01223888
-3.923945	سوچنے	-0.01223888
-3.923945	سوچوں	-0.01223888
-3.923945	سوچیے	-0.01223888
-3.923945	سوچے	-0.01223888
-3.923945	سوڈا	-0.01223888
-3.923945	سوکھ	-0.01223888
-3.923945	سوکھا	-0.01223888
-3.923945	سوکھنے	-0.01223888
-3.923945	سوکھی	-0.01223888
-3.923945	سوگوار	-0.01223888
-3.923945	سوں	-0.01223888
-3.923945	سویاں	-0.01223888
-3.923945	سویرا	-0.01223888
-3.923945	سویرے	-0.01223888
-3.923945	سویٹر	-0.01223888
-3.923945	سویڈش	-0.01223888
-3.923945	سَیل	-0.01223888
-3.923945	سِکھوں	-0.01223888
-3.923945	سٹرلنگ	-0.01223888
-3.923945	سٹوڈنٹ	-0.01223888
-3.923945	سٹوڈنٹس	-0.01223888
-3.622875	سٹوڈیوز	-0.3132689
-3.923945	سٹیڈیم	-0.01223888
-3.923945	سپاسنامہ	-0.01223888
-3.923945	سپاہیوں	-0.01223888
-3.923945	سپردخاک	-0.01223888
-3.923945	سپرنٹنڈنٹ	-0.01223888
-3.923945	سپیل	-0.01223888
-3.923945	سچ	-0.01223888
-3.923945	سچائی	-0.01223888
-3.923945	سچل	-0.01223888
-3.923945	سڑنے	-0.01223888
-3.923945	سڑک	-0.01223888
-3.446771	سکتا	-0.3132688
-3.446771	سکتی	-0.1883301
-3.622875	سکتیں	-0.3132689
-3.622875	سکتے	-0.01223888
-3.923945	سکنجبین	-0.01223888
-3.923945	سکواڈرن	-0.01223888
-3.923945	سکورز	-0.01223888
-3.622875	سکول	-0.01223888
-3.923945	سکولز	-0.01223888
-3.923945	سکولوں	-0.01223888
-3.923945	سکھی	-0.01223888
-3.923945	سکیپ	-0.01223888
-3.923945	سگھڑ	-0.01223888
-3.923945	سگے	-0.01223888
-3.923945	سہارے	-0.01223888
-3.923945	سہاگہ	-0.01223888
-3.923945	سہولت	-0.01223888
-3.923945	سہیلی	-0.01223888
-3.923945	سی	-0.01223888
-3.923945	سیاح	-0.01223888
-3.923945	سیاحت	-0.01223888
-3.923945	سیاست	-0.01223888
-3.622875	سیاسی	-0.01223888
-3.923945	سیب	-0.01223888
-3.923945	سیدھے	-0.01223888
-3.923945	سیر	-0.01223888
-3.923945	سیراب	-0.01223888
-3.923945	سیروسیاحت	-0.01223888
-3.923945	سیرگاہ	-0.01223888
-3.923945	سیریز	-0.01223888
-3.923945	سیسموگراف	-0.01223888
-3.923945	سیسمک	-0.01223888
-3.923945	سیسے	-0.01223888
-3.923945	سیف	-0.01223888
-3.923945	سیفٹی	-0.01223888
-3.923945	سیل	-0.01223888
-3.923945	سیلرز	-0.01223888
-3.622875	سیلز	-0.3132689
-3.923945	سیلزمین	-0.01223888
-3.923945	سیمی	-0.01223888
-3.923945	سیمینار	-0.01223888
-3.923945	سینئر	-0.01223888
-3.923945	سینما	-0.01223888
-3.622875	سینٹر	-0.01223888
-3.923945	سینڈوچ	-0.01223888
-3.923945	سینکڑوں	-0.01223888
-3.923945	سینیٹ	-0.01223888
-3.923945	سیو	-0.01223888
-3.923945	سیورج	-0.01223888
-3.923945	سیون	-0.01223888
-3.923945	سیونگ	-0.01223888
-3.923945	سیٹھ	-0.01223888
-3.923945	سیٹھی	-0.01223888
-3.923945	سیڈ	-0.01223888
-3.923945	سیڑھیاں	-0.01223888
-3.923945	سیڑھیوں	-0.01223888
-3.923945	سیکشن	-0.01223888
-3.923945	سیکورٹی	-0.01223888
-3.923945	سیکھ	-0.01223888
-3.923945	سیکھا	-0.01223888
-3.622875	سیکھنے	-0.01223888
-3.923945	سیکھو	-0.01223888
-3.923945	سیکھی	-0.01223888
-3.923945	سیکھیں	-0.01223888
-1.571683	سے	-0.03750699
-3.923945	شائد	-0.01223888
-3.923945	شائع	-0.01223888
-3.923945	شائقین	-0.01223888
-3.923945	شائیں	-0.01223888
-3.622875	شاخ	-0.01223888
-3.923945	شاخسانہ	-0.01223888
-3.923945	شاخوں	-0.01223888
-3.923945	شاخیں	-0.01223888
-3.923945	شادی	-0.01223888
-3.622875	شاعر	-0.01223888
-3.923945	شالا	-0.01223888
-3.923945	شامل	-0.01223888
-3.923945	شاندار	-0.01223888
-3.923945	شاگرد	-0.01223888
-3.622875	شاہ	-0.01223888
-3.923945	شاہد	-0.01223888
-3.923945	شاہراہ	-0.01223888
-3.923945	شاہنواز	-0.01223888
-3.923945	شاہین	-0.01223888
-3.923945	شب	-0.01223888
-3.923945	شبلی	-0.01223888
-3.923945	شبہ	-0.01223888
-3.923945	شبہات	-0.01223888
-3.923945	شبہے	-0.01223888
-3.923945	شجاعت	-0.01223888
-3.923945	شجر	-0.01223888
-3.622875	شخص	-0.01223888
-3.923945	شخصیت	-0.01223888
-3.923945	شخصے	-0.01223888
-3.923945	شدھی	-0.01223888
-3.622875	شدہ	-0.01223888
-3.923945	شدید	-0.01223888
-3.923945	شرحوں	-0.01223888
-3.446771	شروع	-0.01223888
-3.923945	شروعات	-0.01223888
-3.923945	شرکت	-0.01223888
-3.622875	شریف	-0.01223888
-3.923945	شریفین	-0.01223888
-3.923945	شستہ	-0.01223888
-3.923945	ششدر	-0.01223888
-3.923945	شعائر	-0.01223888
-3.923945	شعار	-0.01223888
-3.923945	شعاع	-0.01223888
-3.923945	شعبوں	-0.01223888
-3.923945	شعر	-0.01223888
-3.923945	شعرا	-0.01223888
-3.923945	شعروادب	-0.01223888
-3.923945	شعری	-0.01223888
-3.923945	شعلوں	-0.01223888
-3.923945	شعور	-0.01223888
-3.622875	شعوری	-0.01223888
-3.923945	شغل	-0.01223888
-3.923945	شفاعت	-0.01223888
-3.923945	شفیق	-0.01223888
-3.923945	شل	-0.01223888
-3.923945	شلجم	-0.01223888
-3.923945	شمار	-0.01223888
-3.923945	شماریات	-0.01223888
-3.923945	شمسی	-0.01223888
-3.923945	شمشاد	-0.01223888
-3.923945	شمولیت	-0.01223888
-3.923945	شناخت	-0.01223888
-3.923945	شناسی	-0.01223888
-3.923945	شنید	-0.01223888
-3.923945	شو	-0.01223888
-3.923945	شواہد	-0.01223888
-3.923945	شوخ	-0.01223888
-3.923945	شوخی	-0.01223888
-3.622875	شور	-0.01223888
-3.923945	شوربہ	-0.01223888
-3.923945	شوروم	-0.01223888
-3.923945	شوق	-0.01223888
-3.923945	شون	-0.01223888
-3.923945	شوکت	-0.01223888
-3.923945	شوکیسوں	-0.01223888
-3.923945	شوہر	-0.01223888
-3.622875	شکار	-0.01223888
-3.923945	شگاف	-0.01223888
-3.923945	شگفتہ	-0.01223888
-3.923945	شگوفے	-0.01223888
-3.923945	شہاب	-0.01223888
-3.923945	شہابیے	-0.01223888
-3.923945	شہباز	-0.01223888
-3.622875	شہر	-0.01223888
-3.923945	شہرت	-0.01223888
-3.923945	شہروں	-0.01223888
-3.923945	شہرہ	-0.01223888
-3.923945	شہری	-0.01223888
-3.923945	شہریوں	-0.01223888
-3.923945	شہزادی	-0.01223888
-3.923945	شہید	-0.01223888
-3.923945	شیئرنگ	-0.01223888
-3.923945	شیخ	-0.01223888
-3.923945	شیخی	-0.01223888
-3.923945	شیدائی	-0.01223888
-3.923945	شیر	-0.01223888
-3.923945	شیرخوار	-0.01223888
-3.923945	شیروانی	-0.01223888
-3.923945	شیرٹن	-0.01223888
-3.923945	شیریں	-0.01223888
-3.923945	شیرے	-0.01223888
-3.923945	شیشے	-0.01223888
-3.923945	شیعہ	-0.01223888
-3.923945	شیفرڈ	-0.01223888
-3.923945	شیل	-0.01223888
-3.923945	شیلٹر	-0.01223888
-3.923945	شیلڈیں	-0.01223888
-3.923945	شیم	-0.01223888
-3.923945	شیمپو	-0.01223888
-3.923945	شیو	-0.01223888
-3.923945	شیوخ	-0.01223888
-3.923945	شیڈ	-0.01223888
-3.923945	شیڈول	-0.01223888
-3.923945	شے	-0.01223888
-3.145727	صاحب	-0.01223888
-3.923945	صادق	-0.01223888
-3.923945	صارفین	-0.01223888
-3.622875	صاف	-0.01223888
-3.923945	صبح	-0.01223888
-3.923945	صبحیں	-0.01223888
-3.923945	صبر	-0.01223888
-3.923945	صبروتحمل	-0.01223888
-3.923945	صبغت	-0.01223888
-3.923945	صحافیوں	-0.01223888
-3.923945	صحبت	-0.01223888
-3.923945	صحبتوں	-0.01223888
-3.923945	صحت	-0.01223888
-3.923945	صحتمند	-0.01223888
-3.923945	صحیح	-0.01223888
-3.923945	صداقت	-0.01223888
-3.622875	صدر	-0.01223888
-3.923945	صدیاں	-0.01223888
-3.923945	صدیقی	-0.01223888
-3.923945	صدیقین	-0.01223888
-3.923945	صدیوں	-0.01223888
-3.446771	صرف	-0.01223888
-3.923945	صعوبتیں	-0.01223888
-3.923945	صغری	-0.01223888
-3.923945	صغیر	-0.01223888
-3.923945	صفائی	-0.01223888
-3.923945	صفحوں	-0.01223888
-3.923945	صفحہ	-0.01223888
-3.923945	صفحے	-0.01223888
-3.923945	صفر	-0.01223888
-3.923945	صفوں	-0.01223888
-3.923945	صفیں	-0.01223888
-3.923945	صلاحیت	-0.01223888
-3.923945	صلاحیتیں	-0.01223888
-3.923945	صوبائی	-0.01223888
-3.923945	صوبوں	-0.01223888
-3.622875	صورت	-0.01223888
-3.923945	صورتحال	-0.01223888
-3.923945	صوفی	-0.01223888
-3.923945	صوفیانہ	-0.01223888
-3.923945	صوفیہ	-0.01223888
-3.923945	صیاد	-0.01223888
-3.923945	صیغہ	-0.01223888
-3.622875	صیہونی	-0.01223888
-3.923945	ضائع	-0.01223888
-3.923945	ضخیم	-0.01223888
-3.923945	ضد	-0.01223888
-3.622875	ضرورت	-0.01223888
-3.923945	ضروری	-0.01223888
-3.923945	ضروریات	-0.01223888
-3.923945	ضعف	-0.01223888
-3.923945	ضعیف	-0.01223888
-3.923945	ضلع	-0.01223888
-3.923945	ضلعی	-0.01223888
-3.923945	ضوفشاں	-0.01223888
-3.923945	ضیغم	-0.01223888
-3.923945	طاغوتی	-0.01223888
-3.923945	طالب	-0.01223888
-3.923945	طبعی	-0.01223888
-3.923945	طبیعت	-0.01223888
-3.923945	طرح	-0.01223888
-3.923945	طرحی	-0.01223888
-3.923945	طرزعمل	-0.01223888
-3.923945	طرزفکر	-0.01223888
-3.923945	طرف	-0.01223888
-3.923945	طرفین	-0.01223888
-3.923945	طریقہ	-0.01223888
-3.923945	طغیانی	-0.01223888
-3.622875	طفیل	-0.01223888
-3.923945	طلب	-0.01223888
-3.923945	طنزومزاح	-0.01223888
-3.622875	طور	-0.3132689
-3.923945	طوفان	-0.01223888
-3.923945	طوفاں	-0.01223888
-3.923945	طویل	-0.01223888
-3.923945	طیب	-0.01223888
-3.923945	طیبہ	-0.01223888
-3.622875	ظاہر	-0.01223888
-3.923945	ظریفی	-0.01223888
-3.923945	ظلم	-0.01223888
-3.923945	ظہور	-0.01223888
-3.923945	ظہیر	-0.01223888
-3.923945	عابد	-0.01223888
-3.622875	عارضی	-0.01223888
-3.923945	عاشق	-0.01223888
-3.923945	عاشور	-0.01223888
-3.923945	عالمی	-0.01223888
-3.923945	عالیشان	-0.01223888
-3.622875	عام	-0.01223888
-3.923945	عبدالحئی	-0.01223888
-3.923945	عبرت	-0.01223888
-3.923945	عثمانی	-0.01223888
-3.622875	عجلت	-0.01223888
-3.923945	عجیب	-0.01223888
-3.923945	عدالت	-0.01223888
-3.923945	عدل	-0.01223888
-3.923945	عدلیہ	-0.01223888
-3.622875	عذاب	-0.01223888
-3.923945	عراقی	-0.01223888
-3.923945	عرب	-0.01223888
-3.923945	عرس	-0.01223888
-3.923945	عرصہ	-0.01223888
-3.923945	عرصے	-0.01223888
-3.923945	عرضداشت	-0.01223888
-3.923945	عرف	-0.01223888
-3.923945	عرفان	-0.01223888
-3.923945	عروج	-0.01223888
-3.923945	عریاں	-0.01223888
-3.622875	عزت	-0.01223888
-3.923945	عزیز	-0.01223888
-3.923945	عزیزواقارب	-0.01223888
-3.923945	عشاق	-0.01223888
-3.923945	عشر	-0.01223888
-3.923945	عشرت	-0.01223888
-3.923945	عشروں	-0.01223888
-3.923945	عشرے	-0.01223888
-3.923945	عصیاں	-0.01223888
-3.923945	عضلات	-0.01223888
-3.923945	عظام	-0.01223888
-3.923945	عظمی	-0.01223888
-3.923945	عفت	-0.01223888
-3.923945	عفو	-0.01223888
-3.923945	عقاب	-0.01223888
-3.923945	عقلمندی	-0.01223888
-3.923945	عقیل	-0.01223888
-3.923945	علاج	-0.01223888
-3.923945	علاقائی	-0.01223888
-3.923945	علاقوں	-0.01223888
-3.923945	علاقے	-0.01223888
-3.622875	علاوہ	-0.01223888
-3.446771	علم	-0.01223888
-3.923945	علوی	-0.01223888
-3.923945	علی	-0.01223888
-3.923945	علیحدہ	-0.01223888
-3.446771	عمر	-0.01223888
-3.923945	عمرقید	-0.01223888
-3.923945	عمریں	-0.01223888
-3.446771	عمل	-0.01223888
-3.923945	عملا	-0.01223888
-3.923945	عملی	-0.01223888
-3.923945	عموماً	-0.01223888
-3.923945	عمیق	-0.01223888
-3.923945	عندیہ	-0.01223888
-3.923945	عنوان	-0.01223888
-3.923945	عوام	-0.01223888
-3.923945	عود	-0.01223888
-3.923945	عورت	-0.01223888
-3.923945	عہدہ	-0.01223888
-3.923945	عہدیداروں	-0.01223888
-3.923945	عہدے	-0.01223888
-3.923945	عیادت	-0.01223888
-3.923945	عیاشی	-0.01223888
-3.923945	عیاں	-0.01223888
-3.923945	عید	-0.01223888
-3.923945	غائب	-0.01223888
-3.923945	غافل	-0.01223888
-3.923945	غالب	-0.01223888
-3.923945	غاں	-0.01223888
-3.923945	غایت	-0.01223888
-3.923945	غدار	-0.01223888
-3.923945	غدودوں	-0.01223888
-3.923945	غذا	-0.01223888
-3.923945	غذاؤں	-0.01223888
-3.923945	غذائی	-0.01223888
-3.923945	غرارے	-0.01223888
-3.923945	غربت	-0.01223888
-3.923945	غریب	-0.01223888
-3.923945	غزلوں	-0.01223888
-3.923945	غزلیات	-0.01223888
-3.923945	غزلیں	-0.01223888
-3.923945	غزوہ	-0.01223888
-3.923945	غصب	-0.01223888
-3.923945	غصہ	-0.01223888
-3.923945	غفلت	-0.01223888
-3.923945	غفور	-0.01223888
-3.923945	غلام	-0.01223888
-3.923945	غلط	-0.01223888
-3.923945	غلیل	-0.01223888
-3.923945	غم	-0.01223888
-3.923945	غنا	-0.01223888
-3.923945	غنودگی	-0.01223888
-3.923945	غنی	-0.01223888
-3.923945	غوث	-0.01223888
-3.622875	غور	-0.01223888
-3.923945	غوروخوض	-0.01223888
-3.923945	غوغا	-0.01223888
-3.923945	غوں	-0.01223888
-3.923945	غیب	-0.01223888
-3.224911	غیر	-0.01223888
-3.923945	غیرت	-0.01223888
-3.923945	غیردانشمندانہ	-0.01223888
-3.923945	غیررسمی	-0.01223888
-3.923945	غیرضروری	-0.01223888
-3.923945	غیرقانونی	-0.01223888
-3.923945	غیرملکی	-0.01223888
-3.923945	غیرنمایاں	-0.01223888
-3.923945	غیریقینی	-0.01223888
-3.923945	غیور	-0.01223888
-3.923945	فاؤنڈیشن	-0.01223888
-3.923945	فائدہ	-0.01223888
-3.923945	فائر	-0.01223888
-3.923945	فائربریگیڈ	-0.01223888
-3.923945	فاجر	-0.01223888
-3.923945	فاخرہ	-0.01223888
-3.923945	فارسی	-0.01223888
-3.923945	فارغ	-0.01223888
-3.923945	فارم	-0.01223888
-3.923945	فارمولے	-0.01223888
-3.923945	فارورڈ	-0.01223888
-3.923945	فاروق	-0.01223888
-3.923945	فاریسٹ	-0.01223888
-3.923945	فالوآن	-0.01223888
-3.923945	فتحیاب	-0.01223888
-3.923945	فجر	-0.01223888
-3.923945	فجور	-0.01223888
-3.923945	فحش	-0.01223888
-3.923945	فخر	-0.01223888
-3.923945	فرائض	-0.01223888
-3.923945	فراخدلی	-0.01223888
-3.923945	فرانسیسی	-0.01223888
-3.923945	فراواں	-0.01223888
-3.923945	فرخندہ	-0.01223888
-3.923945	فرخی	-0.01223888
-3.923945	فردوس	-0.01223888
-3.923945	فرسودہ	-0.01223888
-3.923945	فرض	-0.01223888
-3.923945	فرعون	-0.01223888
-3.923945	فرمائیں	-0.01223888
-3.923945	فرماں	-0.01223888
-3.923945	فرمایا	-0.01223888
-3.923945	فروخت	-0.01223888
-3.923945	فروزاں	-0.01223888
-3.923945	فروش	-0.01223888
-3.923945	فروغ	-0.01223888
-3.923945	فریب	-0.01223888
-3.923945	فریقین	-0.01223888
-3.923945	فرینڈ	-0.01223888
-3.923945	فرینڈلی	-0.01223888
-3.923945	فزیوتھراپسٹ	-0.01223888
-3.923945	فشار	-0.01223888
-3.923945	فشنگ	-0.01223888
-3.923945	فصل	-0.01223888
-3.923945	فصلیں	-0.01223888
-3.923945	فضل	-0.01223888
-3.923945	فضول	-0.01223888
-3.923945	فعال	-0.01223888
-3.923945	فعل	-0.01223888
-3.923945	فعلن	-0.01223888
-3.923945	فغاں	-0.01223888
-3.923945	فقدان	-0.01223888
-3.923945	فقر	-0.01223888
-3.622875	فقروں	-0.01223888
-3.923945	فقرے	-0.01223888
-3.923945	فقہی	-0.01223888
-3.622875	فقیر	-0.01223888
-3.923945	فلالین	-0.01223888
-3.923945	فلسطینی	-0.01223888
-3.923945	فلسفے	-0.01223888
-3.923945	فلم	-0.01223888
-3.923945	فلمساز	-0.01223888
-3.923945	فلموں	-0.01223888
-3.923945	فلو	-0.01223888
-3.923945	فلڈ	-0.01223888
-3.923945	فلیش	-0.01223888
-3.923945	فلیچر	-0.01223888
-3.622875	فن	-0.01223888
-3.923945	فنانس	-0.01223888
-3.923945	فنڈز	-0.01223888
-3.923945	فنگس	-0.01223888
-3.923945	فوائد	-0.01223888
-3.923945	فوبیا	-0.01223888
-3.923945	فوج	-0.01223888
-3.923945	فوجداری	-0.01223888
-3.923945	فوجوں	-0.01223888
-3.923945	فوجی	-0.01223888
-3.923945	فوجیوں	-0.01223888
-3.923945	فوجیں	-0.01223888
-3.923945	فوراً	-0.01223888
-3.622875	فورس	-0.01223888
-3.923945	فورسڈ	-0.01223888
-3.923945	فورم	-0.01223888
-3.923945	فوری	-0.01223888
-3.923945	فوریکس	-0.01223888
-3.923945	فوقیت	-0.01223888
-3.923945	فولاد	-0.01223888
-3.923945	فولڈر	-0.01223888
-3.923945	فوم	-0.01223888
-3.923945	فون	-0.01223888
-3.923945	فٹ	-0.01223888
-3.923945	فٹنیس	-0.01223888
-3.923945	فکر	-0.01223888
-3.923945	فکروعمل	-0.01223888
-3.923945	فگار	-0.01223888
-3.923945	فہرست	-0.01223888
-3.923945	فہرستیں	-0.01223888
-3.923945	فی	-0.01223888
-3.923945	فیاض	-0.01223888
-3.923945	فیاضی	-0.01223888
-3.923945	فیبرکس	-0.01223888
-3.923945	فیتھ	-0.01223888
-3.923945	فیری	-0.01223888
-3.923945	فیز	-0.01223888
-3.923945	فیس	-0.01223888
-3.923945	فیسیں	-0.01223888
-3.923945	فیشن	-0.01223888
-3.923945	فیصد	-0.01223888
-3.923945	فیصلوں	-0.01223888
-3.923945	فیصلہ	-0.01223888
-3.923945	فیصلے	-0.01223888
-3.923945	فیض	-0.01223888
-3.923945	فیضان	-0.01223888
-3.923945	فیم	-0.01223888
-3.923945	فیملی	-0.01223888
-3.923945	فیورٹ	-0.01223888
-3.923945	فیوچر	-0.01223888
-3.923945	فیچر	-0.01223888
-3.923945	فیڈر	-0.01223888
-3.923945	فیڈرل	-0.01223888
-3.923945	فیڈریشن	-0.01223888
-3.923945	فیڈریشنز	-0.01223888
-3.923945	قائم	-0.01223888
-3.923945	قابل	-0.01223888
-3.923945	قادری	-0.01223888
-3.923945	قادیانی	-0.01223888
-3.923945	قارئین	-0.01223888
-3.923945	قاری	-0.01223888
-3.923945	قاسم	-0.01223888
-3.923945	قاضی	-0.01223888
-3.923945	قالین	-0.01223888
-3.923945	قانون	-0.01223888
-3.923945	قانونگو	-0.01223888
-3.923945	قبرستان	-0.01223888
-3.923945	قبضے	-0.01223888
-3.923945	قبل	-0.01223888
-3.923945	قبول	-0.01223888
-3.923945	قبیح	-0.01223888
-3.923945	قبیلے	-0.01223888
-3.923945	قحط	-0.01223888
-3.622875	قدآدم	-0.01223888
-3.923945	قدر	-0.01223888
-3.923945	قدرتی	-0.01223888
-3.923945	قدروقیمت	-0.01223888
-3.923945	قدروں	-0.01223888
-3.923945	قدرے	-0.01223888
-3.923945	قدسی	-0.01223888
-3.923945	قدسیہ	-0.01223888
-3.923945	قدغن	-0.01223888
-3.923945	قدم	-0.01223888
-3.923945	قدوقامت	-0.01223888
-3.923945	قرار	-0.01223888
-3.923945	قرارداد	-0.01223888
-3.923945	قرضوں	-0.01223888
-3.923945	قرضے	-0.01223888
-3.923945	قریب	-0.01223888
-3.923945	قریشی	-0.01223888
-3.923945	قزلباش	-0.01223888
-3.622875	قسم	-0.01223888
-3.923945	قصور	-0.01223888
-3.923945	قصوروار	-0.01223888
-3.923945	قضا	-0.01223888
-3.923945	قضہ	-0.01223888
-3.923945	قضیے	-0.01223888
-3.923945	قفس	-0.01223888
-3.923945	قل	-0.01223888
-3.923945	قلزم	-0.01223888
-3.923945	قم	-0.01223888
-3.923945	قناعت	-0.01223888
-3.923945	قندیل	-0.01223888
-3.923945	قوانین	-0.01223888
-3.923945	قوت	-0.01223888
-3.923945	قورمہ	-0.01223888
-3.923945	قوس	-0.01223888
-3.923945	قومی	-0.01223888
-3.923945	قومیائے	-0.01223888
-3.923945	قونصلیٹ	-0.01223888
-3.923945	قوی	-0.01223888
-3.923945	قہقہے	-0.01223888
-3.923945	قہوے	-0.01223888
-3.923945	قیام	-0.01223888
-3.923945	قیامت	-0.01223888
-3.923945	قید	-0.01223888
-3.923945	قیدیوں	-0.01223888
-3.923945	قیصر	-0.01223888
-3.923945	قیلولہ	-0.01223888
-3.923945	قیمت	-0.01223888
-3.923945	قیود	-0.01223888
-3.923945	قیوم	-0.01223888
-3.923945	قے	-0.01223888
-3.923945	لئیق	-0.01223888
-3.923945	لا	-0.01223888
-3.923945	لاؤ	-0.01223888
-3.923945	لائبریری	-0.01223888
-3.923945	لائبریرین	-0.01223888
-3.923945	لائحہ	-0.01223888
-3.622875	لائن	-0.01223888
-3.622875	لائی	-0.01223888
-3.923945	لائیوسٹاک	-0.01223888
-3.923945	لائیں	-0.01223888
-3.923945	لائے	-0.01223888
-3.923945	لاابالی	-0.01223888
-3.923945	لابنگ	-0.01223888
-3.923945	لادینیت	-0.01223888
-3.923945	لارا	-0.01223888
-3.923945	لاریب	-0.01223888
-3.923945	لاشوں	-0.01223888
-3.923945	لاشیں	-0.01223888
-3.923945	لال	-0.01223888
-3.923945	لالچی	-0.01223888
-3.923945	لانچنگ	-0.01223888
-3.923945	لاٹھی	-0.01223888
-3.923945	لاٹھیاں	-0.01223888
-3.923945	لاچار	-0.01223888
-3.923945	لاڈ	-0.01223888
-3.923945	لاڈلے	-0.01223888
-3.923945	لاکھ	-0.01223888
-3.923945	لاکھا	-0.01223888
-3.923945	لاکھوں	-0.01223888
-3.923945	لاگت	-0.01223888
-3.923945	لاہوری	-0.01223888
-3.923945	لاہوریات	-0.01223888
-3.446771	لایا	-0.4893602
-3.923945	لاینفک	-0.01223888
-3.923945	لباس	-0.01223888
-3.923945	لبالب	-0.01223888
-3.923945	لتھڑے	-0.01223888
-3.923945	لخت	-0.01223888
-3.923945	لدھیانوی	-0.01223888
-3.923945	لذت	-0.01223888
-3.923945	لشکر	-0.01223888
-3.923945	لطیفے	-0.01223888
-3.923945	لعاب	-0.01223888
-3.923945	لغاری	-0.01223888
-3.923945	لغو	-0.01223888
-3.923945	لغوی	-0.01223888
-3.923945	لفظ	-0.01223888
-3.923945	لفظوں	-0.01223888
-3.923945	لفظی	-0.01223888
-3.923945	لفظیات	-0.01223888
-3.923945	لقب	-0.01223888
-3.923945	لمحوں	-0.01223888
-3.923945	لمحے	-0.01223888
-3.923945	لنگا	-0.01223888
-3.923945	لنگر	-0.01223888
-3.446771	لو	-0.01223888
-3.923945	لوتھڑا	-0.01223888
-3.923945	لوث	-0.01223888
-3.923945	لوحوں	-0.01223888
-3.923945	لوشن	-0.01223888
-3.923945	لولی	-0.01223888
-3.923945	لومڑ	-0.01223888
-3.923945	لومڑی	-0.01223888
-3.923945	لومیرج	-0.01223888
-3.923945	لونگ	-0.01223888
-3.923945	لوٹ	-0.01223888
-3.923945	لوڈشیڈنگ	-0.01223888
-3.923945	لوک	-0.01223888
-3.923945	لوگ	-0.01223888
-3.923945	لوگو	-0.01223888
-3.622875	لوگوں	-0.01223888
-3.622875	لوں	-0.01223888
-3.923945	لوہا	-0.01223888
-3.923945	لوہار	-0.01223888
-3.923945	لوہے	-0.01223888
-3.923945	لٹریچر	-0.01223888
-3.923945	لچک	-0.01223888
-3.923945	لڑائی	-0.01223888
-3.923945	لڑکا	-0.01223888
-3.923945	لڑکھڑا	-0.01223888
-3.923945	لڑھک	-0.01223888
-3.923945	لڑیں	-0.01223888
-3.923945	لکڑہارے	-0.01223888
-3.923945	لکھ	-0.01223888
-3.923945	لکھا	-0.01223888
-3.923945	لکھتے	-0.01223888
-3.923945	لکھنے	-0.01223888
-3.923945	لکھو	-0.01223888
-3.923945	لکھوا	-0.01223888
-3.923945	لکھوں	-0.01223888
-3.622875	لکھی	-0.01223888
-3.923945	لکھیں	-0.01223888
-3.923945	لکھے	-0.01223888
-3.224911	لگا	-0.2340876
-3.923945	لگاؤ	-0.01223888
-3.923945	لگائی	-0.01223888
-3.923945	لگائیں	-0.01223888
-3.923945	لگائے	-0.01223888
-3.622875	لگاتا	-0.01223888
-3.923945	لگانا	-0.01223888
-3.622875	لگانے	-0.01223888
-3.923945	لگژری	-0.01223888
-3.923945	لگیں	-0.01223888
-3.446771	لگے	-0.1883301
-3.923945	لہجہ	-0.01223888
-3.923945	لہجے	-0.01223888
-3.622875	لہذا	-0.01223888
-3.923945	لہریں	-0.01223888
-3.923945	لہو	-0.01223888
-3.923945	لہولہان	-0.01223888
-3.145727	لیا	-0.4893601
-3.923945	لیاقت	-0.01223888
-3.923945	لیب	-0.01223888
-3.923945	لیبارٹری	-0.01223888
-3.923945	لیبر	-0.01223888
-3.923945	لیتا	-0.01223888
-3.923945	لیتی	-0.01223888
-3.923945	لیتے	-0.01223888
-3.923945	لیجنڈ	-0.01223888
-3.923945	لیجنڈری	-0.01223888
-3.923945	لیدر	-0.01223888
-3.923945	لیزر	-0.01223888
-3.923945	لیزنگ	-0.01223888
-3.923945	لیس	-0.01223888
-3.923945	لیفٹننٹ	-0.01223888
-3.923945	لیفٹیننٹ	-0.01223888
-3.923945	لیلی	-0.01223888
-3.923945	لیموں	-0.01223888
-3.622875	لینا	-0.01223888
-3.923945	لینتھ	-0.01223888
-3.321825	لینڈ	-0.01223888
-3.923945	لینگویج	-0.01223888
-3.446771	لینے	-0.01223888
-3.923945	لیوا	-0.01223888
-3.923945	لیچی	-0.01223888
-3.923945	لیڈر	-0.01223888
-3.923945	لیڈز	-0.01223888
-3.923945	لیڈی	-0.01223888
-3.923945	لیکن	-0.01223888
-3.446771	لیں	-0.4893602
-3.321825	لیے	-0.01223888
-3.145727	لے	-0.09142012
-3.923945	مآب	-0.01223888
-3.923945	مؤثر	-0.01223888
-3.923945	مؤخر	-0.01223888
-3.923945	ماؤزے	-0.01223888
-3.923945	ماؤف	-0.01223888
-3.923945	ماؤنٹ	-0.01223888
-3.923945	مائنڈڈ	-0.01223888
-3.923945	ماتھا	-0.01223888
-3.923945	ماتھے	-0.01223888
-3.923945	ماحول	-0.01223888
-3.923945	ماحولیات	-0.01223888
-3.923945	ماخذ	-0.01223888
-3.923945	ماخوذ	-0.01223888
-3.923945	مادھو	-0.01223888
-3.923945	مارشل	-0.01223888
-3.923945	مارچ	-0.01223888
-3.923945	ماشے	-0.01223888
-3.923945	ماضی	-0.01223888
-3.923945	مافیا	-0.01223888
-3.923945	مالدار	-0.01223888
-3.923945	مالیخولیا	-0.01223888
-3.923945	مان	-0.01223888
-3.923945	مانجھے	-0.01223888
-3.923945	مانوس	-0.01223888
-3.923945	مانگ	-0.01223888
-3.923945	مانگنے	-0.01223888
-3.923945	ماچس	-0.01223888
-3.923945	ماچھی	-0.01223888
-3.923945	ماڈل	-0.01223888
-3.923945	ماڈلنگ	-0.01223888
-3.923945	ماڑی	-0.01223888
-3.923945	ماں	-0.01223888
-3.923945	ماہ	-0.01223888
-3.923945	ماہرین	-0.01223888
-3.923945	ماہوار	-0.01223888
-3.923945	مایوس	-0.01223888
-3.923945	مبتلا	-0.01223888
-3.923945	مبشر	-0.01223888
-3.923945	مبلغ	-0.01223888
-3.923945	مبلغین	-0.01223888
-3.923945	مبنی	-0.01223888
-3.923945	مبہم	-0.01223888
-3.923945	مبین	-0.01223888
-3.923945	متاثرہ	-0.01223888
-3.923945	متاثرین	-0.01223888
-3.923945	متاخرین	-0.01223888
-3.923945	متحدہ	-0.01223888
-3.923945	متحرک	-0.01223888
-3.923945	مترادف	-0.01223888
-3.923945	مترجم	-0.01223888
-3.923945	متعارف	-0.01223888
-3.923945	متعدد	-0.01223888
-3.923945	متعلق	-0.01223888
-3.923945	متغیر	-0.01223888
-3.923945	متفقہ	-0.01223888
-3.923945	متنازعہ	-0.01223888
-3.923945	متنفر	-0.01223888
-3.923945	متنوع	-0.01223888
-3.923945	متوجہ	-0.01223888
-3.923945	متوفی	-0.01223888
-3.923945	متوفیہ	-0.01223888
-3.923945	متھرانی	-0.01223888
-3.923945	مثال	-0.01223888
-3.923945	مثبت	-0.01223888
-3.923945	مثلاً	-0.01223888
-3.923945	مجاہد	-0.01223888
-3.923945	مجبور	-0.01223888
-3.923945	مجذوب	-0.01223888
-3.622875	مجرم	-0.3132689
-3.923945	مجروح	-0.01223888
-3.923945	مجلس	-0.01223888
-3.923945	مجلے	-0.01223888
-3.923945	مجموعوں	-0.01223888
-3.923945	مجموعہ	-0.01223888
-3.923945	مجموعی	-0.01223888
-3.923945	مجموعے	-0.01223888
-3.923945	مجوزہ	-0.01223888
-3.923945	مجھ	-0.01223888
-3.622875	مجھے	-0.01223888
-3.923945	مجیب	-0.01223888
-3.923945	مجید	-0.01223888
-3.923945	محافظوں	-0.01223888
-3.923945	محبت	-0.01223888
-3.923945	محبوب	-0.01223888
-3.923945	محبوبہ	-0.01223888
-3.923945	محتاجوں	-0.01223888
-3.923945	محترمہ	-0.01223888
-3.923945	محدود	-0.01223888
-3.923945	محرر	-0.01223888
-3.923945	محروم	-0.01223888
-3.923945	محسن	-0.01223888
-3.923945	محسنہ	-0.01223888
-3.923945	محسوس	-0.01223888
-3.923945	محض	-0.01223888
-3.923945	محظوظ	-0.01223888
-3.923945	محفل	-0.01223888
-3.923945	محفوظ	-0.01223888
-3.923945	محقق	-0.01223888
-3.923945	محققین	-0.01223888
-3.923945	محلول	-0.01223888
-3.923945	محلوں	-0.01223888
-3.923945	محنت	-0.01223888
-3.923945	محور	-0.01223888
-3.923945	محویت	-0.01223888
-3.923945	محیرالعقول	-0.01223888
-3.923945	مخالفت	-0.01223888
-3.923945	مخالفوں	-0.01223888
-3.923945	مخبری	-0.01223888
-3.923945	مختلف	-0.01223888
-3.923945	مخدوش	-0.01223888
-3.923945	مخدوم	-0.01223888
-3.923945	مخرج	-0.01223888
-3.923945	مخزن	-0.01223888
-3.923945	مخصوص	-0.01223888
-3.923945	مخفی	-0.01223888
-3.923945	مخل	-0.01223888
-3.923945	مخلوق	-0.01223888
-3.923945	مخیر	-0.01223888
-3.923945	مداحوں	-0.01223888
-3.923945	مداخلت	-0.01223888
-3.923945	مدافعت	-0.01223888
-3.923945	مدت	-0.01223888
-3.923945	مدح	-0.01223888
-3.923945	مدد	-0.01223888
-3.923945	مدرسوں	-0.01223888
-3.923945	مدرسہ	-0.01223888
-3.923945	مدعو	-0.01223888
-3.923945	مدعی	-0.01223888
-3.923945	مدعیان	-0.01223888
-3.923945	مدغم	-0.01223888
-3.923945	مدفن	-0.01223888
-3.923945	مدفون	-0.01223888
-3.923945	مدمقابل	-0.01223888
-3.923945	مدون	-0.01223888
-3.923945	مدھر	-0.01223888
-3.923945	مدھم	-0.01223888
-3.923945	مدہوش	-0.01223888
-3.923945	مذاق	-0.01223888
-3.923945	مذاکرات	-0.01223888
-3.923945	مذہبی	-0.01223888
-3.923945	مراد	-0.01223888
-3.923945	مراعات	-0.01223888
-3.923945	مربعے	-0.01223888
-3.923945	مرتب	-0.01223888
-3.923945	مرتبہ	-0.01223888
-3.923945	مرثیے	-0.01223888
-3.923945	مرجھا	-0.01223888
-3.923945	مرحوم	-0.01223888
-3.923945	مردانگی	-0.01223888
-3.923945	مردوں	-0.01223888
-3.923945	مرزا	-0.01223888
-3.923945	مرشد	-0.01223888
-3.622875	مرض	-0.01223888
-3.923945	مرضی	-0.01223888
-3.923945	مرغا	-0.01223888
-3.923945	مرغابیوں	-0.01223888
-3.923945	مرغبانی	-0.01223888
-3.923945	مرغزار	-0.01223888
-3.923945	مرغن	-0.01223888
-3.923945	مرغوب	-0.01223888
-3.923945	مرغی	-0.01223888
-3.923945	مرغیاں	-0.01223888
-3.923945	مرلہ	-0.01223888
-3.923945	مرچ	-0.01223888
-3.923945	مرچنٹ	-0.01223888
-3.923945	مرچوں	-0.01223888
-3.923945	مرچیں	-0.01223888
-3.923945	مرکزی	-0.01223888
-3.923945	مرہون	-0.01223888
-3.923945	مری	-0.01223888
-3.622875	مریضوں	-0.3132689
-3.923945	مزاج	-0.01223888
-3.923945	مزارعوں	-0.01223888
-3.923945	مزارعین	-0.01223888
-3.923945	مزدوروں	-0.01223888
-3.923945	مزید	-0.01223888
-3.923945	مزیدار	-0.01223888
-3.923945	مزین	-0.01223888
-3.923945	مزے	-0.01223888
-3.923945	مس	-0.01223888
-3.923945	مسئلہ	-0.01223888
-3.923945	مسائل	-0.01223888
-3.923945	مسترد	-0.01223888
-3.923945	مستعد	-0.01223888
-3.923945	مستغرق	-0.01223888
-3.923945	مستغنی	-0.01223888
-3.923945	مسجد	-0.01223888
-3.923945	مسحور	-0.01223888
-3.923945	مسخ	-0.01223888
-3.923945	مسخرے	-0.01223888
-3.622875	مسز	-0.01223888
-3.923945	مسلسل	-0.01223888
-3.923945	مسلم	-0.01223888
-3.622875	مسلمان	-0.01223888
-3.923945	مسوڑوں	-0.01223888
-3.923945	مشائخ	-0.01223888
-3.923945	مشاعرہ	-0.01223888
-3.923945	مشاغل	-0.01223888
-3.923945	مشاورت	-0.01223888
-3.923945	مشتعل	-0.01223888
-3.923945	مشتی	-0.01223888
-3.923945	مشرف	-0.01223888
-3.923945	مشرق	-0.01223888
-3.923945	مشروبات	-0.01223888
-3.923945	مشروط	-0.01223888
-3.923945	مشعر	-0.01223888
-3.923945	مشغلہ	-0.01223888
-3.923945	مشفق	-0.01223888
-3.923945	مشق	-0.01223888
-3.923945	مشقت	-0.01223888
-3.923945	مشن	-0.01223888
-3.622875	مشورہ	-0.01223888
-3.923945	مشہور	-0.01223888
-3.923945	مشیت	-0.01223888
-3.622875	مشین	-0.01223888
-3.923945	مشینری	-0.01223888
-3.923945	مصالحہ	-0.01223888
-3.923945	مصحفی	-0.01223888
-3.923945	مصداق	-0.01223888
-3.923945	مصدق	-0.01223888
-3.923945	مصر	-0.01223888
-3.923945	مصروف	-0.01223888
-3.923945	مصروفیات	-0.01223888
-3.923945	مصروفیت	-0.01223888
-3.923945	مصنف	-0.01223888
-3.923945	مصنوعات	-0.01223888
-3.923945	مصور	-0.01223888
-3.923945	مصوروں	-0.01223888
-3.923945	مصیبت	-0.01223888
-3.923945	مضائقہ	-0.01223888
-3.923945	مضبوط	-0.01223888
-3.923945	مضحک	-0.01223888
-3.923945	مضروب	-0.01223888
-3.923945	مضمون	-0.01223888
-3.622875	مطابق	-0.01223888
-3.923945	مطالبہ	-0.01223888
-3.923945	مطالبے	-0.01223888
-3.923945	مطالعوں	-0.01223888
-3.923945	مطالعہ	-0.01223888
-3.923945	مطالعے	-0.01223888
-3.923945	مطبوعہ	-0.01223888
-3.923945	مطلوبہ	-0.01223888
-3.923945	مطمئن	-0.01223888
-3.923945	مطہرہ	-0.01223888
-3.923945	مظفر	-0.01223888
-3.923945	مظلام	-0.01223888
-3.923945	مظہر	-0.01223888
-3.923945	معا	-0.01223888
-3.923945	معائنہ	-0.01223888
-3.923945	معاذ	-0.01223888
-3.923945	معاشرے	-0.01223888
-3.923945	معاشی	-0.01223888
-3.923945	معاشیات	-0.01223888
-3.923945	معاف	-0.01223888
-3.923945	معالج	-0.01223888
-3.923945	معالجہ	-0.01223888
-3.923945	معالجے	-0.01223888
-3.923945	معاملات	-0.01223888
-3.923945	معاندانہ	-0.01223888
-3.923945	معانی	-0.01223888
-3.923945	معاوضوں	-0.01223888
-3.923945	معاوضہ	-0.01223888
-3.923945	معاون	-0.01223888
-3.923945	معاہدے	-0.01223888
-3.923945	معجزات	-0.01223888
-3.923945	معجزے	-0.01223888
-3.923945	معجل	-0.01223888
-3.923945	معدے	-0.01223888
-3.923945	معذوریوں	-0.01223888
-3.923945	معرض	-0.01223888
-3.923945	معروضی	-0.01223888
-3.923945	معززین	-0.01223888
-3.923945	معشوق	-0.01223888
-3.923945	معصوم	-0.01223888
-3.923945	معطل	-0.01223888
-3.923945	معقول	-0.01223888
-3.923945	معلم	-0.01223888
-3.923945	معلوم	-0.01223888
-3.923945	معلومات	-0.01223888
-3.923945	معمر	-0.01223888
-3.923945	معمولی	-0.01223888
-3.923945	معمہ	-0.01223888
-3.923945	معنویت	-0.01223888
-3.923945	معیاد	-0.01223888
-3.923945	معیاری	-0.01223888
-3.622875	معیت	-0.01223888
-3.622875	معید	-0.01223888
-3.923945	معیشت	-0.01223888
-3.923945	معین	-0.01223888
-3.923945	معیوب	-0.01223888
-3.923945	مغربی	-0.01223888
-3.923945	مغرور	-0.01223888
-3.923945	مغز	-0.01223888
-3.923945	مغفرت	-0.01223888
-3.923945	مغفور	-0.01223888
-3.923945	مغلوب	-0.01223888
-3.923945	مغلوں	-0.01223888
-3.923945	مغلیہ	-0.01223888
-3.923945	مغیث	-0.01223888
-3.923945	مفاد	-0.01223888
-3.923945	مفاہمت	-0.01223888
-3.923945	مفروضات	-0.01223888
-3.923945	مفلس	-0.01223888
-3.923945	مفلوج	-0.01223888
-3.923945	مفکر	-0.01223888
-3.923945	مفہوم	-0.01223888
-3.923945	مفید	-0.01223888
-3.923945	مقابلوں	-0.01223888
-3.923945	مقابلے	-0.01223888
-3.923945	مقام	-0.01223888
-3.923945	مقبوضہ	-0.01223888
-3.446771	مقدار	-0.01223888
-3.923945	مقرر	-0.01223888
-3.923945	مقروض	-0.01223888
-3.923945	مقصد	-0.01223888
-3.923945	مقصود	-0.01223888
-3.923945	مقوی	-0.01223888
-3.923945	مقید	-0.01223888
-3.923945	مل	-0.01223888
-3.622875	ملا	-0.01223888
-3.923945	ملاؤں	-0.01223888
-3.923945	ملائیشن	-0.01223888
-3.923945	ملازم	-0.01223888
-3.622875	ملازمت	-0.01223888
-3.622875	ملازمین	-0.01223888
-3.923945	ملبوسات	-0.01223888
-3.923945	ملت	-0.01223888
-3.923945	ملحق	-0.01223888
-3.923945	ملحقہ	-0.01223888
-3.923945	ملحوظ	-0.01223888
-3.923945	ملزوم	-0.01223888
-3.923945	ملغوبہ	-0.01223888
-3.923945	ملفوظات	-0.01223888
-3.923945	ملنے	-0.01223888
-3.923945	ملوث	-0.01223888
-3.923945	ملک	-0.01223888
-3.923945	ملی	-0.01223888
-3.923945	ملیریا	-0.01223888
-3.923945	ملیشیا	-0.01223888
-3.923945	ملین	-0.01223888
-3.923945	ملیں	-0.01223888
-3.923945	ملیہ	-0.01223888
-3.923945	ملے	-0.01223888
-3.923945	مماثل	-0.01223888
-3.923945	ممالک	-0.01223888
-3.923945	ممانعت	-0.01223888
-3.923945	ممبر	-0.01223888
-3.923945	ممد	-0.01223888
-3.923945	مملکت	-0.01223888
-3.923945	مملکتیں	-0.01223888
-3.923945	ممنوع	-0.01223888
-3.923945	ممکن	-0.01223888
-3.923945	مناسب	-0.01223888
-3.923945	منافعوں	-0.01223888
-3.923945	منافعے	-0.01223888
-3.923945	منتخب	-0.01223888
-3.923945	منتخبات	-0.01223888
-3.923945	منتظر	-0.01223888
-3.923945	منتقل	-0.01223888
-3.923945	منجدھار	-0.01223888
-3.923945	منجھی	-0.01223888
-3.923945	منجھے	-0.01223888
-3.923945	منحوس	-0.01223888
-3.923945	مندری	-0.01223888
-3.923945	مندوبین	-0.01223888
-3.923945	منسوخ	-0.01223888
-3.923945	منسوخی	-0.01223888
-3.923945	منش	-0.01223888
-3.923945	منشور	-0.01223888
-3.923945	منشی	-0.01223888
-3.923945	منشیات	-0.01223888
-3.923945	منشیانہ	-0.01223888
-3.923945	منشیوں	-0.01223888
-3.923945	منصوبے	-0.01223888
-3.923945	منظر	-0.01223888
-3.923945	منظم	-0.01223888
-3.622875	منظور	-0.01223888
-3.923945	منظوم	-0.01223888
-3.923945	منعقد	-0.01223888
-3.923945	منفرد	-0.01223888
-3.923945	منفعت	-0.01223888
-3.923945	منفی	-0.01223888
-3.923945	منقش	-0.01223888
-3.923945	منوا	-0.01223888
-3.923945	منور	-0.01223888
-3.923945	منڈھے	-0.01223888
-3.923945	منڈیوں	-0.01223888
-3.923945	منگنی	-0.01223888
-3.923945	منگوا	-0.01223888
-3.923945	منہ	-0.01223888
-3.923945	منہدم	-0.01223888
-3.622875	منیب	-0.01223888
-3.923945	منیجر	-0.01223888
-3.923945	منیجنگ	-0.01223888
-3.923945	منیر	-0.01223888
-3.923945	موئسچرائزنگ	-0.01223888
-3.923945	مواد	-0.01223888
-3.923945	مواصلات	-0.01223888
-3.923945	مواصلاتی	-0.01223888
-3.923945	مواضعات	-0.01223888
-3.923945	موبائل	-0.01223888
-3.622875	موثر	-0.01223888
-3.923945	موجب	-0.01223888
-3.923945	موجزن	-0.01223888
-3.923945	موجود	-0.01223888
-3.923945	موجودہ	-0.01223888
-3.923945	موجوں	-0.01223888
-3.923945	موخر	-0.01223888
-3.923945	مودبانہ	-0.01223888
-3.923945	موذی	-0.01223888
-3.923945	مورخ	-0.01223888
-3.923945	مورخہ	-0.01223888
-3.923945	مورخین	-0.01223888
-3.923945	موردالزام	-0.01223888
-3.923945	موروثی	-0.01223888
-3.923945	مورچے	-0.01223888
-3.923945	موزونیت	-0.01223888
-3.923945	موزوں	-0.01223888
-3.923945	موسلادھار	-0.01223888
-3.622875	موسم	-0.01223888
-3.923945	موسمیات	-0.01223888
-3.923945	موسیقی	-0.01223888
-3.923945	موشن	-0.01223888
-3.923945	موصول	-0.01223888
-3.923945	موضع	-0.01223888
-3.923945	موضوع	-0.01223888
-3.923945	موضوعات	-0.01223888
-3.923945	موعود	-0.01223888
-3.923945	موقر	-0.01223888
-3.923945	موقع	-0.01223888
-3.923945	موقعوں	-0.01223888
-3.923945	موقعے	-0.01223888
-3.923945	موقف	-0.01223888
-3.923945	مولا	-0.01223888
-3.923945	مولانا	-0.01223888
-3.923945	مولوی	-0.01223888
-3.923945	مومن	-0.01223888
-3.923945	مون	-0.01223888
-3.923945	مونا	-0.01223888
-3.923945	مونث	-0.01223888
-3.923945	مونچھیں	-0.01223888
-3.923945	موو	-0.01223888
-3.923945	مووایبل	-0.01223888
-3.923945	موومنٹ	-0.01223888
-3.923945	مووی	-0.01223888
-3.923945	موچی	-0.01223888
-3.923945	موڈ	-0.01223888
-3.923945	موڈم	-0.01223888
-3.923945	موڑ	-0.01223888
-3.923945	موہن	-0.01223888
-3.923945	موہوم	-0.01223888
-3.923945	مویشی	-0.01223888
-3.923945	مٹھائیاں	-0.01223888
-3.923945	مٹھل	-0.01223888
-3.923945	مٹھن	-0.01223888
-3.923945	مٹیں	-0.01223888
-3.923945	مچا	-0.01223888
-3.622875	مچانے	-0.01223888
-3.923945	مچولی	-0.01223888
-3.923945	مچھر	-0.01223888
-3.923945	مچھلی	-0.01223888
-3.923945	مچھلیاں	-0.01223888
-3.923945	مچھیروں	-0.01223888
-3.923945	مڈل	-0.01223888
-3.923945	مڈنائٹ	-0.01223888
-3.923945	مڈھوں	-0.01223888
-3.923945	مژدہ	-0.01223888
-3.923945	مژگاں	-0.01223888
-3.923945	مکھن	-0.01223888
-3.923945	مکھڑا	-0.01223888
-3.923945	مکھڑے	-0.01223888
-3.923945	مکھیاں	-0.01223888
-3.923945	مکھیوں	-0.01223888
-3.923945	مگ	-0.01223888
-3.923945	مگر	-0.01223888
-3.923945	مگسی	-0.01223888
-3.923945	مہاجر	-0.01223888
-3.923945	مہجور	-0.01223888
-3.923945	مہذب	-0.01223888
-3.923945	مہر	-0.01223888
-3.923945	مہربانی	-0.01223888
-3.923945	مہربانیوں	-0.01223888
-3.923945	مہلت	-0.01223888
-3.923945	مہلک	-0.01223888
-3.923945	مہم	-0.01223888
-3.923945	مہمان	-0.01223888
-3.923945	مہمانان	-0.01223888
-3.923945	مہندی	-0.01223888
-3.923945	مہنگائی	-0.01223888
-3.923945	مہوش	-0.01223888
-3.923945	مہیا	-0.01223888
-3.923945	مہیب	-0.01223888
-3.923945	مہینے	-0.01223888
-3.622875	میئر	-0.01223888
-3.923945	میاؤں	-0.01223888
-3.923945	میت	-0.01223888
-3.923945	میتوں	-0.01223888
-3.923945	میتھائل	-0.01223888
-3.923945	میتھی	-0.01223888
-3.923945	میثاق	-0.01223888
-3.923945	میجر	-0.01223888
-3.923945	میخائل	-0.01223888
-3.923945	میدان	-0.01223888
-3.923945	میرا	-0.01223888
-3.923945	میراتھن	-0.01223888
-3.923945	میران	-0.01223888
-3.923945	میراں	-0.01223888
-3.923945	میرزا	-0.01223888
-3.923945	میرون	-0.01223888
-3.923945	میرٹ	-0.01223888
-3.923945	میرٹھی	-0.01223888
-3.923945	میری	-0.01223888
-3.923945	میرے	-0.01223888
-3.923945	میزائل	-0.01223888
-3.923945	میزبان	-0.01223888
-3.923945	میسر	-0.01223888
-3.622875	میل	-0.01223888
-3.923945	میلسوی	-0.01223888
-3.923945	میلہ	-0.01223888
-3.923945	میلے	-0.01223888
-3.923945	میمن	-0.01223888
-3.923945	میموریل	-0.01223888
-3.923945	مین	-0.01223888
-3.923945	مینجمنٹ	-0.01223888
-3.923945	مینوئل	-0.01223888
-3.923945	مینوفیکچررز	-0.01223888
-3.923945	مینوفیکچرز	-0.01223888
-3.923945	مینگل	-0.01223888
-3.923945	مینیجمنٹ	-0.01223888
-3.923945	میواتی	-0.01223888
-3.923945	میوزک	-0.01223888
-3.923945	میٹھا	-0.01223888
-3.923945	میٹھی	-0.01223888
-3.923945	میٹھے	-0.01223888
-3.622875	میچ	-0.01223888
-3.923945	میچور	-0.01223888
-3.923945	میڈیا	-0.01223888
-3.923945	میڈیسن	-0.01223888
-3.923945	میڈیکل	-0.01223888
-3.923945	میگاواٹ	-0.01223888
-3.923945	میگزین	-0.01223888
-1.451109	میں	-0.0355623
-3.923945	مے	-0.01223888
-3.622875	نئی	-0.01223888
-3.923945	نئے	-0.01223888
-3.622875	نا	-0.01223888
-3.923945	ناآشنا	-0.01223888
-3.923945	نائب	-0.01223888
-3.923945	نائیٹروجنی	-0.01223888
-3.923945	ناامیدی	-0.01223888
-3.923945	نااہلیت	-0.01223888
-3.923945	نابغہ	-0.01223888
-3.923945	ناجائز	-0.01223888
-3.923945	ناخواندگی	-0.01223888
-3.923945	نادر	-0.01223888
-3.923945	نارتھ	-0.01223888
-3.923945	نازاں	-0.01223888
-3.923945	ناشتہ	-0.01223888
-3.622875	ناظم	-0.01223888
-3.923945	ناغہ	-0.01223888
-3.923945	نافذالعمل	-0.01223888
-3.923945	ناقابل	-0.01223888
-3.923945	ناقص	-0.01223888
-3.923945	نام	-0.01223888
-3.923945	نامزد	-0.01223888
-3.923945	نامور	-0.01223888
-3.923945	نامی	-0.01223888
-3.923945	نانگا	-0.01223888
-3.923945	ناول	-0.01223888
-3.923945	ناچنے	-0.01223888
-3.923945	ناکام	-0.01223888
-3.923945	ناں	-0.01223888
-3.923945	نبوی	-0.01223888
-3.923945	نبویہ	-0.01223888
-3.923945	نبھائیں	-0.01223888
-3.923945	نبی	-0.01223888
-3.923945	نتائج	-0.01223888
-3.923945	نتھنوں	-0.01223888
-3.923945	نتھی	-0.01223888
-3.923945	نتیجے	-0.01223888
-3.923945	نجات	-0.01223888
-3.923945	نجی	-0.01223888
-3.923945	نحوست	-0.01223888
-3.923945	نحیف	-0.01223888
-3.923945	نخوت	-0.01223888
-3.923945	ندا	-0.01223888
-3.923945	ندرت	-0.01223888
-3.923945	ندوی	-0.01223888
-3.923945	نذر	-0.01223888
-3.923945	نرخنامے	-0.01223888
-3.923945	نرخوں	-0.01223888
-3.923945	نرسیں	-0.01223888
-3.923945	نرغے	-0.01223888
-3.923945	نرگس	-0.01223888
-3.923945	نزدیک	-0.01223888
-3.923945	نزلے	-0.01223888
-3.923945	نسخہ	-0.01223888
-3.923945	نسخے	-0.01223888
-3.923945	نسرین	-0.01223888
-3.923945	نسیں	-0.01223888
-3.923945	نشئی	-0.01223888
-3.923945	نشاستہ	-0.01223888
-3.923945	نشاندہی	-0.01223888
-3.923945	نشانہ	-0.01223888
-3.923945	نشر	-0.01223888
-3.923945	نشرواشاعت	-0.01223888
-3.923945	نشست	-0.01223888
-3.923945	نشوونما	-0.01223888
-3.923945	نشیب	-0.01223888
-3.923945	نصب	-0.01223888
-3.923945	نصف	-0.01223888
-3.923945	نصیب	-0.01223888
-3.923945	نصیحت	-0.01223888
-3.923945	نظام	-0.01223888
-3.622875	نظر	-0.01223888
-3.923945	نظرثانی	-0.01223888
-3.923945	نظروں	-0.01223888
-3.923945	نظریے	-0.01223888
-3.923945	نظم	-0.01223888
-3.923945	نعمت	-0.01223888
-3.923945	نعمتوں	-0.01223888
-3.923945	نعوذ	-0.01223888
-3.923945	نعیم	-0.01223888
-3.923945	نغمہ	-0.01223888
-3.923945	نفسیاتی	-0.01223888
-3.923945	نفوذ	-0.01223888
-3.923945	نقاب	-0.01223888
-3.923945	نقاش	-0.01223888
-3.923945	نقرس	-0.01223888
-3.923945	نقش	-0.01223888
-3.923945	نقشبندی	-0.01223888
-3.923945	نقشوں	-0.01223888
-3.923945	نقشہ	-0.01223888
-3.923945	نقشے	-0.01223888
-3.923945	نقصان	-0.01223888
-3.923945	نقوش	-0.01223888
-3.923945	نقوی	-0.01223888
-3.923945	نل	-0.01223888
-3.622875	نما	-0.01223888
-3.923945	نمائندہ	-0.01223888
-3.923945	نماز	-0.01223888
-3.923945	نمایاں	-0.01223888
-3.923945	نمبر	-0.01223888
-3.923945	نمف	-0.01223888
-3.923945	نمو	-0.01223888
-3.923945	نمودار	-0.01223888
-3.923945	نمٹیں	-0.01223888
-3.923945	نمک	-0.01223888
-3.923945	ننانوے	-0.01223888
-3.923945	ننگے	-0.01223888
-3.923945	ننھا	-0.01223888
-3.923945	ننھی	-0.01223888
-3.923945	ننھیال	-0.01223888
-3.923945	ننھے	-0.01223888
-3.622875	نو	-0.01223888
-3.923945	نوآبادیاتی	-0.01223888
-3.923945	نواب	-0.01223888
