
\data\
ngram 1=5694
ngram 2=9881
ngram 3=67
ngram 4=11

\1-grams:
-1.664387	</s>
-4.047337	<oov>
-99	<s>	-0.0195042
-3.149713	آ	-0.07965051
-3.517702	آؤ	-0.01270373
-3.994869	آؤٹ	-0.01270373
-3.994869	آؤں	-0.01270373
-3.517702	آئی	-0.489825
-3.994869	آئیز	-0.01270373
-3.994869	آئین	-0.01270373
-3.994869	آئیندہ	-0.01270373
-3.994869	آئیوڈین	-0.01270373
-3.994869	آئیں	-0.01270373
-3.994869	آئیے	-0.01270373
-3.392758	آئے	-0.1376425
-3.994869	آباد	-0.01270373
-3.994869	آباواجداد	-0.01270373
-3.994869	آبدوزیں	-0.01270373
-3.994869	آبرو	-0.01270373
-3.994869	آبشار	-0.01270373
-3.994869	آبیانہ	-0.01270373
-3.693805	آتا	-0.3137337
-3.994869	آتشبازی	-0.01270373
-3.994869	آتشزدگی	-0.01270373
-3.994869	آتشیں	-0.01270373
-3.693805	آتی	-0.01270373
-3.994869	آج	-0.01270373
-3.994869	آخرالزمان	-0.01270373
-3.693805	آخری	-0.01270373
-3.994869	آدمی	-0.01270373
-3.994869	آدھ	-0.01270373
-3.994869	آدھا	-0.01270373
-3.994869	آدھی	-0.01270373
-3.994869	آدھے	-0.01270373
-3.994869	آر	-0.01270373
-3.994869	آرتھو	-0.01270373
-3.994869	آرتھوپیڈک	-0.01270373
-3.994869	آرزو	-0.01270373
-3.994869	آرزوئیں	-0.01270373
-3.994869	آرٹلری	-0.01270373
-3.994869	آرڈیننس	-0.01270373
-3.994869	آرکائیوز	-0.01270373
-3.994869	آرگنائزنگ	-0.01270373
-3.994869	آرگنائزیشن	-0.01270373
-3.994869	آزاد	-0.01270373
-3.994869	آزادی	-0.01270373
-3.994869	آزمائیں	-0.01270373
-3.693805	آسان	-0.01270373
-3.994869	آسرا	-0.01270373
-3.994869	آسمان	-0.01270373
-3.994869	آسٹریلوی	-0.01270373
-3.994869	آسیہ	-0.01270373
-3.994869	آشرم	-0.01270373
-3.994869	آشنا	-0.01270373
-3.994869	آشوب	-0.01270373
-3.994869	آشیانہ	-0.01270373
-3.994869	آشیرباد	-0.01270373
-3.994869	آغا	-0.01270373
-3.994869	آغاز	-0.01270373
-3.994869	آغوش	-0.01270373
-3.994869	آف	-0.01270373
-3.994869	آفریدی	-0.01270373
-3.994869	آفرین	-0.01270373
-3.994869	آفس	-0.01270373
-3.994869	آفیشلز	-0.01270373
-3.994869	آقا	-0.01270373
-3.994869	آقاؤں	-0.01270373
-3.994869	آلود	-0.01270373
-3.994869	آلودگی	-0.01270373
-3.994869	آلوچہ	-0.01270373
-3.994869	آماجگاہ	-0.01270373
-3.994869	آمدنی	-0.01270373
-3.994869	آمدورفت	-0.01270373
-3.994869	آمیزش	-0.01270373
-3.994869	آمیزے	-0.01270373
-3.994869	آن	-0.01270373
-3.994869	آندھیاں	-0.01270373
-3.994869	آنسو	-0.01270373
-3.994869	آنسوؤں	-0.01270373
-3.517702	آنکھ	-0.01270373
-3.994869	آنکھو	-0.01270373
-3.994869	آنکھوں	-0.01270373
-3.392758	آنکھیں	-0.01270373
-3.994869	آنگن	-0.01270373
-3.693805	آنے	-0.01270373
-3.693805	آواز	-0.01270373
-3.994869	آوازیں	-0.01270373
-3.994869	آویزاں	-0.01270373
-3.517702	آٹھ	-0.01270373
-3.994869	آٹھواں	-0.01270373
-3.994869	آٹھوں	-0.01270373
-3.994869	آٹھویں	-0.01270373
-3.091719	آپ	-0.05846122
-3.994869	آپریشن	-0.01270373
-3.994869	آڑ	-0.01270373
-3.994869	آڑو	-0.01270373
-3.994869	آڑھا	-0.01270373
-3.994869	آڑھتی	-0.01270373
-3.994869	آڑے	-0.01270373
-3.693805	آکر	-0.01270373
-3.994869	آکسیجن	-0.01270373
-3.994869	آگ	-0.01270373
-3.994869	آگاہی	-0.01270373
-3.693805	آگے	-0.01270373
-3.693805	آہستہ	-0.01270373
-3.994869	آیئں	-0.01270373
-3.216661	آیا	-0.790855
-3.994869	آیوڈین	-0.01270373
-3.994869	اؤٹ	-0.01270373
-3.517702	اب	-0.01270373
-3.994869	ابتدائی	-0.01270373
-3.994869	ابجد	-0.01270373
-3.994869	ابرار	-0.01270373
-3.994869	ابزرور	-0.01270373
-3.994869	ابصار	-0.01270373
-3.994869	ابلاغ	-0.01270373
-3.994869	ابو	-0.01270373
-3.994869	ابواب	-0.01270373
-3.693805	ابڑو	-0.01270373
-3.994869	ابھار	-0.01270373
-3.994869	ابھر	-0.01270373
-3.994869	ابھرا	-0.01270373
-3.994869	ابھری	-0.01270373
-3.994869	ابھریں	-0.01270373
-3.994869	ابھرے	-0.01270373
-3.994869	اتحاد	-0.01270373
-3.994869	اتفاق	-0.01270373
-3.994869	اتھارٹی	-0.01270373
-3.994869	اتھل	-0.01270373
-3.994869	اتھلیٹس	-0.01270373
-3.994869	اتھلیٹکس	-0.01270373
-3.994869	اثاثوں	-0.01270373
-3.693805	اثر	-0.01270373
-3.994869	اثرورسوخ	-0.01270373
-3.994869	اثنا	-0.01270373
-3.994869	اجازت	-0.01270373
-3.693805	اجاڑ	-0.01270373
-3.994869	اجاگر	-0.01270373
-3.994869	اجتماعات	-0.01270373
-3.994869	اجتماعی	-0.01270373
-3.994869	اجر	-0.01270373
-3.994869	اجرا	-0.01270373
-3.994869	اجرت	-0.01270373
-3.994869	اجزا	-0.01270373
-3.994869	اجسام	-0.01270373
-3.994869	اجلاس	-0.01270373
-3.994869	اجناس	-0.01270373
-3.994869	اجنبیوں	-0.01270373
-3.994869	اجڑی	-0.01270373
-3.994869	اجڑے	-0.01270373
-3.994869	احتجاج	-0.01270373
-3.994869	احترام	-0.01270373
-3.994869	احساس	-0.01270373
-3.994869	احساں	-0.01270373
-3.994869	احسن	-0.01270373
-3.994869	احمد	-0.01270373
-3.994869	احوال	-0.01270373
-3.994869	احیا	-0.01270373
-3.994869	اخبار	-0.01270373
-3.994869	اخبارنویسوں	-0.01270373
-3.994869	اختر	-0.01270373
-3.693805	اختیار	-0.3137337
-3.994869	اخراج	-0.01270373
-3.994869	اخراجات	-0.01270373
-3.994869	اخروٹ	-0.01270373
-3.994869	اخلاقی	-0.01270373
-3.994869	اخوان	-0.01270373
-3.994869	اخوندزادہ	-0.01270373
-3.994869	اخوّت	-0.01270373
-3.994869	ادائیگی	-0.01270373
-3.994869	ادائیگیوں	-0.01270373
-3.994869	اداروں	-0.01270373
-3.994869	ادارے	-0.01270373
-3.994869	اداس	-0.01270373
-3.994869	اداکاراؤں	-0.01270373
-3.994869	اداکارائیں	-0.01270373
-3.994869	ادب	-0.01270373
-3.994869	ادغام	-0.01270373
-3.994869	ادویات	-0.01270373
-3.994869	ادھار	-0.01270373
-3.994869	ادھم	-0.01270373
-3.994869	ادھورا	-0.01270373
-3.994869	ادھیڑ	-0.01270373
-3.994869	ادھیڑنے	-0.01270373
-3.994869	ادیبوں	-0.01270373
-3.994869	ارب	-0.01270373
-3.994869	ارتعاش	-0.01270373
-3.994869	ارجمند	-0.01270373
-3.994869	ارزاں	-0.01270373
-3.994869	ارسال	-0.01270373
-3.994869	ارشاد	-0.01270373
-3.994869	ارشد	-0.01270373
-3.994869	ارمغان	-0.01270373
-3.994869	ارکان	-0.01270373
-3.994869	ارینجڈ	-0.01270373
-3.994869	اریگیشن	-0.01270373
-3.994869	از	-0.01270373
-3.994869	ازالہ	-0.01270373
-3.994869	ازاں	-0.01270373
-3.994869	ازبک	-0.01270373
-3.994869	ازخود	-0.01270373
-3.994869	ازدواجی	-0.01270373
-3.994869	ازسرنو	-0.01270373
-2.716051	اس	-0.09985389
-3.994869	اسبغول	-0.01270373
-3.994869	استاد	-0.01270373
-3.994869	استحصالی	-0.01270373
-3.994869	استحقاق	-0.01270373
-3.994869	استعفے	-0.01270373
-3.693805	استعمال	-0.01270373
-3.994869	استغاثہ	-0.01270373
-3.994869	استغراق	-0.01270373
-3.994869	استغفار	-0.01270373
-3.994869	استغنا	-0.01270373
-3.994869	استفادے	-0.01270373
-3.994869	استفسار	-0.01270373
-3.994869	استفہامیہ	-0.01270373
-3.994869	استقلال	-0.01270373
-3.994869	استھان	-0.01270373
-3.994869	اسجد	-0.01270373
-3.994869	اسرائیلی	-0.01270373
-3.994869	اسسٹنٹ	-0.01270373
-3.994869	اسقاط	-0.01270373
-3.994869	اسلامی	-0.01270373
-3.994869	اسلحہ	-0.01270373
-3.994869	اسلم	-0.01270373
-3.994869	اسلوب	-0.01270373
-3.994869	اسمبلی	-0.01270373
-3.994869	اسود	-0.01270373
-3.994869	اسٹورز	-0.01270373
-3.693805	اسکواڈ	-0.01270373
-3.994869	اسہال	-0.01270373
-3.693805	اسی	-0.01270373
-3.216661	اسے	-0.01270373
-3.994869	اشارہ	-0.01270373
-3.994869	اشاعت	-0.01270373
-3.994869	اشتعال	-0.01270373
-3.994869	اشجار	-0.01270373
-3.994869	اشخاص	-0.01270373
-3.994869	اشد	-0.01270373
-3.994869	اشرف	-0.01270373
-3.994869	اشعار	-0.01270373
-3.994869	اشفاق	-0.01270373
-3.994869	اشیا	-0.01270373
-3.994869	اصحاب	-0.01270373
-3.994869	اصغر	-0.01270373
-3.994869	اصل	-0.01270373
-3.994869	اصلاحات	-0.01270373
-3.994869	اضافہ	-0.01270373
-3.994869	اضافے	-0.01270373
-3.994869	اضلاع	-0.01270373
-3.994869	اطالوی	-0.01270373
-3.693805	اطلاعات	-0.01270373
-3.994869	اظہار	-0.01270373
-3.994869	اعادہ	-0.01270373
-3.994869	اعانت	-0.01270373
-3.994869	اعتبار	-0.01270373
-3.994869	اعتراف	-0.01270373
-3.994869	اعتماد	-0.01270373
-3.994869	اعدادوشمار	-0.01270373
-3.994869	اعزاز	-0.01270373
-3.994869	اعزہ	-0.01270373
-3.693805	اعظم	-0.01270373
-3.994869	اعلامیے	-0.01270373
-3.994869	اعلان	-0.01270373
-3.994869	اغراض	-0.01270373
-3.994869	اغوا	-0.01270373
-3.994869	اغیار	-0.01270373
-3.994869	افادہ	-0.01270373
-3.994869	افتادہ	-0.01270373
-3.994869	افراد	-0.01270373
-3.994869	افراط	-0.01270373
-3.994869	افزائش	-0.01270373
-3.994869	افزودگی	-0.01270373
-3.994869	افسانے	-0.01270373
-3.994869	افسران	-0.01270373
-3.994869	افسردہ	-0.01270373
-3.994869	افسوس	-0.01270373
-3.994869	افسوسناک	-0.01270373
-3.994869	افشا	-0.01270373
-3.994869	افضل	-0.01270373
-3.994869	افغان	-0.01270373
-3.994869	افق	-0.01270373
-3.994869	افلاس	-0.01270373
-3.994869	افواج	-0.01270373
-3.994869	افورڈ	-0.01270373
-3.994869	افکار	-0.01270373
-3.994869	افگن	-0.01270373
-3.994869	افیم	-0.01270373
-3.994869	افیون	-0.01270373
-3.994869	افیکٹ	-0.01270373
-3.994869	اقبال	-0.01270373
-3.994869	اقتصادی	-0.01270373
-3.994869	اقدامات	-0.01270373
-3.994869	اقرار	-0.01270373
-3.994869	اقربا	-0.01270373
-3.994869	اقلیتوں	-0.01270373
-3.994869	اقوام	-0.01270373
-3.994869	الاؤنس	-0.01270373
-3.994869	البتہ	-0.01270373
-3.693805	الجھ	-0.01270373
-3.994869	الجھا	-0.01270373
-3.994869	الجھاؤ	-0.01270373
-3.994869	الجھن	-0.01270373
-3.994869	الجھی	-0.01270373
-3.994869	الجھیں	-0.01270373
-3.994869	الجھے	-0.01270373
-3.994869	الحاج	-0.01270373
-3.994869	الحاق	-0.01270373
-3.994869	الزام	-0.01270373
-3.994869	السی	-0.01270373
-3.994869	الفاظ	-0.01270373
-3.994869	الفت	-0.01270373
-3.693805	اللہ	-0.01270373
-3.994869	المیوں	-0.01270373
-3.994869	الوداع	-0.01270373
-3.994869	الہیات	-0.01270373
-3.994869	الیون	-0.01270373
-3.994869	الیکشن	-0.01270373
-3.994869	الیکڑانکس	-0.01270373
-3.994869	امجد	-0.01270373
-3.994869	امداد	-0.01270373
-3.994869	امراض	-0.01270373
-3.994869	امرتا	-0.01270373
-3.994869	امرتسری	-0.01270373
-3.994869	امرود	-0.01270373
-3.994869	امروہی	-0.01270373
-3.994869	امریکی	-0.01270373
-3.994869	امن	-0.01270373
-3.994869	امور	-0.01270373
-3.994869	امپائر	-0.01270373
-3.994869	امیج	-0.01270373
-3.994869	امیدوار	-0.01270373
-3.994869	امیگریشن	-0.01270373
-3.295844	ان	-0.01270373
-3.994869	انار	-0.01270373
-3.994869	اناسیواں	-0.01270373
-3.994869	اناڑی	-0.01270373
-3.994869	انتخابات	-0.01270373
-3.994869	انتقال	-0.01270373
-3.994869	انتھک	-0.01270373
-3.994869	انتہاؤں	-0.01270373
-3.994869	انتہائی	-0.01270373
-3.994869	انجام	-0.01270373
-3.994869	انجری	-0.01270373
-3.994869	انجمن	-0.01270373
-3.994869	انجنیئر	-0.01270373
-3.994869	انجکشن	-0.01270373
-3.994869	انحصار	-0.01270373
-3.994869	انحطاط	-0.01270373
-3.994869	انخلا	-0.01270373
-3.517702	انداز	-0.01270373
-3.994869	اندھادھند	-0.01270373
-3.994869	اندھیروں	-0.01270373
-3.693805	اندھیرے	-0.01270373
-3.994869	اندھے	-0.01270373
-3.693805	انسان	-0.01270373
-3.994869	انسانیت	-0.01270373
-3.994869	انستھیزیا	-0.01270373
-3.994869	انسولیشن	-0.01270373
-3.994869	انسولین	-0.01270373
-3.994869	انسٹھویں	-0.01270373
-3.994869	انسیکٹی	-0.01270373
-3.994869	انشائیہ	-0.01270373
-3.994869	انشااللہ	-0.01270373
-3.994869	انشورنس	-0.01270373
-3.994869	انضباطی	-0.01270373
-3.994869	انضمام	-0.01270373
-3.994869	انظباتی	-0.01270373
-3.994869	انعقاد	-0.01270373
-3.994869	انفارمیشن	-0.01270373
-3.994869	انفرادی	-0.01270373
-3.994869	انفلوئنزا	-0.01270373
-3.994869	انفورسمنٹ	-0.01270373
-3.994869	انفیکشن	-0.01270373
-3.994869	انقلاب	-0.01270373
-3.994869	اننگز	-0.01270373
-3.994869	انوالومنٹ	-0.01270373
-3.994869	انور	-0.01270373
-3.994869	انوسٹمنٹ	-0.01270373
-3.994869	انوکھی	-0.01270373
-3.693805	انوکھے	-0.01270373
-3.994869	انٹر	-0.01270373
-3.994869	انٹرفیس	-0.01270373
-3.994869	انٹرمیڈیٹ	-0.01270373
-3.994869	انٹلیکچوئل	-0.01270373
-3.994869	انٹیلجنس	-0.01270373
-3.994869	انٹیلیجینس	-0.01270373
-3.994869	انڈسٹری	-0.01270373
-3.994869	انکشاف	-0.01270373
-3.994869	انکلوژر	-0.01270373
-3.994869	انگریزوں	-0.01270373
-3.994869	انگریزی	-0.01270373
-3.994869	انگشت	-0.01270373
-3.994869	انگلش	-0.01270373
-3.994869	انگلی	-0.01270373
-3.994869	انگور	-0.01270373
-3.994869	انگوٹھا	-0.01270373
-3.994869	انگوٹھی	-0.01270373
-3.994869	انگوٹھیاں	-0.01270373
-3.994869	انگوٹھے	-0.01270373
-3.994869	انگیخت	-0.01270373
-3.994869	انہونی	-0.01270373
-3.994869	انہوں	-0.01270373
-3.994869	انہی	-0.01270373
-3.693805	انہیں	-0.01270373
-3.994869	انیس	-0.01270373
-3.994869	انیق	-0.01270373
-3.994869	اوئے	-0.01270373
-3.994869	اواخر	-0.01270373
-3.994869	اوباش	-0.01270373
-3.994869	اوج	-0.01270373
-3.994869	اوجھل	-0.01270373
-3.994869	اوجھڑی	-0.01270373
-3.994869	اودھم	-0.01270373
-1.489651	اور	-0.01795207
-3.994869	اورنگ	-0.01270373
-3.994869	اوزار	-0.01270373
-3.994869	اوس	-0.01270373
-3.994869	اوسط	-0.01270373
-3.994869	اوصاف	-0.01270373
-3.693805	اوقات	-0.01270373
-3.994869	اول	-0.01270373
-3.994869	اولاد	-0.01270373
-3.994869	اولولعزم	-0.01270373
-3.994869	اولڈ	-0.01270373
-3.994869	اولی	-0.01270373
-3.994869	اولین	-0.01270373
-3.994869	اومیگا	-0.01270373
-3.994869	اونس	-0.01270373
-3.994869	اونچی	-0.01270373
-3.994869	اونی	-0.01270373
-3.994869	اونے	-0.01270373
-3.994869	اوور	-0.01270373
-3.994869	اوورلوڈنگ	-0.01270373
-3.994869	اوورہیڈ	-0.01270373
-3.994869	اوپر	-0.01270373
-3.994869	اوچھے	-0.01270373
-3.994869	اوڈ	-0.01270373
-3.994869	اوڈھو	-0.01270373
-3.994869	اوڑھ	-0.01270373
-3.994869	اوڑھا	-0.01270373
-3.994869	اوڑھنا	-0.01270373
-3.994869	اوڑھے	-0.01270373
-3.994869	اوکاڑوی	-0.01270373
-3.994869	اوکھا	-0.01270373
-3.994869	اوہام	-0.01270373
-3.994869	اوہو	-0.01270373
-3.994869	اویئرنس	-0.01270373
-3.994869	اویسی	-0.01270373
-3.994869	اُدھر	-0.01270373
-3.994869	اُمید	-0.01270373
-3.994869	اُٹھا	-0.01270373
-3.994869	اُٹھاؤں	-0.01270373
-3.994869	اُٹھانے	-0.01270373
-3.994869	اُٹھایا	-0.01270373
-3.994869	اُٹھو	-0.01270373
-3.994869	اٹھ	-0.01270373
-3.693805	اٹھا	-0.01270373
-3.994869	اٹھاؤ	-0.01270373
-3.994869	اٹھائیس	-0.01270373
-3.994869	اٹھائیں	-0.01270373
-3.693805	اٹھائے	-0.01270373
-3.994869	اٹھارہ	-0.01270373
-3.994869	اٹھاسی	-0.01270373
-3.994869	اٹھاون	-0.01270373
-3.994869	اٹھایا	-0.01270373
-3.994869	اٹھتر	-0.01270373
-3.994869	اٹھنے	-0.01270373
-3.994869	اٹھوا	-0.01270373
-3.693805	اٹھی	-0.01270373
-3.994869	اٹھیں	-0.01270373
-3.994869	اٹھے	-0.01270373
-3.994869	اپروچ	-0.01270373
-3.517702	اپنا	-0.01270373
-3.994869	اپنائیں	-0.01270373
-3.149713	اپنی	-0.01270373
-2.994808	اپنے	-0.01270373
-3.994869	اپوزیشن	-0.01270373
-3.994869	اپھارہ	-0.01270373
-3.994869	اپیلیں	-0.01270373
-3.693805	اچانک	-0.01270373
-3.994869	اچاٹ	-0.01270373
-3.994869	اچنبھے	-0.01270373
-3.994869	اچک	-0.01270373
-3.994869	اچھا	-0.01270373
-3.994869	اچھائی	-0.01270373
-3.994869	اچھال	-0.01270373
-3.994869	اچھل	-0.01270373
-3.994869	اچھلی	-0.01270373
-3.994869	اچھی	-0.01270373
-3.517702	اچھے	-0.01270373
-3.994869	اچیومنٹ	-0.01270373
-3.994869	اڈوں	-0.01270373
-3.994869	اڈے	-0.01270373
-3.994869	اڑا	-0.01270373
-3.693805	اڑائیں	-0.01270373
-3.994869	اڑائے	-0.01270373
-3.693805	اڑانے	-0.01270373
-3.994869	اڑایا	-0.01270373
-3.994869	اڑتالیس	-0.01270373
-3.994869	اڑسٹھ	-0.01270373
-3.994869	اڑنے	-0.01270373
-3.994869	اڑوں	-0.01270373
-3.994869	اڑھائی	-0.01270373
-3.994869	اڑیں	-0.01270373
-3.994869	اژدھا	-0.01270373
-3.994869	اژدھام	-0.01270373
-3.994869	اکثریت	-0.01270373
-3.994869	اکرم	-0.01270373
-3.994869	اکٹھی	-0.01270373
-3.994869	اکھاڑ	-0.01270373
-3.994869	اکھنڈ	-0.01270373
-3.994869	اکھڑ	-0.01270373
-3.994869	اکھڑنا	-0.01270373
-3.994869	اکیسویں	-0.01270373
-3.994869	اگائے	-0.01270373
-3.517702	اگر	-0.01270373
-3.994869	اگرچہ	-0.01270373
-3.994869	اگلا	-0.01270373
-3.994869	اگلی	-0.01270373
-3.994869	اگلے	-0.01270373
-3.994869	اگنے	-0.01270373
-3.392758	اہل	-0.01270373
-3.994869	اہلخانہ	-0.01270373
-3.994869	اہلسنت	-0.01270373
-3.994869	اہلکار	-0.01270373
-3.994869	اہلیہ	-0.01270373
-3.994869	اہم	-0.01270373
-3.693805	ای	-0.01270373
-3.517702	ایئر	-0.01270373
-3.994869	ایام	-0.01270373
-3.994869	ایتھرنیٹ	-0.01270373
-3.994869	ایتھلیٹ	-0.01270373
-3.994869	ایثار	-0.01270373
-3.994869	ایجاد	-0.01270373
-3.693805	ایجنسی	-0.01270373
-3.994869	ایجنسیز	-0.01270373
-3.994869	ایجنسیوں	-0.01270373
-3.994869	ایجوکیشن	-0.01270373
-3.994869	ایرانی	-0.01270373
-3.994869	ایرو	-0.01270373
-3.994869	ایری	-0.01270373
-3.994869	ایریا	-0.01270373
-3.994869	ایز	-0.01270373
-3.994869	ایس	-0.01270373
-3.994869	ایسا	-0.01270373
-3.994869	ایسڈ	-0.01270373
-3.693805	ایسی	-0.01270373
-3.994869	ایسے	-0.01270373
-3.994869	ایشز	-0.01270373
-3.994869	ایشو	-0.01270373
-3.994869	ایشوز	-0.01270373
-3.994869	ایشیائی	-0.01270373
-3.994869	ایشیائیوں	-0.01270373
-3.994869	ایضا	-0.01270373
-3.994869	ایف	-0.01270373
-3.994869	ایفا	-0.01270373
-3.994869	ایفروایشین	-0.01270373
-3.994869	ایفکٹ	-0.01270373
-3.693805	ایقان	-0.01270373
-3.994869	ایل	-0.01270373
-3.994869	ایلوویرا	-0.01270373
-3.994869	ایلویٹ	-0.01270373
-3.994869	ایلچی	-0.01270373
-3.994869	ایلیمنٹری	-0.01270373
-3.994869	ایلیٹ	-0.01270373
-3.693805	ایم	-0.01270373
-3.994869	ایمبولینس	-0.01270373
-3.994869	ایمبیسی	-0.01270373
-3.994869	ایمرجنسی	-0.01270373
-3.994869	این	-0.01270373
-3.994869	ایندھن	-0.01270373
-3.994869	اینٹھن	-0.01270373
-3.994869	اینڈ	-0.01270373
-3.994869	اینگرو	-0.01270373
-3.994869	اینگزائٹی	-0.01270373
-3.994869	اینگلو	-0.01270373
-3.994869	ایوارڈ	-0.01270373
-3.994869	ایوان	-0.01270373
-3.994869	ایوبی	-0.01270373
-3.994869	ایوننگ	-0.01270373
-3.994869	ایونٹ	-0.01270373
-3.994869	ایونیو	-0.01270373
-3.994869	ایچ	-0.01270373
-3.994869	ایڈجسٹ	-0.01270373
-3.994869	ایڈریس	-0.01270373
-3.994869	ایڈز	-0.01270373
-3.994869	ایڈن	-0.01270373
-3.994869	ایڈوائزری	-0.01270373
-3.994869	ایڈوانسڈ	-0.01270373
-3.994869	ایڈورٹائزنگ	-0.01270373
-3.994869	ایڈونچر	-0.01270373
-3.994869	ایڈووکیٹ	-0.01270373
-3.994869	ایڈڈ	-0.01270373
-3.994869	ایڈہاک	-0.01270373
-3.994869	ایڈیشنل	-0.01270373
-3.994869	ایڑی	-0.01270373
-2.596864	ایک	-0.01270373
-3.994869	ایکسچینج	-0.01270373
-3.994869	ایکسیئن	-0.01270373
-3.994869	ایکسیڈنٹ	-0.01270373
-3.994869	ایکویٹی	-0.01270373
-3.994869	ایگزامینر	-0.01270373
-3.994869	ایگزٹ	-0.01270373
-3.994869	ایگزیکٹو	-0.01270373
-3.994869	ایگلز	-0.01270373
-3.994869	ایں	-0.01270373
-3.994869	ایہام	-0.01270373
-3.994869	اے	-0.01270373
-3.994869	بآسانی	-0.01270373
-3.994869	با	-0.01270373
-3.994869	باآسانی	-0.01270373
-3.994869	باؤلر	-0.01270373
-3.994869	باؤنڈری	-0.01270373
-3.994869	بائیس	-0.01270373
-3.994869	بائیوس	-0.01270373
-3.994869	بائیولوجیکل	-0.01270373
-3.994869	بائیں	-0.01270373
-3.994869	بااثر	-0.01270373
-3.994869	باادب	-0.01270373
-3.994869	بااصول	-0.01270373
-3.994869	بااللہ	-0.01270373
-3.994869	باب	-0.01270373
-3.693805	بات	-0.3137337
-3.994869	باتھو	-0.01270373
-3.994869	باجرہ	-0.01270373
-3.994869	باجوہ	-0.01270373
-3.994869	باخبر	-0.01270373
-3.994869	باد	-0.01270373
-3.994869	بادشاہ	-0.01270373
-3.994869	باذوق	-0.01270373
-3.994869	بار	-0.01270373
-3.994869	باران	-0.01270373
-3.994869	بارش	-0.01270373
-3.994869	بارونق	-0.01270373
-3.994869	بارہواں	-0.01270373
-3.994869	باریش	-0.01270373
-3.994869	بارے	-0.01270373
-3.994869	بازو	-0.01270373
-3.994869	بازوؤں	-0.01270373
-3.994869	بازیاب	-0.01270373
-3.994869	بازیچہ	-0.01270373
-3.994869	باشعور	-0.01270373
-3.994869	باشندوں	-0.01270373
-3.693805	باعث	-0.01270373
-3.994869	باغ	-0.01270373
-3.994869	باغبانی	-0.01270373
-3.994869	باغوں	-0.01270373
-3.994869	باغیانہ	-0.01270373
-3.994869	باغیوں	-0.01270373
-3.994869	باغیچہ	-0.01270373
-3.994869	بافتوں	-0.01270373
-3.994869	باقر	-0.01270373
-3.693805	باقی	-0.01270373
-3.994869	بالاخر	-0.01270373
-3.994869	بالخصوص	-0.01270373
-3.994869	بالغ	-0.01270373
-3.994869	بالغان	-0.01270373
-3.994869	بالغوں	-0.01270373
-3.994869	بالواسطہ	-0.01270373
-3.994869	بالکل	-0.01270373
-3.994869	بام	-0.01270373
-3.994869	بانجھ	-0.01270373
-3.994869	باندھ	-0.01270373
-3.994869	باندھنے	-0.01270373
-3.994869	باندھیں	-0.01270373
-3.994869	بانسری	-0.01270373
-3.994869	بانو	-0.01270373
-3.994869	بانگ	-0.01270373
-3.994869	بانہیں	-0.01270373
-3.693805	باوجود	-0.01270373
-3.994869	باورچی	-0.01270373
-3.994869	باولنگ	-0.01270373
-3.994869	باچھ	-0.01270373
-3.994869	باڈی	-0.01270373
-3.994869	باڑھ	-0.01270373
-3.994869	باڑہ	-0.01270373
-3.994869	باگ	-0.01270373
-3.693805	باہر	-0.01270373
-3.994869	بتاؤں	-0.01270373
-3.693805	بتایا	-0.01270373
-3.994869	بتدریج	-0.01270373
-3.994869	بجاآوری	-0.01270373
-3.994869	بجائیں	-0.01270373
-3.994869	بجائے	-0.01270373
-3.994869	بجز	-0.01270373
-3.994869	بجلی	-0.01270373
-3.994869	بجنوری	-0.01270373
-3.994869	بجٹ	-0.01270373
-3.994869	بجھائی	-0.01270373
-3.994869	بجھانے	-0.01270373
-3.994869	بجھنے	-0.01270373
-3.994869	بجھوا	-0.01270373
-3.994869	بجھی	-0.01270373
-3.994869	بجیں	-0.01270373
-3.994869	بجے	-0.01270373
-3.994869	بحث	-0.01270373
-3.994869	بحثتا	-0.01270373
-3.994869	بحثوں	-0.01270373
-3.693805	بحثیں	-0.01270373
-3.994869	بحران	-0.01270373
-3.994869	بحرانی	-0.01270373
-3.994869	بحیثیت	-0.01270373
-3.994869	بحیرہ	-0.01270373
-3.994869	بخاری	-0.01270373
-3.994869	بخدمت	-0.01270373
-3.994869	بخش	-0.01270373
-3.994869	بخشش	-0.01270373
-3.994869	بخشو	-0.01270373
-3.994869	بخشی	-0.01270373
-3.994869	بخشیں	-0.01270373
-3.693805	بخشے	-0.01270373
-3.994869	بخوبی	-0.01270373
-3.994869	بخود	-0.01270373
-3.994869	بخیر	-0.01270373
-3.693805	بد	-0.01270373
-3.994869	بدائع	-0.01270373
-3.994869	بداخلاقی	-0.01270373
-3.994869	بدحالی	-0.01270373
-3.994869	بدروح	-0.01270373
-3.994869	بدسلوکی	-0.01270373
-3.994869	بدشگونی	-0.01270373
-3.994869	بدصورت	-0.01270373
-3.994869	بدظن	-0.01270373
-3.994869	بدقسمتی	-0.01270373
-3.693805	بدل	-0.01270373
-3.994869	بدلو	-0.01270373
-3.994869	بدلیں	-0.01270373
-3.994869	بدلے	-0.01270373
-3.994869	بدمزگی	-0.01270373
-3.994869	بدچلنی	-0.01270373
-3.693805	بدھ	-0.01270373
-3.994869	بدھا	-0.01270373
-3.994869	بدہضمی	-0.01270373
-3.994869	براؤزر	-0.01270373
-3.693805	برابر	-0.01270373
-3.994869	براعظم	-0.01270373
-3.994869	براوو	-0.01270373
-3.994869	براڈ	-0.01270373
-3.994869	براں	-0.01270373
-3.994869	براہمن	-0.01270373
-3.994869	برتن	-0.01270373
-3.994869	برج	-0.01270373
-3.994869	برخلاف	-0.01270373
-3.994869	بردار	-0.01270373
-3.994869	برداشت	-0.01270373
-3.994869	برس	-0.01270373
-3.994869	برساتا	-0.01270373
-3.994869	برسراقتدار	-0.01270373
-3.994869	برسنے	-0.01270373
-3.994869	برسوں	-0.01270373
-3.994869	برش	-0.01270373
-3.994869	برطانوی	-0.01270373
-3.994869	برطرفی	-0.01270373
-3.994869	برعظیم	-0.01270373
-3.994869	برعکس	-0.01270373
-3.994869	برفباری	-0.01270373
-3.994869	برقرار	-0.01270373
-3.994869	بروری	-0.01270373
-3.693805	بروز	-0.01270373
-3.994869	بروکلی	-0.01270373
-3.994869	بروے	-0.01270373
-3.693805	برڈ	-0.01270373
-3.994869	برہان	-0.01270373
-3.994869	بری	-0.01270373
-3.994869	بریتھلائزر	-0.01270373
-3.994869	بریفنگ	-0.01270373
-3.994869	بریگیڈیر	-0.01270373
-3.994869	بزدل	-0.01270373
-3.994869	بزرگ	-0.01270373
-3.994869	بزرگوار	-0.01270373
-3.994869	بزنس	-0.01270373
-3.994869	بزور	-0.01270373
-3.994869	بس	-0.01270373
-3.994869	بسا	-0.01270373
-3.994869	بسائیں	-0.01270373
-3.994869	بستر	-0.01270373
-3.994869	بسر	-0.01270373
-3.994869	بسوں	-0.01270373
-3.994869	بسیار	-0.01270373
-3.994869	بسیں	-0.01270373
-3.994869	بش	-0.01270373
-3.994869	بشاش	-0.01270373
-3.994869	بشمول	-0.01270373
-3.994869	بشیر	-0.01270373
-3.994869	بطخوں	-0.01270373
-3.994869	بظاہر	-0.01270373
-3.392758	بعد	-0.01270373
-3.693805	بعدازاں	-0.01270373
-3.994869	بعض	-0.01270373
-3.994869	بعنوان	-0.01270373
-3.994869	بعینہ	-0.01270373
-3.693805	بغاوت	-0.01270373
-3.994869	بغدادی	-0.01270373
-3.994869	بغض	-0.01270373
-3.994869	بغلگیر	-0.01270373
-3.994869	بغور	-0.01270373
-2.994808	بغیر	-0.01270373
-3.994869	بفرزون	-0.01270373
-3.994869	بقایا	-0.01270373
-3.994869	بقایاجات	-0.01270373
-3.994869	بقعہ	-0.01270373
-3.994869	بقول	-0.01270373
-3.994869	بقیہ	-0.01270373
-3.994869	بل	-0.01270373
-3.517702	بلا	-0.01270373
-3.994869	بلاخوف	-0.01270373
-3.994869	بلاسوچے	-0.01270373
-3.994869	بلبل	-0.01270373
-3.994869	بلدیاتی	-0.01270373
-3.994869	بلغم	-0.01270373
-3.994869	بلند	-0.01270373
-3.994869	بلور	-0.01270373
-3.994869	بلوغت	-0.01270373
-3.994869	بلونگڑے	-0.01270373
-3.994869	بلوچ	-0.01270373
-3.994869	بلوچوں	-0.01270373
-3.994869	بلوچی	-0.01270373
-3.994869	بلوں	-0.01270373
-3.994869	بلڈ	-0.01270373
-3.994869	بلڈنگ	-0.01270373
-3.994869	بلڈوز	-0.01270373
-3.994869	بلڈوزر	-0.01270373
-3.994869	بلڈوزروں	-0.01270373
-3.693805	بلکہ	-0.01270373
-3.994869	بلگرامی	-0.01270373
-3.994869	بلی	-0.01270373
-3.994869	بلین	-0.01270373
-3.994869	بلیچ	-0.01270373
-3.994869	بم	-0.01270373
-3.149713	بن	-0.1588318
-3.149713	بنا	-0.1588318
-3.994869	بناؤں	-0.01270373
-3.693805	بنائی	-0.01270373
-3.994869	بنائیں	-0.01270373
-3.693805	بنائے	-0.01270373
-3.994869	بنانا	-0.01270373
-3.517702	بنانے	-0.489825
-3.517702	بنایا	-0.489825
-3.994869	بند	-0.01270373
-3.994869	بندوق	-0.01270373
-3.994869	بنفشی	-0.01270373
-3.994869	بنوری	-0.01270373
-3.994869	بنولہ	-0.01270373
-3.994869	بنگالی	-0.01270373
-3.994869	بنگلہ	-0.01270373
-3.994869	بنگلے	-0.01270373
-3.994869	بنیادی	-0.01270373
-3.693805	بنیں	-0.01270373
-3.994869	بنے	-0.01270373
-3.994869	بو	-0.01270373
-3.994869	بوئنگ	-0.01270373
-3.994869	بوئی	-0.01270373
-3.994869	بوئیں	-0.01270373
-3.994869	بوئے	-0.01270373
-3.994869	بوائز	-0.01270373
-3.994869	بوائے	-0.01270373
-3.994869	بوبی	-0.01270373
-3.994869	بوجوہ	-0.01270373
-3.693805	بوجھ	-0.01270373
-3.994869	بوجھو	-0.01270373
-3.994869	بوجہ	-0.01270373
-3.994869	بودلہ	-0.01270373
-3.693805	بورڈ	-0.01270373
-3.994869	بورڈر	-0.01270373
-3.994869	بوریت	-0.01270373
-3.994869	بوس	-0.01270373
-3.994869	بوسن	-0.01270373
-3.994869	بوسنیائی	-0.01270373
-3.994869	بوقت	-0.01270373
-3.994869	بولروں	-0.01270373
-3.994869	بولنگ	-0.01270373
-3.994869	بولنے	-0.01270373
-3.994869	بولو	-0.01270373
-3.994869	بولوں	-0.01270373
-3.994869	بولیں	-0.01270373
-3.994869	بولے	-0.01270373
-3.994869	بوم	-0.01270373
-3.994869	بونس	-0.01270373
-3.994869	بونوں	-0.01270373
-3.994869	بوچھاڑ	-0.01270373
-3.994869	بوڑھا	-0.01270373
-3.994869	بوڑھوں	-0.01270373
-3.994869	بوڑھی	-0.01270373
-3.994869	بوڑھے	-0.01270373
-3.994869	بوکھلاہٹ	-0.01270373
-3.994869	بوگس	-0.01270373
-3.994869	بویا	-0.01270373
-3.994869	بَلّا	-0.01270373
-3.994869	بُدھو	-0.01270373
-3.994869	بُدھی	-0.01270373
-3.994869	بٹورتا	-0.01270373
-3.994869	بٹھا	-0.01270373
-3.994869	بپھر	-0.01270373
-3.994869	بپھرے	-0.01270373
-3.994869	بچاؤ	-0.01270373
-3.994869	بچائیں	-0.01270373
-3.994869	بچار	-0.01270373
-3.994869	بچایا	-0.01270373
-3.994869	بچنے	-0.01270373
-3.994869	بچوں	-0.01270373
-3.994869	بچّو	-0.01270373
-3.994869	بچّی	-0.01270373
-3.994869	بچھ	-0.01270373
-3.994869	بچھا	-0.01270373
-3.994869	بچھائیں	-0.01270373
-3.994869	بچھانے	-0.01270373
-3.994869	بچھو	-0.01270373
-3.994869	بچھونا	-0.01270373
-3.994869	بچھڑ	-0.01270373
-3.994869	بچھڑا	-0.01270373
-3.994869	بچھڑوں	-0.01270373
-3.994869	بچھڑی	-0.01270373
-3.994869	بچھڑے	-0.01270373
-3.994869	بچھی	-0.01270373
-3.994869	بچھے	-0.01270373
-3.693805	بچہ	-0.01270373
-3.994869	بچی	-0.01270373
-3.994869	بچیاں	-0.01270373
-3.994869	بچیوں	-0.01270373
-3.994869	بچیں	-0.01270373
-3.693805	بچے	-0.01270373
-3.994869	بڈھا	-0.01270373
-3.994869	بڈھے	-0.01270373
-3.994869	بڑ	-0.01270373
-3.994869	بڑا	-0.01270373
-3.994869	بڑوں	-0.01270373
-3.693805	بڑھ	-0.01270373
-3.994869	بڑھئی	-0.01270373
-3.994869	بڑھا	-0.01270373
-3.994869	بڑھائیں	-0.01270373
-3.994869	بڑھائے	-0.01270373
-3.994869	بڑھانے	-0.01270373
-3.994869	بڑھاوا	-0.01270373
-3.994869	بڑھاوں	-0.01270373
-3.994869	بڑھاپے	-0.01270373
-3.994869	بڑھایا	-0.01270373
-3.994869	بڑھوتری	-0.01270373
-3.994869	بڑھیا	-0.01270373
-3.994869	بڑھیں	-0.01270373
-3.517702	بڑی	-0.01270373
-3.693805	بڑے	-0.01270373
-3.994869	بکھر	-0.01270373
-3.994869	بکھری	-0.01270373
-3.994869	بکھرے	-0.01270373
-3.994869	بکھیر	-0.01270373
-3.994869	بکھیرنے	-0.01270373
-3.994869	بگ	-0.01270373
-3.994869	بگاڑنے	-0.01270373
-3.994869	بگٹی	-0.01270373
-3.994869	بگڑ	-0.01270373
-3.994869	بگڑیں	-0.01270373
-3.994869	بگھار	-0.01270373
-3.994869	بگھی	-0.01270373
-3.994869	بھئی	-0.01270373
-3.994869	بھاؤ	-0.01270373
-3.994869	بھائی	-0.01270373
-3.994869	بھائیوں	-0.01270373
-3.994869	بھابی	-0.01270373
-3.994869	بھارتی	-0.01270373
-3.994869	بھاری	-0.01270373
-3.994869	بھاشا	-0.01270373
-3.994869	بھال	-0.01270373
-3.994869	بھانجے	-0.01270373
-3.994869	بھانپ	-0.01270373
-3.994869	بھاوج	-0.01270373
-3.994869	بھاڑ	-0.01270373
-3.994869	بھاگ	-0.01270373
-3.994869	بھجن	-0.01270373
-3.994869	بھجوا	-0.01270373
-3.994869	بھجوائیں	-0.01270373
-3.994869	بھدی	-0.01270373
-3.994869	بھر	-0.01270373
-3.994869	بھربھری	-0.01270373
-3.994869	بھرتا	-0.01270373
-3.994869	بھروسہ	-0.01270373
-3.994869	بھرٹ	-0.01270373
-3.994869	بھری	-0.01270373
-3.994869	بھرے	-0.01270373
-3.994869	بھسم	-0.01270373
-3.994869	بھلا	-0.01270373
-3.994869	بھلایا	-0.01270373
-3.994869	بھنا	-0.01270373
-3.994869	بھنوؤں	-0.01270373
-3.994869	بھنڈی	-0.01270373
-3.994869	بھنگڑا	-0.01270373
-3.994869	بھنگڑے	-0.01270373
-3.994869	بھوت	-0.01270373
-3.994869	بھوجپوری	-0.01270373
-3.693805	بھورا	-0.01270373
-3.994869	بھورے	-0.01270373
-3.994869	بھوسہ	-0.01270373
-3.994869	بھوسے	-0.01270373
-3.693805	بھول	-0.01270373
-3.994869	بھولا	-0.01270373
-3.994869	بھولنا	-0.01270373
-3.994869	بھولو	-0.01270373
-3.994869	بھولیں	-0.01270373
-3.994869	بھولیے	-0.01270373
-3.994869	بھومی	-0.01270373
-3.994869	بھون	-0.01270373
-3.994869	بھونچال	-0.01270373
-3.994869	بھونڈی	-0.01270373
-3.994869	بھٹو	-0.01270373
-3.994869	بھڑ	-0.01270373
-3.994869	بھڑاس	-0.01270373
-3.994869	بھڑوں	-0.01270373
-3.693805	بھڑک	-0.01270373
-3.994869	بھگت	-0.01270373
-3.994869	بھگدڑ	-0.01270373
-3.994869	بھگو	-0.01270373
-3.994869	بھگوئیں	-0.01270373
-3.994869	بھگوڑوں	-0.01270373
-3.040566	بھی	-0.01270373
-3.994869	بھیانک	-0.01270373
-3.392758	بھیج	-0.1376425
-3.994869	بھیجا	-0.01270373
-3.994869	بھیجنے	-0.01270373
-3.994869	بھیجوں	-0.01270373
-3.994869	بھیجی	-0.01270373
-3.994869	بھیجیں	-0.01270373
-3.693805	بھیجے	-0.01270373
-3.994869	بھید	-0.01270373
-3.994869	بھیرویں	-0.01270373
-3.994869	بھیس	-0.01270373
-3.994869	بھیل	-0.01270373
-3.994869	بھیم	-0.01270373
-3.693805	بھینس	-0.01270373
-3.994869	بھینسیں	-0.01270373
-3.994869	بھینٹ	-0.01270373
-3.994869	بھینگا	-0.01270373
-3.994869	بھیڑ	-0.01270373
-3.994869	بھیڑوں	-0.01270373
-3.994869	بھیڑیا	-0.01270373
-3.994869	بھیڑیں	-0.01270373
-3.994869	بھیڑیے	-0.01270373
-3.994869	بھیگی	-0.01270373
-3.994869	بہ	-0.01270373
-3.994869	بہاؤ	-0.01270373
-3.994869	بہائیں	-0.01270373
-3.994869	بہبود	-0.01270373
-3.693805	بہت	-0.01270373
-3.994869	بہتر	-0.01270373
-3.994869	بہتری	-0.01270373
-3.994869	بہترین	-0.01270373
-3.994869	بہرحال	-0.01270373
-3.994869	بہن	-0.01270373
-3.994869	بہنوئی	-0.01270373
-3.994869	بہو	-0.01270373
-3.994869	بہی	-0.01270373
-3.994869	بی	-0.01270373
-3.693805	بیان	-0.01270373
-3.994869	بیباک	-0.01270373
-3.693805	بیج	-0.01270373
-3.994869	بیجوں	-0.01270373
-3.994869	بیخ	-0.01270373
-3.994869	بیدار	-0.01270373
-3.994869	بیداری	-0.01270373
-3.994869	بیراج	-0.01270373
-3.994869	بیرونی	-0.01270373
-3.994869	بیزار	-0.01270373
-3.994869	بیس	-0.01270373
-3.994869	بیساکھی	-0.01270373
-3.994869	بیسمنٹ	-0.01270373
-3.994869	بیسن	-0.01270373
-3.994869	بیسویں	-0.01270373
-3.994869	بیسٹ	-0.01270373
-3.994869	بیشتر	-0.01270373
-3.994869	بیضوی	-0.01270373
-3.994869	بیضے	-0.01270373
-3.994869	بیعانہ	-0.01270373
-3.994869	بیعت	-0.01270373
-3.994869	بیف	-0.01270373
-3.994869	بیل	-0.01270373
-3.994869	بیلدار	-0.01270373
-3.994869	بیلز	-0.01270373
-3.994869	بیلوں	-0.01270373
-3.994869	بیلٹ	-0.01270373
-3.994869	بیلچہ	-0.01270373
-3.994869	بیلچے	-0.01270373
-3.994869	بیماری	-0.01270373
-3.994869	بینات	-0.01270373
-3.994869	بینظیر	-0.01270373
-3.994869	بینچ	-0.01270373
-3.994869	بینک	-0.01270373
-3.994869	بینگن	-0.01270373
-3.994869	بیورو	-0.01270373
-3.994869	بیوروکریسی	-0.01270373
-3.994869	بیوروکریٹس	-0.01270373
-3.994869	بیوپار	-0.01270373
-3.994869	بیوگان	-0.01270373
-3.994869	بیوہ	-0.01270373
-3.994869	بیوی	-0.01270373
-3.994869	بیویوں	-0.01270373
-3.994869	بیٹھ	-0.01270373
-3.693805	بیٹھا	-0.01270373
-3.994869	بیٹھتے	-0.01270373
-3.994869	بیٹھنے	-0.01270373
-3.994869	بیٹھو	-0.01270373
-3.994869	بیٹھوں	-0.01270373
-3.994869	بیٹھک	-0.01270373
-3.693805	بیٹھی	-0.01270373
-3.994869	بیٹھیں	-0.01270373
-3.994869	بیٹھے	-0.01270373
-3.693805	بیچ	-0.01270373
-3.994869	بیچارے	-0.01270373
-3.994869	بیچلر	-0.01270373
-3.994869	بیچنے	-0.01270373
-3.994869	بیچوں	-0.01270373
-3.994869	بیچیں	-0.01270373
-3.994869	بیچے	-0.01270373
-3.994869	بیڈ	-0.01270373
-3.994869	بیڈروم	-0.01270373
-3.693805	بیڑا	-0.01270373
-3.994869	بیڑیاں	-0.01270373
-3.994869	بیڑے	-0.01270373
-3.994869	بیک	-0.01270373
-3.994869	بیگ	-0.01270373
-3.994869	بیگج	-0.01270373
-3.994869	بیگز	-0.01270373
-3.693805	بیگم	-0.01270373
-3.994869	بیہوش	-0.01270373
-3.040566	بے	-0.01270373
-3.994869	بےاختیار	-0.01270373
-3.994869	بےجا	-0.01270373
-3.994869	بےحرمتی	-0.01270373
-3.994869	بےعزتی	-0.01270373
-3.994869	بےقصور	-0.01270373
-3.994869	بےمعنی	-0.01270373
-3.994869	بےہودہ	-0.01270373
-3.994869	تابش	-0.01270373
-3.994869	تابعین	-0.01270373
-3.994869	تاثر	-0.01270373
-3.994869	تاثرات	-0.01270373
-3.994869	تاجدار	-0.01270373
-3.994869	تاجر	-0.01270373
-3.994869	تاجروں	-0.01270373
-3.994869	تاجور	-0.01270373
-3.994869	تاخیر	-0.01270373
-3.994869	تارڑ	-0.01270373
-3.693805	تاریخ	-0.01270373
-3.994869	تاریخوں	-0.01270373
-3.994869	تاریخی	-0.01270373
-3.994869	تامل	-0.01270373
-3.994869	تباہی	-0.01270373
-3.994869	تبدیل	-0.01270373
-3.693805	تبدیلی	-0.01270373
-3.994869	تبدیلیاں	-0.01270373
-3.994869	تبدیلیوں	-0.01270373
-3.994869	تبسم	-0.01270373
-3.994869	تبصرہ	-0.01270373
-3.994869	تبلیغ	-0.01270373
-3.994869	تبلیغی	-0.01270373
-3.994869	تجارت	-0.01270373
-3.994869	تجربات	-0.01270373
-3.994869	تجربہ	-0.01270373
-3.994869	تجرد	-0.01270373
-3.994869	تجزیوں	-0.01270373
-3.994869	تجزیہ	-0.01270373
-3.994869	تجزیے	-0.01270373
-3.994869	تجوری	-0.01270373
-3.994869	تجوریاں	-0.01270373
-3.693805	تجویز	-0.01270373
-3.994869	تجہیز	-0.01270373
-3.994869	تحائف	-0.01270373
-3.994869	تحریر	-0.01270373
-3.994869	تحریروں	-0.01270373
-3.994869	تحریک	-0.01270373
-3.994869	تحصیل	-0.01270373
-3.994869	تحصیلدار	-0.01270373
-3.994869	تحصیلوں	-0.01270373
-3.994869	تحفتا	-0.01270373
-3.994869	تحفظ	-0.01270373
-3.994869	تحفوں	-0.01270373
-3.994869	تحفہ	-0.01270373
-3.994869	تحفے	-0.01270373
-3.994869	تحقیق	-0.01270373
-3.994869	تحقیقات	-0.01270373
-3.994869	تحویل	-0.01270373
-3.994869	تحیر	-0.01270373
-3.994869	تخریب	-0.01270373
-3.994869	تخفیف	-0.01270373
-3.994869	تخلص	-0.01270373
-3.994869	تخلیق	-0.01270373
-3.994869	تخم	-0.01270373
-3.994869	تخیّل	-0.01270373
-3.994869	تدابیر	-0.01270373
-3.994869	تدریس	-0.01270373
-3.994869	تدفین	-0.01270373
-3.994869	تذبذب	-0.01270373
-3.994869	تذلیل	-0.01270373
-3.994869	تراجم	-0.01270373
-3.994869	تراشوں	-0.01270373
-3.994869	تربیتی	-0.01270373
-3.994869	ترجمان	-0.01270373
-3.994869	ترجمانی	-0.01270373
-3.994869	ترجیح	-0.01270373
-3.994869	ترجیحات	-0.01270373
-3.994869	ترشول	-0.01270373
-3.994869	ترغیب	-0.01270373
-3.994869	ترقی	-0.01270373
-3.994869	ترقیات	-0.01270373
-3.994869	ترقیوں	-0.01270373
-3.994869	ترمذی	-0.01270373
-3.994869	ترمیم	-0.01270373
-3.994869	ترن	-0.01270373
-3.994869	ترویج	-0.01270373
-3.994869	ترچھا	-0.01270373
-3.994869	ترچھی	-0.01270373
-3.994869	تزئین	-0.01270373
-3.994869	تساہل	-0.01270373
-3.994869	تسخیر	-0.01270373
-3.994869	تسلسل	-0.01270373
-3.994869	تسلیم	-0.01270373
-3.994869	تشبیہ	-0.01270373
-3.994869	تشبیہات	-0.01270373
-3.994869	تشبیہیں	-0.01270373
-3.994869	تشخص	-0.01270373
-3.994869	تشخیص	-0.01270373
-3.994869	تشدد	-0.01270373
-3.994869	تشریف	-0.01270373
-3.994869	تشنج	-0.01270373
-3.994869	تشویش	-0.01270373
-3.994869	تشہیر	-0.01270373
-3.994869	تشیع	-0.01270373
-3.994869	تصحیح	-0.01270373
-3.994869	تصدق	-0.01270373
-3.994869	تصدیق	-0.01270373
-3.994869	تصفیہ	-0.01270373
-3.994869	تصفیے	-0.01270373
-3.994869	تصور	-0.01270373
-3.994869	تصورات	-0.01270373
-3.994869	تصوف	-0.01270373
-3.994869	تصویر	-0.01270373
-3.994869	تصویریں	-0.01270373
-3.994869	تضحیک	-0.01270373
-3.994869	تعارف	-0.01270373
-3.693805	تعاقب	-0.01270373
-3.994869	تعالی	-0.01270373
-3.994869	تعاون	-0.01270373
-3.994869	تعجب	-0.01270373
-3.994869	تعداد	-0.01270373
-3.994869	تعریفیں	-0.01270373
-3.994869	تعفن	-0.01270373
-3.693805	تعلق	-0.01270373
-3.994869	تعلقوں	-0.01270373
-3.994869	تعلیم	-0.01270373
-3.994869	تعمیر	-0.01270373
-3.994869	تعوذ	-0.01270373
-3.994869	تعیشات	-0.01270373
-3.994869	تعین	-0.01270373
-3.994869	تعینات	-0.01270373
-3.693805	تغافل	-0.01270373
-3.994869	تغلق	-0.01270373
-3.994869	تغیر	-0.01270373
-3.994869	تفاعل	-0.01270373
-3.994869	تفاوت	-0.01270373
-3.994869	تفتیش	-0.01270373
-3.994869	تفتیشی	-0.01270373
-3.994869	تفرقہ	-0.01270373
-3.994869	تفریحی	-0.01270373
-3.994869	تفنن	-0.01270373
-3.994869	تفویض	-0.01270373
-3.994869	تفہیم	-0.01270373
-3.994869	تقاضوں	-0.01270373
-3.994869	تقدس	-0.01270373
-3.994869	تقدیر	-0.01270373
-3.994869	تقرری	-0.01270373
-3.994869	تقریباً	-0.01270373
-3.994869	تقسیم	-0.01270373
-3.994869	تقلیل	-0.01270373
-3.994869	تقویت	-0.01270373
-3.994869	تلاش	-0.01270373
-3.994869	تلخ	-0.01270373
-3.994869	تلخی	-0.01270373
-3.994869	تلخیاں	-0.01270373
-3.994869	تلخیوں	-0.01270373
-3.994869	تلمیحات	-0.01270373
-3.994869	تلور	-0.01270373
-3.994869	تلوں	-0.01270373
-3.693805	تلے	-0.01270373
-3.693805	تم	-0.01270373
-3.994869	تماشائیوں	-0.01270373
-3.693805	تمام	-0.01270373
-3.994869	تمحیص	-0.01270373
-3.994869	تمسخر	-0.01270373
-3.994869	تمغوں	-0.01270373
-3.994869	تمغہ	-0.01270373
-3.994869	تمغے	-0.01270373
-3.994869	تمناؤں	-0.01270373
-3.994869	تمہارے	-0.01270373
-3.994869	تمہیں	-0.01270373
-3.994869	تناؤ	-0.01270373
-3.994869	تنازع	-0.01270373
-3.994869	تنازعے	-0.01270373
-3.994869	تناسب	-0.01270373
-3.994869	تناول	-0.01270373
-3.994869	تنخواہ	-0.01270373
-3.994869	تندہی	-0.01270373
-3.994869	تنزلی	-0.01270373
-3.994869	تنسیخ	-0.01270373
-3.693805	تنظیم	-0.01270373
-3.994869	تنفس	-0.01270373
-3.994869	تنقید	-0.01270373
-3.994869	تنقیص	-0.01270373
-3.994869	تنوع	-0.01270373
-3.994869	تنولی	-0.01270373
-3.994869	تنگ	-0.01270373
-3.994869	تنگدستی	-0.01270373
-3.994869	تنہا	-0.01270373
-2.168727	تو	-0.05104872
-3.994869	توازن	-0.01270373
-3.693805	توجہ	-0.01270373
-3.994869	توجیہ	-0.01270373
-3.994869	توسیع	-0.01270373
-3.994869	توسیعی	-0.01270373
-3.994869	توصیف	-0.01270373
-3.994869	توضیح	-0.01270373
-3.994869	توضیحات	-0.01270373
-3.994869	توفیق	-0.01270373
-3.994869	توقع	-0.01270373
-3.994869	توقعات	-0.01270373
-3.994869	توقف	-0.01270373
-3.994869	تولید	-0.01270373
-3.994869	تولیدی	-0.01270373
-3.994869	تولیے	-0.01270373
-3.994869	توڑیں	-0.01270373
-3.994869	توہم	-0.01270373
-3.994869	توہین	-0.01270373
-2.790685	تک	-0.01270373
-3.994869	تکلف	-0.01270373
-3.994869	تکلم	-0.01270373
-3.994869	تکمیل	-0.01270373
-2.790685	تھا	-0.9157937
-3.994869	تھائی	-0.01270373
-3.994869	تھام	-0.01270373
-3.994869	تھانہ	-0.01270373
-3.994869	تھانیدار	-0.01270373
-3.693805	تھر	-0.01270373
-3.994869	تھری	-0.01270373
-3.994869	تھریپیس	-0.01270373
-3.994869	تھل	-0.01270373
-3.994869	تھم	-0.01270373
-3.994869	تھنوں	-0.01270373
-3.994869	تھنک	-0.01270373
-3.994869	تھو	-0.01270373
-3.994869	تھوتھا	-0.01270373
-3.994869	تھوڑا	-0.01270373
-3.994869	تھوڑی	-0.01270373
-3.994869	تھوڑے	-0.01270373
-3.994869	تھوہر	-0.01270373
-3.994869	تھڑے	-0.01270373
-3.994869	تھک	-0.01270373
-3.392758	تھی	-0.3137337
-3.994869	تھیری	-0.01270373
-3.994869	تھیسس	-0.01270373
-3.994869	تھیلی	-0.01270373
-3.994869	تھیم	-0.01270373
-3.994869	تھینکس	-0.01270373
-3.994869	تھیوا	-0.01270373
-3.994869	تھیوری	-0.01270373
-3.994869	تھیٹر	-0.01270373
-3.295844	تھیں	-0.7116737
-3.216661	تھے	-0.790855
-3.994869	تہتر	-0.01270373
-3.994869	تہذیب	-0.01270373
-3.994869	تہذیبی	-0.01270373
-3.994869	تہمت	-0.01270373
-3.994869	تہوار	-0.01270373
-3.994869	تہیں	-0.01270373
-3.994869	تہیہ	-0.01270373
-3.994869	تیار	-0.01270373
-3.994869	تیاریاں	-0.01270373
-3.994869	تیاگ	-0.01270373
-3.994869	تیروں	-0.01270373
-3.994869	تیرگی	-0.01270373
-3.994869	تیری	-0.01270373
-3.994869	تیرے	-0.01270373
-3.994869	تیز	-0.01270373
-3.994869	تیزرفتار	-0.01270373
-3.994869	تیزگام	-0.01270373
-3.693805	تیزی	-0.01270373
-3.994869	تیسر	-0.01270373
-3.994869	تیسرے	-0.01270373
-3.994869	تیقن	-0.01270373
-3.517702	تین	-0.01270373
-3.994869	ثاقب	-0.01270373
-3.994869	ثریا	-0.01270373
-3.994869	ثقافت	-0.01270373
-3.994869	ثقل	-0.01270373
-3.994869	ثلث	-0.01270373
-3.994869	ثمر	-0.01270373
-3.994869	جئے	-0.01270373
-3.091719	جا	-0.1218482
-3.517702	جاؤ	-0.489825
-3.392758	جاؤں	-0.3137337
-3.693805	جائزہ	-0.01270373
-3.994869	جائیداد	-0.01270373
-3.693805	جائیں	-0.01270373
-3.149713	جائے	-0.4386725
-3.216661	جاتا	-0.489825
-3.517702	جاتی	-0.01270373
-3.994869	جادوئی	-0.01270373
-3.994869	جادوگر	-0.01270373
-3.994869	جارج	-0.01270373
-3.994869	جارحیت	-0.01270373
-3.994869	جاری	-0.01270373
-3.994869	جاسوسی	-0.01270373
-3.994869	جال	-0.01270373
-3.994869	جالندھری	-0.01270373
-3.994869	جامعہ	-0.01270373
-3.517702	جان	-0.01270373
-3.517702	جانا	-0.01270373
-3.994869	جانب	-0.01270373
-3.994869	جانبدار	-0.01270373
-3.994869	جانوں	-0.01270373
-3.091719	جانے	-0.1376425
-3.994869	جاوید	-0.01270373
-3.994869	جاگزیں	-0.01270373
-3.994869	جاگنگ	-0.01270373
-3.994869	جاگیرداروں	-0.01270373
-3.994869	جایا	-0.01270373
-3.994869	جب	-0.01270373
-3.994869	جبری	-0.01270373
-3.994869	جبڑا	-0.01270373
-3.994869	جبڑوں	-0.01270373
-3.994869	جبڑے	-0.01270373
-3.994869	جبیں	-0.01270373
-3.994869	جتنی	-0.01270373
-3.994869	جج	-0.01270373
-3.994869	ججوں	-0.01270373
-3.994869	جدا	-0.01270373
-3.994869	جداگانہ	-0.01270373
-3.994869	جدوجہد	-0.01270373
-3.994869	جدول	-0.01270373
-3.994869	جدون	-0.01270373
-3.994869	جدید	-0.01270373
-3.693805	جذبات	-0.01270373
-3.994869	جرم	-0.01270373
-3.994869	جرنیل	-0.01270373
-3.994869	جرگہ	-0.01270373
-3.994869	جزو	-0.01270373
-3.994869	جس	-0.01270373
-3.994869	جست	-0.01270373
-3.994869	جستجو	-0.01270373
-3.994869	جسم	-0.01270373
-3.994869	جسٹس	-0.01270373
-3.994869	جشن	-0.01270373
-3.994869	جعفری	-0.01270373
-3.994869	جعل	-0.01270373
-3.994869	جعلسازی	-0.01270373
-3.994869	جعلی	-0.01270373
-3.994869	جغرافیائی	-0.01270373
-3.994869	جل	-0.01270373
-3.994869	جلالہ	-0.01270373
-3.693805	جلد	-0.01270373
-3.994869	جلدازجلد	-0.01270373
-3.994869	جلدی	-0.01270373
-3.994869	جلسوں	-0.01270373
-3.994869	جلسہ	-0.01270373
-3.994869	جلسے	-0.01270373
-3.994869	جلو	-0.01270373
-3.994869	جلوس	-0.01270373
-3.994869	جلوسوں	-0.01270373
-3.994869	جلووں	-0.01270373
-3.994869	جماعت	-0.01270373
-3.693805	جمخانہ	-0.01270373
-3.994869	جمشید	-0.01270373
-3.994869	جمعہ	-0.01270373
-3.994869	جمگھٹا	-0.01270373
-3.994869	جمہوریت	-0.01270373
-3.994869	جمیعت	-0.01270373
-3.994869	جن	-0.01270373
-3.994869	جناب	-0.01270373
-3.994869	جنرک	-0.01270373
-3.994869	جنریشن	-0.01270373
-3.517702	جنم	-0.01270373
-3.994869	جنوبی	-0.01270373
-3.693805	جنگ	-0.01270373
-3.994869	جنگجو	-0.01270373
-3.994869	جنگجوؤں	-0.01270373
-3.994869	جنگجویانہ	-0.01270373
-3.994869	جنگلوں	-0.01270373
-3.994869	جنگوں	-0.01270373
-3.994869	جنگی	-0.01270373
-3.149713	جو	-0.01270373
-3.994869	جوئیں	-0.01270373
-3.994869	جوئیہ	-0.01270373
-3.994869	جوائنٹ	-0.01270373
-3.994869	جواب	-0.01270373
-3.994869	جوار	-0.01270373
-3.994869	جوبلی	-0.01270373
-3.994869	جوجوبا	-0.01270373
-3.994869	جور	-0.01270373
-3.994869	جوزی	-0.01270373
-3.994869	جوس	-0.01270373
-3.693805	جوش	-0.01270373
-3.693805	جوق	-0.01270373
-3.994869	جولانی	-0.01270373
-3.994869	جون	-0.01270373
-3.994869	جونا	-0.01270373
-3.994869	جونہی	-0.01270373
-3.994869	جونیئر	-0.01270373
-3.994869	جونیجو	-0.01270373
-3.994869	جوڈیشری	-0.01270373
-3.994869	جوڈیشل	-0.01270373
-3.994869	جوڑ	-0.01270373
-3.994869	جوڑا	-0.01270373
-3.994869	جوڑیاں	-0.01270373
-3.994869	جوڑیں	-0.01270373
-3.994869	جوڑے	-0.01270373
-3.994869	جوکھوں	-0.01270373
-3.994869	جوگی	-0.01270373
-3.693805	جوں	-0.01270373
-3.994869	جوہر	-0.01270373
-3.994869	جوہری	-0.01270373
-3.994869	جوہی	-0.01270373
-3.994869	جویا	-0.01270373
-3.994869	جوے	-0.01270373
-3.994869	جَلد	-0.01270373
-3.994869	جچتا	-0.01270373
-3.994869	جچیں	-0.01270373
-3.994869	جچے	-0.01270373
-3.994869	جڑ	-0.01270373
-3.994869	جڑواں	-0.01270373
-3.994869	جڑوں	-0.01270373
-3.994869	جڑی	-0.01270373
-3.994869	جڑیں	-0.01270373
-3.994869	جکڑن	-0.01270373
-3.994869	جکھرانی	-0.01270373
-3.994869	جگ	-0.01270373
-3.994869	جگر	-0.01270373
-3.994869	جگہ	-0.01270373
-3.994869	جگہوں	-0.01270373
-3.994869	جھائیاں	-0.01270373
-3.994869	جھالر	-0.01270373
-3.994869	جھانکنے	-0.01270373
-3.994869	جھاڑو	-0.01270373
-3.994869	جھاڑیوں	-0.01270373
-3.994869	جھاگ	-0.01270373
-3.994869	جھجک	-0.01270373
-3.994869	جھجھک	-0.01270373
-3.994869	جھرنے	-0.01270373
-3.994869	جھریاں	-0.01270373
-3.994869	جھریوں	-0.01270373
-3.994869	جھلس	-0.01270373
-3.994869	جھلک	-0.01270373
-3.994869	جھلی	-0.01270373
-3.994869	جھم	-0.01270373
-3.994869	جھمکے	-0.01270373
-3.994869	جھنجھلاہٹ	-0.01270373
-3.994869	جھنجھوڑ	-0.01270373
-3.994869	جھنڈ	-0.01270373
-3.994869	جھنڈے	-0.01270373
-3.994869	جھنگوی	-0.01270373
-3.994869	جھولوں	-0.01270373
-3.994869	جھولی	-0.01270373
-3.994869	جھولے	-0.01270373
-3.994869	جھوم	-0.01270373
-3.994869	جھونپڑی	-0.01270373
-3.994869	جھونکوں	-0.01270373
-3.994869	جھونکے	-0.01270373
-3.994869	جھوٹ	-0.01270373
-3.994869	جھٹکے	-0.01270373
-3.994869	جھڑپ	-0.01270373
-3.994869	جھڑک	-0.01270373
-3.994869	جھکاؤ	-0.01270373
-3.994869	جھگڑا	-0.01270373
-3.994869	جھگڑالو	-0.01270373
-3.994869	جھگڑوں	-0.01270373
-3.994869	جھگڑے	-0.01270373
-3.994869	جھگی	-0.01270373
-3.994869	جھیل	-0.01270373
-3.994869	جھیلوں	-0.01270373
-3.994869	جھیلیں	-0.01270373
-3.994869	جھیلے	-0.01270373
-3.994869	جھینگے	-0.01270373
-3.994869	جہاد	-0.01270373
-3.994869	جہانگیر	-0.01270373
-3.693805	جہاں	-0.01270373
-3.994869	جہتیں	-0.01270373
-3.994869	جہد	-0.01270373
-3.994869	جہل	-0.01270373
-3.994869	جی	-0.01270373
-3.994869	جیب	-0.01270373
-3.994869	جید	-0.01270373
-3.994869	جیز	-0.01270373
-3.994869	جیسا	-0.01270373
-3.994869	جیسی	-0.01270373
-3.517702	جیسے	-0.01270373
-3.994869	جیش	-0.01270373
-3.994869	جیل	-0.01270373
-3.994869	جیلانی	-0.01270373
-3.994869	جیم	-0.01270373
-3.994869	جین	-0.01270373
-3.994869	جینوئن	-0.01270373
-3.994869	جیو	-0.01270373
-3.994869	جیوئش	-0.01270373
-3.994869	جیوری	-0.01270373
-3.994869	جیولری	-0.01270373
-3.994869	جیومیٹری	-0.01270373
-3.994869	جیون	-0.01270373
-3.994869	جیٹ	-0.01270373
-3.994869	جیگوار	-0.01270373
-3.994869	جے	-0.01270373
-3.994869	حائل	-0.01270373
-3.994869	حاجی	-0.01270373
-3.994869	حادثاتی	-0.01270373
-3.994869	حادثے	-0.01270373
-3.693805	حاشیے	-0.01270373
-3.693805	حاصل	-0.01270373
-3.994869	حاضری	-0.01270373
-3.994869	حافظ	-0.01270373
-3.994869	حافظے	-0.01270373
-3.994869	حال	-0.01270373
-3.693805	حالات	-0.01270373
-3.693805	حالانکہ	-0.01270373
-3.994869	حامد	-0.01270373
-3.994869	حامل	-0.01270373
-3.994869	حاوی	-0.01270373
-3.994869	حب	-0.01270373
-3.994869	حبس	-0.01270373
-3.994869	حبشی	-0.01270373
-3.994869	حبیب	-0.01270373
-3.994869	حج	-0.01270373
-3.994869	حجاج	-0.01270373
-3.693805	حجت	-0.01270373
-3.994869	حد	-0.01270373
-3.994869	حدود	-0.01270373
-3.994869	حدیث	-0.01270373
-3.994869	حرفوں	-0.01270373
-3.994869	حروں	-0.01270373
-3.994869	حریت	-0.01270373
-3.994869	حریفوں	-0.01270373
-3.994869	حزب	-0.01270373
-3.994869	حزن	-0.01270373
-3.994869	حزیں	-0.01270373
-3.994869	حسن	-0.01270373
-3.994869	حسین	-0.01270373
-3.994869	حسینی	-0.01270373
-3.994869	حسیں	-0.01270373
-3.994869	حشر	-0.01270373
-3.994869	حصص	-0.01270373
-3.994869	حصول	-0.01270373
-3.994869	حصوں	-0.01270373
-3.994869	حصہ	-0.01270373
-3.693805	حصے	-0.01270373
-3.994869	حضرات	-0.01270373
-3.994869	حضرت	-0.01270373
-3.994869	حضور	-0.01270373
-3.994869	حفاظ	-0.01270373
-3.994869	حفاظت	-0.01270373
-3.994869	حفظ	-0.01270373
-3.994869	حفیظ	-0.01270373
-3.693805	حق	-0.01270373
-3.994869	حقوق	-0.01270373
-3.994869	حقیقت	-0.01270373
-3.994869	حلف	-0.01270373
-3.994869	حلقہ	-0.01270373
-3.994869	حلیہ	-0.01270373
-3.994869	حمایت	-0.01270373
-3.994869	حمل	-0.01270373
-3.994869	حملوں	-0.01270373
-3.994869	حملہ	-0.01270373
-3.994869	حملے	-0.01270373
-3.994869	حنیف	-0.01270373
-3.994869	حوصلہ	-0.01270373
-3.994869	حوصلے	-0.01270373
-3.994869	حوض	-0.01270373
-3.994869	حویلی	-0.01270373
-3.994869	حکمراں	-0.01270373
-3.693805	حکومت	-0.01270373
-3.994869	حیات	-0.01270373
-3.994869	حیثیت	-0.01270373
-3.994869	حیدر	-0.01270373
-3.994869	حیران	-0.01270373
-3.994869	حیراں	-0.01270373
-3.994869	حیرت	-0.01270373
-3.994869	حیف	-0.01270373
-3.994869	خاتمے	-0.01270373
-3.994869	خاتون	-0.01270373
-3.994869	خادم	-0.01270373
-3.994869	خارجہ	-0.01270373
-3.994869	خازن	-0.01270373
-3.994869	خاص	-0.01270373
-3.994869	خاصی	-0.01270373
-3.994869	خاصے	-0.01270373
-3.994869	خاطر	-0.01270373
-3.994869	خاقان	-0.01270373
-3.994869	خالد	-0.01270373
-3.994869	خام	-0.01270373
-3.994869	خاموش	-0.01270373
-3.994869	خاموشی	-0.01270373
-3.392758	خان	-0.1376425
-3.994869	خاندان	-0.01270373
-3.994869	خانقاہوں	-0.01270373
-3.994869	خانگی	-0.01270373
-3.994869	خاوند	-0.01270373
-3.994869	خاں	-0.01270373
-3.994869	خبر	-0.01270373
-3.994869	خبروں	-0.01270373
-3.994869	خبریں	-0.01270373
-3.994869	ختم	-0.01270373
-3.994869	خداؤں	-0.01270373
-3.994869	خدانخواستہ	-0.01270373
-3.994869	خدشہ	-0.01270373
-3.994869	خدشے	-0.01270373
-3.994869	خدمات	-0.01270373
-3.994869	خدوخال	-0.01270373
-3.994869	خروش	-0.01270373
-3.994869	خرچ	-0.01270373
-3.693805	خرید	-0.01270373
-3.994869	خریدوفروخت	-0.01270373
-3.994869	خریدیں	-0.01270373
-3.994869	خریدے	-0.01270373
-3.994869	خزانہ	-0.01270373
-3.994869	خزاں	-0.01270373
-3.994869	خسارے	-0.01270373
-3.994869	خسرو	-0.01270373
-3.994869	خشت	-0.01270373
-3.994869	خشخاش	-0.01270373
-3.994869	خشوع	-0.01270373
-3.994869	خشونت	-0.01270373
-3.994869	خصال	-0.01270373
-3.994869	خصوصا	-0.01270373
-3.994869	خصوصی	-0.01270373
-3.994869	خضر	-0.01270373
-3.994869	خضوع	-0.01270373
-3.994869	خفت	-0.01270373
-3.994869	خفگی	-0.01270373
-3.994869	خفیف	-0.01270373
-3.994869	خفیہ	-0.01270373
-3.994869	خلائی	-0.01270373
-3.994869	خلاف	-0.01270373
-3.994869	خلجی	-0.01270373
-3.994869	خلق	-0.01270373
-3.994869	خلل	-0.01270373
-3.994869	خلیفہ	-0.01270373
-3.994869	خلیل	-0.01270373
-3.994869	خلیے	-0.01270373
-3.994869	خم	-0.01270373
-3.994869	خمار	-0.01270373
-3.994869	خنازیر	-0.01270373
-3.994869	خوابیدہ	-0.01270373
-3.994869	خواتین	-0.01270373
-3.994869	خواجہ	-0.01270373
-3.994869	خوار	-0.01270373
-3.994869	خوارزمی	-0.01270373
-3.994869	خواری	-0.01270373
-3.994869	خواستگار	-0.01270373
-3.994869	خواص	-0.01270373
-3.994869	خوان	-0.01270373
-3.693805	خواہ	-0.01270373
-3.994869	خواہاں	-0.01270373
-3.994869	خواہش	-0.01270373
-3.994869	خواہشمند	-0.01270373
-3.994869	خوبصورت	-0.01270373
-3.392758	خود	-0.01270373
-3.994869	خودرو	-0.01270373
-3.994869	خودسر	-0.01270373
-3.994869	خودسوزی	-0.01270373
-3.994869	خودکشیوں	-0.01270373
-3.994869	خوراک	-0.01270373
-3.994869	خورشید	-0.01270373
-3.994869	خوشبو	-0.01270373
-3.994869	خوشبوؤں	-0.01270373
-3.994869	خوشبوئیں	-0.01270373
-3.994869	خوشحالی	-0.01270373
-3.994869	خوشخبری	-0.01270373
-3.994869	خوشنودی	-0.01270373
-3.994869	خوشگوار	-0.01270373
-3.994869	خوشہ	-0.01270373
-3.693805	خوشی	-0.01270373
-3.994869	خوشیاں	-0.01270373
-3.994869	خوشیوں	-0.01270373
-3.994869	خوض	-0.01270373
-3.994869	خوف	-0.01270373
-3.994869	خوفزدہ	-0.01270373
-3.994869	خوفناک	-0.01270373
-3.994869	خوفوں	-0.01270373
-3.994869	خول	-0.01270373
-3.994869	خون	-0.01270373
-3.994869	خوگر	-0.01270373
-3.994869	خویش	-0.01270373
-3.994869	خُو	-0.01270373
-3.994869	خچر	-0.01270373
-3.994869	خیال	-0.01270373
-3.994869	خیام	-0.01270373
-3.517702	خیر	-0.01270373
-3.994869	خیرالعمل	-0.01270373
-3.994869	خیرخواہ	-0.01270373
-3.994869	خیرہ	-0.01270373
-3.994869	خیز	-0.01270373
-3.994869	خیل	-0.01270373
-3.994869	خیلوی	-0.01270373
-3.994869	خیمے	-0.01270373
-3.994869	داؤ	-0.01270373
-3.994869	داؤد	-0.01270373
-3.994869	داؤدی	-0.01270373
-3.994869	دائِیں	-0.01270373
-3.994869	دائیں	-0.01270373
-3.994869	داخل	-0.01270373
-3.693805	داخلوں	-0.01270373
-3.994869	دارالحکومت	-0.01270373
-3.994869	دارلخلافہ	-0.01270373
-3.994869	دارومدار	-0.01270373
-3.994869	داستان	-0.01270373
-3.994869	داغ	-0.01270373
-3.994869	داغدار	-0.01270373
-3.994869	داغنے	-0.01270373
-3.994869	داغے	-0.01270373
-3.994869	دانش	-0.01270373
-3.994869	دانشو	-0.01270373
-3.994869	دانشور	-0.01270373
-3.994869	داڑھ	-0.01270373
-3.994869	داڑھی	-0.01270373
-3.994869	دب	-0.01270373
-3.994869	دباؤ	-0.01270373
-3.994869	دبائیں	-0.01270373
-3.994869	دبائے	-0.01270373
-3.994869	دبایا	-0.01270373
-3.994869	دبوچ	-0.01270373
-3.693805	دبیز	-0.01270373
-3.994869	دختر	-0.01270373
-3.994869	دخل	-0.01270373
-3.994869	در	-0.01270373
-3.994869	درآمدات	-0.01270373
-3.994869	دراوڑی	-0.01270373
-3.994869	دراڑیں	-0.01270373
-3.693805	درج	-0.3137337
-3.994869	درجن	-0.01270373
-3.994869	درجوں	-0.01270373
-3.693805	درجے	-0.01270373
-3.994869	درخت	-0.01270373
-3.994869	درخشاں	-0.01270373
-3.693805	درخواست	-0.01270373
-3.994869	درخور	-0.01270373
-3.693805	درد	-0.01270373
-3.994869	درس	-0.01270373
-3.994869	درست	-0.01270373
-3.994869	درستگی	-0.01270373
-3.994869	درسگاہ	-0.01270373
-3.994869	درسگاہوں	-0.01270373
-3.994869	درمیان	-0.01270373
-3.994869	درود	-0.01270373
-3.994869	درہم	-0.01270373
-3.994869	دریاؤں	-0.01270373
-3.994869	دریافت	-0.01270373
-3.994869	دریغ	-0.01270373
-3.994869	دریچوں	-0.01270373
-3.994869	دریچے	-0.01270373
-3.994869	دریں	-0.01270373
-3.994869	دس	-0.01270373
-3.994869	دستاویزات	-0.01270373
-3.994869	دستاویزی	-0.01270373
-3.994869	دسویں	-0.01270373
-3.994869	دشت	-0.01270373
-3.994869	دشمن	-0.01270373
-3.994869	دشوار	-0.01270373
-3.994869	دعا	-0.01270373
-3.994869	دعاؤں	-0.01270373
-3.994869	دعائیں	-0.01270373
-3.994869	دعائیہ	-0.01270373
-3.994869	دعاگو	-0.01270373
-3.994869	دعوؤں	-0.01270373
-3.994869	دغا	-0.01270373
-3.994869	دفاع	-0.01270373
-3.994869	دفتر	-0.01270373
-3.994869	دفن	-0.01270373
-3.392758	دل	-0.01270373
-3.994869	دلبرداشتہ	-0.01270373
-3.994869	دلجوئی	-0.01270373
-3.994869	دلخراش	-0.01270373
-3.994869	دلربا	-0.01270373
-3.994869	دلسوزی	-0.01270373
-3.994869	دلشاد	-0.01270373
-3.994869	دلفریب	-0.01270373
-3.994869	دلنشیں	-0.01270373
-3.994869	دلواؤں	-0.01270373
-3.994869	دلوں	-0.01270373
-3.994869	دلچسپی	-0.01270373
-3.994869	دلہن	-0.01270373
-3.994869	دم	-0.01270373
-3.994869	دماغ	-0.01270373
-3.994869	دماغی	-0.01270373
-3.693805	دن	-0.01270373
-3.994869	دنگ	-0.01270373
-3.994869	دنیا	-0.01270373
-3.994869	دنیاوی	-0.01270373
-3.091719	دو	-0.1376425
-3.994869	دوا	-0.01270373
-3.994869	دواؤں	-0.01270373
-3.994869	دوبارہ	-0.01270373
-3.994869	دوبھر	-0.01270373
-3.994869	دوجے	-0.01270373
-3.994869	دودھ	-0.01270373
-3.693805	دودھیا	-0.01270373
-3.994869	دودھیل	-0.01270373
-3.517702	دور	-0.01270373
-3.994869	دوران	-0.01270373
-3.994869	دورانئے	-0.01270373
-3.994869	دورانیے	-0.01270373
-3.994869	دوراں	-0.01270373
-3.994869	دوربین	-0.01270373
-3.994869	دوردراز	-0.01270373
-3.994869	دوررس	-0.01270373
-3.994869	دوروں	-0.01270373
-3.994869	دورے	-0.01270373
-3.994869	دوزخ	-0.01270373
-3.994869	دوست	-0.01270373
-3.994869	دوسرا	-0.01270373
-3.994869	دوسروں	-0.01270373
-3.994869	دوسری	-0.01270373
-3.994869	دوسرے	-0.01270373
-3.994869	دوشیزہ	-0.01270373
-3.994869	دوعالم	-0.01270373
-3.994869	دوغلا	-0.01270373
-3.994869	دوغلی	-0.01270373
-3.994869	دوغلے	-0.01270373
-3.994869	دولت	-0.01270373
-3.994869	دولخت	-0.01270373
-3.994869	دولہا	-0.01270373
-3.994869	دوم	-0.01270373
-3.994869	دونوں	-0.01270373
-3.994869	دوچار	-0.01270373
-3.994869	دوچند	-0.01270373
-3.994869	دوڑ	-0.01270373
-3.994869	دوڑائیں	-0.01270373
-3.994869	دوڑانے	-0.01270373
-3.994869	دوڑنے	-0.01270373
-3.994869	دوگانہ	-0.01270373
-3.994869	دوگنا	-0.01270373
-3.994869	دوں	-0.01270373
-3.994869	دکھ	-0.01270373
-3.693805	دکھا	-0.01270373
-3.994869	دکھائی	-0.01270373
-3.994869	دکھائیں	-0.01270373
-3.994869	دکھائے	-0.01270373
-3.994869	دکھاوے	-0.01270373
-3.994869	دکھایا	-0.01270373
-3.994869	دکھلا	-0.01270373
-3.994869	دکھنے	-0.01270373
-3.994869	دکھوں	-0.01270373
-3.994869	دکھی	-0.01270373
-3.994869	دکھیں	-0.01270373
-3.994869	دکھے	-0.01270373
-3.994869	دھائی	-0.01270373
-3.693805	دھار	-0.01270373
-3.994869	دھاندلی	-0.01270373
-3.994869	دھاڑ	-0.01270373
-3.994869	دھاگے	-0.01270373
-3.994869	دھبے	-0.01270373
-3.994869	دھجیاں	-0.01270373
-3.994869	دھرا	-0.01270373
-3.994869	دھری	-0.01270373
-3.994869	دھل	-0.01270373
-3.994869	دھماکہ	-0.01270373
-3.994869	دھند	-0.01270373
-3.994869	دھو	-0.01270373
-3.994869	دھوئیں	-0.01270373
-3.994869	دھوئے	-0.01270373
-3.994869	دھواں	-0.01270373
-3.994869	دھوبی	-0.01270373
-3.994869	دھول	-0.01270373
-3.994869	دھولیں	-0.01270373
-3.994869	دھوم	-0.01270373
-3.994869	دھونی	-0.01270373
-3.994869	دھونے	-0.01270373
-3.693805	دھوپ	-0.3137337
-3.994869	دھویا	-0.01270373
-3.994869	دھویں	-0.01270373
-3.994869	دھچکا	-0.01270373
-3.994869	دھڑام	-0.01270373
-3.994869	دھڑلے	-0.01270373
-3.994869	دھڑے	-0.01270373
-3.994869	دھیان	-0.01270373
-3.994869	دھیرے	-0.01270373
-3.994869	دھیمی	-0.01270373
-3.994869	دھینگا	-0.01270373
-3.994869	دہرانے	-0.01270373
-3.994869	دہرایا	-0.01270373
-3.994869	دہشت	-0.01270373
-3.994869	دہل	-0.01270373
-3.994869	دہلوی	-0.01270373
-3.994869	دہلی	-0.01270373
-3.994869	دہندگان	-0.01270373
-3.994869	دہی	-0.01270373
-3.149713	دی	-0.3806805
-3.517702	دیئے	-0.489825
-2.880863	دیا	-0.4106438
-3.994869	دیانتدار	-0.01270373
-3.994869	دیباچہ	-0.01270373
-3.994869	دیباچے	-0.01270373
-3.392758	دیتا	-0.3137337
-3.994869	دیتی	-0.01270373
-3.994869	دیتے	-0.01270373
-3.994869	دیجئے	-0.01270373
-3.994869	دیر	-0.01270373
-3.994869	دیرینہ	-0.01270373
-3.994869	دیسی	-0.01270373
-3.994869	دیش	-0.01270373
-3.994869	دین	-0.01270373
-3.693805	دینا	-0.01270373
-3.693805	دینے	-0.01270373
-3.994869	دیو	-0.01270373
-3.994869	دیوار	-0.01270373
-3.994869	دیوبند	-0.01270373
-3.994869	دیوبندی	-0.01270373
-3.994869	دیوداس	-0.01270373
-3.994869	دیول	-0.01270373
-3.994869	دیومالائی	-0.01270373
-3.994869	دیوہیکل	-0.01270373
-3.994869	دیوی	-0.01270373
-3.216661	دیکھ	-0.3137337
-3.994869	دیکھئے	-0.01270373
-3.392758	دیکھا	-0.01270373
-3.994869	دیکھتے	-0.01270373
-3.994869	دیکھنے	-0.01270373
-3.994869	دیکھو	-0.01270373
-3.994869	دیکھوں	-0.01270373
-3.517702	دیکھی	-0.01270373
-3.517702	دیکھیں	-0.489825
-3.994869	دیکھیے	-0.01270373
-3.994869	دیکھے	-0.01270373
-3.994869	دیگر	-0.01270373
-3.994869	دیگچی	-0.01270373
-3.149713	دیں	-0.3806805
-3.994869	دیہاتیوں	-0.01270373
-3.295844	دیے	-0.1096137
-3.392758	دے	-0.01270373
-3.994869	ذاد	-0.01270373
-3.994869	ذادہ	-0.01270373
-3.994869	ذخائر	-0.01270373
-3.994869	ذخیرہ	-0.01270373
-3.994869	ذریعہ	-0.01270373
-3.994869	ذریعے	-0.01270373
-3.994869	ذوالجلال	-0.01270373
-3.994869	ذوالجناح	-0.01270373
-3.994869	ذوالفقار	-0.01270373
-3.994869	ذوق	-0.01270373
-3.994869	ذکر	-0.01270373
-3.994869	ذہن	-0.01270373
-3.693805	ذہنی	-0.01270373
-3.994869	ذیشان	-0.01270373
-3.994869	ذیل	-0.01270373
-3.994869	رؤف	-0.01270373
-3.994869	رئیس	-0.01270373
-3.994869	رئیل	-0.01270373
-3.994869	راؤ	-0.01270373
-3.994869	راؤنڈر	-0.01270373
-3.994869	رائج	-0.01270373
-3.994869	رائگاں	-0.01270373
-3.994869	رائیگاں	-0.01270373
-3.994869	رائے	-0.01270373
-3.994869	رابطے	-0.01270373
-3.994869	رابعہ	-0.01270373
-3.994869	راجباہوں	-0.01270373
-3.994869	راجن	-0.01270373
-3.994869	راجیہ	-0.01270373
-3.994869	راجے	-0.01270373
-3.994869	رازداں	-0.01270373
-3.994869	رازق	-0.01270373
-3.994869	راستے	-0.01270373
-3.994869	راسخ	-0.01270373
-3.994869	راشد	-0.01270373
-3.994869	راغب	-0.01270373
-3.994869	رافعہ	-0.01270373
-3.994869	راقم	-0.01270373
-3.994869	رانجھا	-0.01270373
-3.994869	رانجھن	-0.01270373
-3.994869	راولا	-0.01270373
-3.994869	راوی	-0.01270373
-3.994869	راٹھور	-0.01270373
-3.994869	راگ	-0.01270373
-3.994869	راہبر	-0.01270373
-3.994869	راہداری	-0.01270373
-3.994869	راہو	-0.01270373
-3.693805	راہگیر	-0.01270373
-3.994869	رباب	-0.01270373
-3.994869	ربیعہ	-0.01270373
-3.994869	رتھ	-0.01270373
-3.693805	رجحان	-0.01270373
-3.994869	رجسٹریشن	-0.01270373
-3.994869	رجوع	-0.01270373
-3.994869	رحم	-0.01270373
-3.994869	رحمت	-0.01270373
-3.994869	رحیل	-0.01270373
-3.994869	رحیم	-0.01270373
-3.994869	رخ	-0.01270373
-3.994869	رخساروں	-0.01270373
-3.994869	رخشندہ	-0.01270373
-3.994869	رخصت	-0.01270373
-3.994869	رخنہ	-0.01270373
-3.994869	رخوں	-0.01270373
-3.994869	ردعمل	-0.01270373
-3.994869	ردیف	-0.01270373
-3.693805	رزاق	-0.01270373
-3.994869	رزق	-0.01270373
-3.994869	رزلٹ	-0.01270373
-3.994869	رساؤ	-0.01270373
-3.994869	رسوئی	-0.01270373
-3.994869	رسوائی	-0.01270373
-3.994869	رسول	-0.01270373
-3.994869	رسولی	-0.01270373
-3.994869	رسیا	-0.01270373
-3.693805	رسیدہ	-0.01270373
-3.994869	رشدی	-0.01270373
-3.994869	رشید	-0.01270373
-3.994869	رضا	-0.01270373
-3.994869	رضوان	-0.01270373
-3.994869	رضوی	-0.01270373
-3.994869	رعائتیں	-0.01270373
-3.693805	رعایت	-0.01270373
-3.994869	رعشہ	-0.01270373
-3.994869	رعیت	-0.01270373
-3.994869	رغبت	-0.01270373
-3.994869	رفتار	-0.01270373
-3.994869	رفعت	-0.01270373
-3.994869	رفو	-0.01270373
-3.994869	رفیعہ	-0.01270373
-3.994869	رفیق	-0.01270373
-3.994869	رفیوجی	-0.01270373
-3.994869	رقاصاؤں	-0.01270373
-3.994869	رقص	-0.01270373
-3.994869	رقصاں	-0.01270373
-3.994869	رقم	-0.01270373
-3.994869	رقوم	-0.01270373
-3.994869	رقیب	-0.01270373
-3.994869	رقیہ	-0.01270373
-3.994869	رم	-0.01270373
-3.994869	رمزی	-0.01270373
-3.994869	رنجش	-0.01270373
-3.994869	رنجیدہ	-0.01270373
-3.994869	رندھاوا	-0.01270373
-3.994869	رنز	-0.01270373
-3.994869	رنگ	-0.01270373
-3.994869	رنگوں	-0.01270373
-3.994869	رنگیلا	-0.01270373
-3.994869	رنگین	-0.01270373
-3.693805	رو	-0.01270373
-3.994869	روؤں	-0.01270373
-3.994869	روئی	-0.01270373
-3.994869	روئیداد	-0.01270373
-3.994869	روئیں	-0.01270373
-3.994869	روات	-0.01270373
-3.693805	رواں	-0.01270373
-3.994869	روایت	-0.01270373
-3.994869	روحانی	-0.01270373
-3.994869	روحیں	-0.01270373
-3.994869	رود	-0.01270373
-3.994869	روز	-0.01270373
-3.994869	روزافزوں	-0.01270373
-3.994869	روزانہ	-0.01270373
-3.994869	روزبروز	-0.01270373
-3.994869	روزمرہ	-0.01270373
-3.994869	روزنامہ	-0.01270373
-3.994869	روزوں	-0.01270373
-3.994869	روزگار	-0.01270373
-3.994869	روزہ	-0.01270373
-3.994869	روزے	-0.01270373
-3.994869	روسی	-0.01270373
-3.994869	روش	-0.01270373
-3.994869	روشن	-0.01270373
-3.994869	روشناس	-0.01270373
-3.994869	روشنی	-0.01270373
-3.994869	روشنیوں	-0.01270373
-3.994869	روضہ	-0.01270373
-3.994869	روضے	-0.01270373
-3.994869	روغن	-0.01270373
-3.994869	روغنیات	-0.01270373
-3.994869	رول	-0.01270373
-3.994869	رولز	-0.01270373
-3.994869	رونق	-0.01270373
-3.994869	رونگٹے	-0.01270373
-3.994869	رونے	-0.01270373
-3.994869	روور	-0.01270373
-3.994869	روٹھ	-0.01270373
-3.994869	روٹھیں	-0.01270373
-3.994869	روپے	-0.01270373
-3.994869	روڈ	-0.01270373
-3.994869	روگردانی	-0.01270373
-3.994869	روہی	-0.01270373
-3.994869	رویا	-0.01270373
-3.994869	رویت	-0.01270373
-3.994869	رویوں	-0.01270373
-3.994869	رویہ	-0.01270373
-3.994869	رویے	-0.01270373
-3.994869	روے	-0.01270373
-3.994869	رپورتاژ	-0.01270373
-3.693805	رپورٹ	-0.01270373
-3.994869	رچاؤ	-0.01270373
-3.994869	رکن	-0.01270373
-3.693805	رکھ	-0.01270373
-3.693805	رکھا	-0.3137337
-3.994869	رکھاؤ	-0.01270373
-3.392758	رکھتا	-0.3137337
-3.994869	رکھتے	-0.01270373
-3.392758	رکھنے	-0.1376424
-3.693805	رکھو	-0.3137337
-3.994869	رکھوا	-0.01270373
-3.994869	رکھوں	-0.01270373
-3.693805	رکھی	-0.01270373
-3.994869	رکھیو	-0.01270373
-3.994869	رکھیں	-0.01270373
-3.994869	رکھیے	-0.01270373
-3.693805	رکھے	-0.01270373
-3.994869	رگ	-0.01270373
-3.994869	رگڑیں	-0.01270373
-3.693805	رہ	-0.01270373
-3.091719	رہا	-0.3137337
-3.693805	رہائش	-0.01270373
-3.693805	رہائشی	-0.01270373
-3.994869	رہتے	-0.01270373
-3.994869	رہزنی	-0.01270373
-3.994869	رہنما	-0.01270373
-3.994869	رہنماؤں	-0.01270373
-3.994869	رہو	-0.01270373
-3.216661	رہی	-0.2557418
-3.517702	رہیں	-0.188795
-3.040566	رہے	-0.3648863
-3.994869	ریاست	-0.01270373
-3.994869	ریاض	-0.01270373
-3.994869	ریان	-0.01270373
-3.994869	ریجنل	-0.01270373
-3.994869	ریحانہ	-0.01270373
-3.994869	ریزرو	-0.01270373
-3.994869	ریزروز	-0.01270373
-3.994869	ریزولوشن	-0.01270373
-3.994869	ریسرچ	-0.01270373
-3.994869	ریسلینگ	-0.01270373
-3.994869	ریسورس	-0.01270373
-3.994869	ریسٹورنٹ	-0.01270373
-3.994869	ریسپشنسٹ	-0.01270373
-3.994869	ریسکیو	-0.01270373
-3.994869	ریسیور	-0.01270373
-3.994869	ریشمی	-0.01270373
-3.994869	ریشوں	-0.01270373
-3.994869	ریفرنڈم	-0.01270373
-3.994869	ریلی	-0.01270373
-3.994869	ریلیز	-0.01270373
-3.994869	ریلیف	-0.01270373
-3.994869	ریلیکس	-0.01270373
-3.994869	ریمبو	-0.01270373
-3.994869	رینجرز	-0.01270373
-3.994869	رینگتی	-0.01270373
-3.994869	رینگتے	-0.01270373
-3.994869	ریورس	-0.01270373
-3.994869	ریونیو	-0.01270373
-3.994869	ریوڑ	-0.01270373
-3.994869	ریٹائرمنٹ	-0.01270373
-3.994869	ریٹائرڈ	-0.01270373
-3.994869	ریچھ	-0.01270373
-3.994869	ریچھوں	-0.01270373
-3.994869	ریڈ	-0.01270373
-3.994869	ریڈیو	-0.01270373
-3.994869	ریڑھ	-0.01270373
-3.994869	ریڑھی	-0.01270373
-3.994869	ریڑھیاں	-0.01270373
-3.693805	ریکارڈ	-0.01270373
-3.994869	ریگن	-0.01270373
-3.994869	ریگولر	-0.01270373
-3.994869	زائد	-0.01270373
-3.994869	زاویوں	-0.01270373
-3.994869	زاید	-0.01270373
-3.994869	زباں	-0.01270373
-3.994869	زبردست	-0.01270373
-3.994869	زبوں	-0.01270373
-3.994869	زخمی	-0.01270373
-3.693805	زدہ	-0.01270373
-3.994869	زراعت	-0.01270373
-3.994869	زرخیز	-0.01270373
-3.994869	زرقاوی	-0.01270373
-3.994869	زرمبادلہ	-0.01270373
-3.994869	زعما	-0.01270373
-3.994869	زلزلے	-0.01270373
-3.994869	زلفوں	-0.01270373
-3.994869	زلفی	-0.01270373
-3.994869	زلفیں	-0.01270373
-3.994869	زلیخا	-0.01270373
-3.994869	زمرے	-0.01270373
-3.517702	زمین	-0.01270373
-3.994869	زمینداروں	-0.01270373
-3.994869	زنجیر	-0.01270373
-3.994869	زنخوں	-0.01270373
-3.517702	زندگی	-0.01270373
-3.693805	زنگ	-0.3137337
-3.994869	زوار	-0.01270373
-3.994869	زوال	-0.01270373
-3.994869	زوجہ	-0.01270373
-3.994869	زوجیت	-0.01270373
-3.994869	زوجین	-0.01270373
-3.994869	زود	-0.01270373
-3.994869	زودحس	-0.01270373
-3.693805	زور	-0.01270373
-3.994869	زوردار	-0.01270373
-3.994869	زون	-0.01270373
-3.994869	زچ	-0.01270373
-3.994869	زچگی	-0.01270373
-3.994869	زہریلی	-0.01270373
-3.517702	زیادہ	-0.01270373
-3.994869	زیب	-0.01270373
-3.994869	زیبرا	-0.01270373
-3.994869	زیدی	-0.01270373
-3.693805	زیر	-0.01270373
-3.994869	زیرآب	-0.01270373
-3.994869	زیراستعمال	-0.01270373
-3.994869	زیرانتظام	-0.01270373
-3.994869	زیراہتمام	-0.01270373
-3.994869	زیردست	-0.01270373
-3.994869	زیرعنوان	-0.01270373
-3.994869	زیرغور	-0.01270373
-3.994869	زیرقیادت	-0.01270373
-3.994869	زیریں	-0.01270373
-3.994869	زیست	-0.01270373
-3.994869	زین	-0.01270373
-3.994869	زیور	-0.01270373
-3.994869	زیورات	-0.01270373
-3.994869	زیڈ	-0.01270373
-3.994869	ساؤتھ	-0.01270373
-3.994869	ساؤڑی	-0.01270373
-3.994869	سائبان	-0.01270373
-3.994869	سائبرپیڈیا	-0.01270373
-3.994869	سائنسدانوں	-0.01270373
-3.994869	سائیڈ	-0.01270373
-3.994869	سائیکل	-0.01270373
-3.994869	سائیں	-0.01270373
-3.994869	سائے	-0.01270373
-3.994869	سابق	-0.01270373
-3.994869	ساتویں	-0.01270373
-3.693805	ساتھ	-0.01270373
-3.994869	ساتھی	-0.01270373
-3.994869	ساتھیو	-0.01270373
-3.693805	ساتھیوں	-0.01270373
-3.693805	ساجد	-0.01270373
-3.994869	ساحل	-0.01270373
-3.994869	ساخت	-0.01270373
-3.994869	ساختہ	-0.01270373
-3.994869	سادھو	-0.01270373
-3.994869	سارز	-0.01270373
-3.994869	ساری	-0.01270373
-3.994869	ساریو	-0.01270373
-3.994869	ساز	-0.01270373
-3.994869	سازباز	-0.01270373
-3.994869	سازوسامان	-0.01270373
-3.994869	سازگار	-0.01270373
-3.994869	ساعت	-0.01270373
-3.693805	ساغر	-0.01270373
-3.693805	سال	-0.01270373
-3.994869	سالمیت	-0.01270373
-3.994869	سالگرہ	-0.01270373
-3.994869	سالہ	-0.01270373
-3.994869	سالہاسال	-0.01270373
-3.994869	سامان	-0.01270373
-3.994869	سامعین	-0.01270373
-3.392758	سامنے	-0.01270373
-3.994869	سانحوں	-0.01270373
-3.994869	سانحے	-0.01270373
-3.994869	سانسوں	-0.01270373
-3.994869	سانسیں	-0.01270373
-3.994869	سانولے	-0.01270373
-3.994869	سانگی	-0.01270373
-3.994869	ساٹھویں	-0.01270373
-3.994869	ساڑھے	-0.01270373
-3.994869	ساگر	-0.01270373
-3.994869	سایہ	-0.01270373
-3.994869	سب	-0.01270373
-3.994869	سبب	-0.01270373
-3.994869	سبجیکٹ	-0.01270373
-3.994869	سبز	-0.01270373
-3.994869	سبزواری	-0.01270373
-3.994869	سبزی	-0.01270373
-3.693805	سبزیوں	-0.01270373
-3.994869	سبسڈی	-0.01270373
-3.693805	سبھا	-0.01270373
-3.994869	ستانویں	-0.01270373
-3.994869	سترھویں	-0.01270373
-3.994869	ستھرا	-0.01270373
-3.994869	ستھرے	-0.01270373
-3.994869	سجاتے	-0.01270373
-3.994869	سجاد	-0.01270373
-3.994869	سجدہ	-0.01270373
-3.994869	سجھائی	-0.01270373
-3.994869	سجی	-0.01270373
-3.994869	سحر	-0.01270373
-3.994869	سخت	-0.01270373
-3.994869	سخن	-0.01270373
-3.994869	سدباب	-0.01270373
-3.994869	سدھ	-0.01270373
-3.994869	سدھریں	-0.01270373
-3.994869	سدھو	-0.01270373
-3.994869	سدھیر	-0.01270373
-3.994869	سربراہ	-0.01270373
-3.994869	سرحد	-0.01270373
-3.994869	سرخ	-0.01270373
-3.994869	سرخرو	-0.01270373
-3.994869	سرخی	-0.01270373
-3.994869	سرخیل	-0.01270373
-3.994869	سردخانے	-0.01270373
-3.994869	سرزمین	-0.01270373
-3.994869	سرعام	-0.01270373
-3.994869	سرفراز	-0.01270373
-3.994869	سرفہرست	-0.01270373
-3.994869	سرمایے	-0.01270373
-3.994869	سرنجیں	-0.01270373
-3.994869	سرور	-0.01270373
-3.994869	سروس	-0.01270373
-3.994869	سرونٹ	-0.01270373
-3.994869	سروں	-0.01270373
-3.994869	سرویئر	-0.01270373
-3.994869	سروے	-0.01270373
-3.994869	سرکا	-0.01270373
-3.994869	سرکاری	-0.01270373
-3.994869	سرگرمیوں	-0.01270373
-3.994869	سرہندی	-0.01270373
-3.693805	سزا	-0.01270373
-3.994869	سزائیں	-0.01270373
-3.994869	سست	-0.01270373
-3.994869	سسرال	-0.01270373
-3.994869	سسٹم	-0.01270373
-3.994869	سعادت	-0.01270373
-3.994869	سعودی	-0.01270373
-3.994869	سعید	-0.01270373
-3.994869	سفر	-0.01270373
-3.994869	سفوف	-0.01270373
-3.994869	سفید	-0.01270373
-3.994869	سفیدی	-0.01270373
-3.994869	سفیدے	-0.01270373
-3.994869	سفیر	-0.01270373
-3.994869	سقوط	-0.01270373
-3.994869	سلائیڈنگ	-0.01270373
-3.994869	سلجھائیں	-0.01270373
-3.994869	سلسلے	-0.01270373
-3.994869	سلطان	-0.01270373
-3.994869	سلفیٹ	-0.01270373
-3.994869	سلور	-0.01270373
-3.994869	سلوک	-0.01270373
-3.994869	سلیولائیٹ	-0.01270373
-3.994869	سماجی	-0.01270373
-3.994869	سماوی	-0.01270373
-3.994869	سمتھ	-0.01270373
-3.693805	سمجھ	-0.01270373
-3.693805	سمجھا	-0.01270373
-3.994869	سمجھائیں	-0.01270373
-3.994869	سمجھائے	-0.01270373
-3.994869	سمجھانے	-0.01270373
-3.994869	سمجھایا	-0.01270373
-3.994869	سمجھتے	-0.01270373
-3.994869	سمجھدار	-0.01270373
-3.994869	سمجھنے	-0.01270373
-3.994869	سمجھو	-0.01270373
-3.994869	سمجھوتہ	-0.01270373
-3.994869	سمجھی	-0.01270373
-3.994869	سمجھیں	-0.01270373
-3.994869	سمجھے	-0.01270373
-3.994869	سمفنی	-0.01270373
-3.994869	سموئے	-0.01270373
-3.994869	سموسے	-0.01270373
-3.994869	سمویا	-0.01270373
-3.994869	سمگلروں	-0.01270373
-3.994869	سمگلنگ	-0.01270373
-3.517702	سمیت	-0.01270373
-3.693805	سن	-0.3137337
-3.693805	سنئے	-0.01270373
-3.994869	سنائی	-0.01270373
-3.994869	سنایا	-0.01270373
-3.693805	سنبھال	-0.01270373
-3.994869	سنبھل	-0.01270373
-3.994869	سنبھلی	-0.01270373
-3.994869	سنتا	-0.01270373
-3.994869	سندھو	-0.01270373
-3.994869	سندھی	-0.01270373
-3.994869	سندھیوں	-0.01270373
-3.994869	سنو	-0.01270373
-3.994869	سنوارا	-0.01270373
-3.994869	سنور	-0.01270373
-3.994869	سنٹر	-0.01270373
-3.994869	سنچری	-0.01270373
-3.994869	سنچریاں	-0.01270373
-3.994869	سنگباری	-0.01270373
-3.994869	سنگسار	-0.01270373
-3.994869	سنگل	-0.01270373
-3.994869	سنگھ	-0.01270373
-3.994869	سنگھار	-0.01270373
-3.994869	سنگھاسن	-0.01270373
-3.994869	سنگھاڑے	-0.01270373
-3.994869	سنگین	-0.01270373
-3.994869	سنیں	-0.01270373
-3.994869	سنے	-0.01270373
-3.994869	سو	-0.01270373
-3.994869	سوئس	-0.01270373
-3.994869	سوئفٹ	-0.01270373
-3.994869	سوئم	-0.01270373
-3.994869	سوئمنگ	-0.01270373
-3.994869	سوئنگ	-0.01270373
-3.994869	سوئٹرز	-0.01270373
-3.994869	سوئچ	-0.01270373
-3.994869	سوئی	-0.01270373
-3.994869	سوئیوں	-0.01270373
-3.994869	سوئیں	-0.01270373
-3.994869	سوئے	-0.01270373
-3.994869	سوا	-0.01270373
-3.994869	سوال	-0.01270373
-3.994869	سوبرز	-0.01270373
-3.994869	سوجن	-0.01270373
-3.994869	سوجنے	-0.01270373
-3.994869	سوجھ	-0.01270373
-3.994869	سوجھی	-0.01270373
-3.994869	سوجی	-0.01270373
-3.994869	سوختہ	-0.01270373
-3.994869	سود	-0.01270373
-3.994869	سودا	-0.01270373
-3.994869	سوراخ	-0.01270373
-3.994869	سورج	-0.01270373
-3.994869	سورما	-0.01270373
-3.994869	سوری	-0.01270373
-3.994869	سوزش	-0.01270373
-3.994869	سوزوکی	-0.01270373
-3.994869	سوسائٹی	-0.01270373
-3.994869	سوسو	-0.01270373
-3.994869	سوشل	-0.01270373
-3.994869	سوشلزم	-0.01270373
-3.994869	سوغات	-0.01270373
-3.994869	سول	-0.01270373
-3.994869	سولجر	-0.01270373
-3.994869	سولنگ	-0.01270373
-3.994869	سوم	-0.01270373
-3.994869	سومرو	-0.01270373
-3.994869	سونامی	-0.01270373
-3.994869	سونف	-0.01270373
-3.994869	سونپی	-0.01270373
-3.994869	سونگ	-0.01270373
-3.994869	سونگھنے	-0.01270373
-3.994869	سونے	-0.01270373
-3.994869	سوواں	-0.01270373
-3.994869	سوویت	-0.01270373
-3.693805	سوویں	-0.01270373
-3.693805	سوچ	-0.01270373
-3.693805	سوچا	-0.01270373
-3.994869	سوچنے	-0.01270373
-3.994869	سوچو	-0.01270373
-3.994869	سوچوں	-0.01270373
-3.994869	سوچیں	-0.01270373
-3.994869	سوچیے	-0.01270373
-3.994869	سوچے	-0.01270373
-3.994869	سوڈا	-0.01270373
-3.994869	سوک	-0.01270373
-3.994869	سوکھ	-0.01270373
-3.994869	سوکھا	-0.01270373
-3.994869	سوکھنے	-0.01270373
-3.994869	سوکھی	-0.01270373
-3.994869	سوکھے	-0.01270373
-3.994869	سوگوار	-0.01270373
-3.994869	سوں	-0.01270373
-3.994869	سویا	-0.01270373
-3.994869	سویاں	-0.01270373
-3.994869	سویرا	-0.01270373
-3.994869	سویرے	-0.01270373
-3.994869	سویلین	-0.01270373
-3.994869	سویٹر	-0.01270373
-3.994869	سویڈش	-0.01270373
-3.994869	سَیل	-0.01270373
-3.994869	سِکھوں	-0.01270373
-3.994869	سٹرلنگ	-0.01270373
-3.994869	سٹوڈنٹ	-0.01270373
-3.994869	سٹوڈنٹس	-0.01270373
-3.693805	سٹوڈیوز	-0.3137337
-3.994869	سٹیڈیم	-0.01270373
-3.994869	سپاسنامہ	-0.01270373
-3.994869	سپاہیوں	-0.01270373
-3.994869	سپردخاک	-0.01270373
-3.994869	سپرنٹنڈنٹ	-0.01270373
-3.994869	سپننگ	-0.01270373
-3.994869	سپیل	-0.01270373
-3.994869	سچ	-0.01270373
-3.994869	سچائی	-0.01270373
-3.994869	سچل	-0.01270373
-3.994869	سڑنے	-0.01270373
-3.994869	سڑک	-0.01270373
-3.517702	سکتا	-0.3137337
-3.517702	سکتی	-0.188795
-3.693805	سکتیں	-0.3137337
-3.693805	سکتے	-0.01270373
-3.994869	سکنجبین	-0.01270373
-3.994869	سکواڈرن	-0.01270373
-3.994869	سکورز	-0.01270373
-3.693805	سکول	-0.01270373
-3.994869	سکولز	-0.01270373
-3.994869	سکولوں	-0.01270373
-3.994869	سکھی	-0.01270373
-3.994869	سکیپ	-0.01270373
-3.994869	سکیں	-0.01270373
-3.994869	سکے	-0.01270373
-3.994869	سگریٹ	-0.01270373
-3.994869	سگھڑ	-0.01270373
-3.994869	سگے	-0.01270373
-3.994869	سہارے	-0.01270373
-3.994869	سہاگہ	-0.01270373
-3.994869	سہولت	-0.01270373
-3.994869	سہیلی	-0.01270373
-3.994869	سی	-0.01270373
-3.994869	سیاح	-0.01270373
-3.994869	سیاحت	-0.01270373
-3.994869	سیاروں	-0.01270373
-3.994869	سیارے	-0.01270373
-3.994869	سیاست	-0.01270373
-3.693805	سیاسی	-0.01270373
-3.994869	سیب	-0.01270373
-3.994869	سیج	-0.01270373
-3.994869	سید	-0.01270373
-3.693805	سیدھا	-0.01270373
-3.994869	سیدھے	-0.01270373
-3.994869	سیدہ	-0.01270373
-3.994869	سیر	-0.01270373
-3.994869	سیراب	-0.01270373
-3.994869	سیرت	-0.01270373
-3.994869	سیروسیاحت	-0.01270373
-3.994869	سیرگاہ	-0.01270373
-3.994869	سیریز	-0.01270373
-3.994869	سیریلز	-0.01270373
-3.994869	سیزن	-0.01270373
-3.994869	سیسموگراف	-0.01270373
-3.994869	سیسمک	-0.01270373
-3.994869	سیسے	-0.01270373
-3.994869	سیشن	-0.01270373
-3.994869	سیف	-0.01270373
-3.994869	سیفٹی	-0.01270373
-3.994869	سیل	-0.01270373
-3.994869	سیلرز	-0.01270373
-3.693805	سیلز	-0.3137337
-3.994869	سیلزمین	-0.01270373
-3.994869	سیمی	-0.01270373
-3.994869	سیمینار	-0.01270373
-3.994869	سینئر	-0.01270373
-3.994869	سینما	-0.01270373
-3.693805	سینٹر	-0.01270373
-3.994869	سینڈوچ	-0.01270373
-3.994869	سینکڑوں	-0.01270373
-3.994869	سینگ	-0.01270373
-3.994869	سینیٹ	-0.01270373
-3.994869	سیو	-0.01270373
-3.994869	سیورج	-0.01270373
-3.994869	سیون	-0.01270373
-3.994869	سیونگ	-0.01270373
-3.994869	سیٹھ	-0.01270373
-3.994869	سیٹھی	-0.01270373
-3.994869	سیڈ	-0.01270373
-3.994869	سیڑھیاں	-0.01270373
-3.994869	سیڑھیوں	-0.01270373
-3.994869	سیکشن	-0.01270373
-3.994869	سیکورٹی	-0.01270373
-3.994869	سیکھ	-0.01270373
-3.994869	سیکھا	-0.01270373
-3.693805	سیکھنے	-0.01270373
-3.994869	سیکھو	-0.01270373
-3.994869	سیکھی	-0.01270373
-3.994869	سیکھیں	-0.01270373
-3.994869	سیکھے	-0.01270373
-1.566666	سے	-0.04199311
-3.994869	شائد	-0.01270373
-3.994869	شائع	-0.01270373
-3.994869	شائقین	-0.01270373
-3.994869	شائیں	-0.01270373
-3.693805	شاخ	-0.01270373
-3.994869	شاخسانہ	-0.01270373
-3.994869	شاخوں	-0.01270373
-3.994869	شاخیں	-0.01270373
-3.994869	شادی	-0.01270373
-3.994869	شاذ	-0.01270373
-3.693805	شاعر	-0.01270373
-3.994869	شالا	-0.01270373
-3.994869	شامل	-0.01270373
-3.994869	شاندار	-0.01270373
-3.994869	شاگرد	-0.01270373
-3.693805	شاہ	-0.01270373
-3.994869	شاہد	-0.01270373
-3.994869	شاہراہ	-0.01270373
-3.994869	شاہنواز	-0.01270373
-3.994869	شاہین	-0.01270373
-3.994869	شب	-0.01270373
-3.994869	شبلی	-0.01270373
-3.994869	شبہ	-0.01270373
-3.994869	شبہات	-0.01270373
-3.994869	شبہے	-0.01270373
-3.994869	شجاعت	-0.01270373
-3.994869	شجر	-0.01270373
-3.693805	شخص	-0.01270373
-3.994869	شخصیت	-0.01270373
-3.994869	شخصے	-0.01270373
-3.994869	شدت	-0.01270373
-3.994869	شدھی	-0.01270373
-3.693805	شدہ	-0.01270373
-3.994869	شدید	-0.01270373
-3.994869	شرحوں	-0.01270373
-3.517702	شروع	-0.01270373
-3.994869	شروعات	-0.01270373
-3.994869	شرکت	-0.01270373
-3.693805	شریف	-0.01270373
-3.994869	شریفین	-0.01270373
-3.994869	شستہ	-0.01270373
-3.994869	شش	-0.01270373
-3.994869	ششدر	-0.01270373
-3.994869	شعائر	-0.01270373
-3.994869	شعار	-0.01270373
-3.994869	شعاع	-0.01270373
-3.994869	شعاعوں	-0.01270373
-3.994869	شعبوں	-0.01270373
-3.994869	شعبہ	-0.01270373
-3.994869	شعر	-0.01270373
-3.994869	شعرا	-0.01270373
-3.994869	شعروادب	-0.01270373
-3.994869	شعری	-0.01270373
-3.994869	شعلوں	-0.01270373
-3.994869	شعلے	-0.01270373
-3.994869	شعور	-0.01270373
-3.693805	شعوری	-0.01270373
-3.994869	شغل	-0.01270373
-3.994869	شفاعت	-0.01270373
-3.994869	شفاف	-0.01270373
-3.994869	شفقت	-0.01270373
-3.994869	شفیق	-0.01270373
-3.994869	شل	-0.01270373
-3.994869	شلجم	-0.01270373
-3.994869	شمار	-0.01270373
-3.994869	شماریات	-0.01270373
-3.994869	شمس	-0.01270373
-3.994869	شمسی	-0.01270373
-3.994869	شمشاد	-0.01270373
-3.994869	شمولیت	-0.01270373
-3.994869	شناخت	-0.01270373
-3.994869	شناسی	-0.01270373
-3.994869	شنید	-0.01270373
-3.994869	شو	-0.01270373
-3.994869	شوالا	-0.01270373
-3.994869	شواہد	-0.01270373
-3.994869	شوخ	-0.01270373
-3.994869	شوخی	-0.01270373
-3.693805	شور	-0.01270373
-3.994869	شوربہ	-0.01270373
-3.994869	شوروم	-0.01270373
-3.994869	شوز	-0.01270373
-3.994869	شوشہ	-0.01270373
-3.994869	شوق	-0.01270373
-3.994869	شون	-0.01270373
-3.994869	شوکت	-0.01270373
-3.994869	شوکیسوں	-0.01270373
-3.994869	شوگر	-0.01270373
-3.994869	شوہر	-0.01270373
-3.693805	شکار	-0.01270373
-3.994869	شگاف	-0.01270373
-3.994869	شگفتہ	-0.01270373
-3.994869	شگوفوں	-0.01270373
-3.994869	شگوفے	-0.01270373
-3.994869	شگون	-0.01270373
-3.994869	شہاب	-0.01270373
-3.994869	شہابیے	-0.01270373
-3.994869	شہباز	-0.01270373
-3.693805	شہر	-0.01270373
-3.994869	شہرت	-0.01270373
-3.994869	شہروں	-0.01270373
-3.994869	شہرہ	-0.01270373
-3.994869	شہری	-0.01270373
-3.994869	شہریوں	-0.01270373
-3.994869	شہزاد	-0.01270373
-3.994869	شہزادی	-0.01270373
-3.994869	شہید	-0.01270373
-3.994869	شیئر	-0.01270373
-3.994869	شیئرنگ	-0.01270373
-3.994869	شیخ	-0.01270373
-3.994869	شیخی	-0.01270373
-3.994869	شیدائی	-0.01270373
-3.994869	شیر	-0.01270373
-3.994869	شیرخوار	-0.01270373
-3.994869	شیروانی	-0.01270373
-3.994869	شیرٹن	-0.01270373
-3.994869	شیریں	-0.01270373
-3.994869	شیرے	-0.01270373
-3.994869	شیشوں	-0.01270373
-3.994869	شیشے	-0.01270373
-3.994869	شیعہ	-0.01270373
-3.994869	شیفرڈ	-0.01270373
-3.994869	شیل	-0.01270373
-3.994869	شیلٹر	-0.01270373
-3.994869	شیلڈ	-0.01270373
-3.994869	شیلڈیں	-0.01270373
-3.994869	شیم	-0.01270373
-3.994869	شیمپو	-0.01270373
-3.994869	شیو	-0.01270373
-3.994869	شیوخ	-0.01270373
-3.994869	شیڈ	-0.01270373
-3.994869	شیڈو	-0.01270373
-3.994869	شیڈول	-0.01270373
-3.994869	شے	-0.01270373
-3.994869	صابر	-0.01270373
-3.149713	صاحب	-0.01270374
-3.994869	صادق	-0.01270373
-3.994869	صارفین	-0.01270373
-3.693805	صاف	-0.01270373
-3.994869	صبح	-0.01270373
-3.994869	صبحیں	-0.01270373
-3.994869	صبر	-0.01270373
-3.994869	صبروتحمل	-0.01270373
-3.994869	صبغت	-0.01270373
-3.994869	صبوحی	-0.01270373
-3.994869	صحافیوں	-0.01270373
-3.994869	صحبت	-0.01270373
-3.994869	صحبتوں	-0.01270373
-3.994869	صحت	-0.01270373
-3.994869	صحتمند	-0.01270373
-3.994869	صحیح	-0.01270373
-3.994869	صداقت	-0.01270373
-3.693805	صدر	-0.01270373
-3.994869	صدور	-0.01270373
-3.994869	صدیاں	-0.01270373
-3.994869	صدیقی	-0.01270373
-3.994869	صدیقین	-0.01270373
-3.994869	صدیوں	-0.01270373
-3.517702	صرف	-0.01270373
-3.994869	صعوبتیں	-0.01270373
-3.994869	صغری	-0.01270373
-3.994869	صغیر	-0.01270373
-3.994869	صفائی	-0.01270373
-3.994869	صفحوں	-0.01270373
-3.994869	صفحہ	-0.01270373
-3.994869	صفحے	-0.01270373
-3.994869	صفر	-0.01270373
-3.994869	صفوں	-0.01270373
-3.994869	صفیں	-0.01270373
-3.994869	صلاحیت	-0.01270373
-3.994869	صلاحیتیں	-0.01270373
-3.994869	صلح	-0.01270373
-3.994869	صنف	-0.01270373
-3.994869	صوبائی	-0.01270373
-3.994869	صوبوں	-0.01270373
-3.693805	صورت	-0.01270373
-3.994869	صورتحال	-0.01270373
-3.994869	صوفی	-0.01270373
-3.994869	صوفیانہ	-0.01270373
-3.994869	صوفیہ	-0.01270373
-3.994869	صیاد	-0.01270373
-3.994869	صیغہ	-0.01270373
-3.693805	صیہونی	-0.01270373
-3.994869	ضائع	-0.01270373
-3.994869	ضخیم	-0.01270373
-3.994869	ضد	-0.01270373
-3.693805	ضرورت	-0.01270373
-3.994869	ضروری	-0.01270373
-3.994869	ضروریات	-0.01270373
-3.994869	ضعف	-0.01270373
-3.994869	ضعیف	-0.01270373
-3.994869	ضلع	-0.01270373
-3.994869	ضلعی	-0.01270373
-3.994869	ضوفشاں	-0.01270373
-3.994869	ضیغم	-0.01270373
-3.994869	طاغوتی	-0.01270373
-3.994869	طالب	-0.01270373
-3.994869	طبعی	-0.01270373
-3.994869	طبیعت	-0.01270373
-3.994869	طرح	-0.01270373
-3.994869	طرحی	-0.01270373
-3.994869	طرزعمل	-0.01270373
-3.994869	طرزفکر	-0.01270373
-3.994869	طرف	-0.01270373
-3.994869	طرفین	-0.01270373
-3.693805	طریقہ	-0.01270373
-3.994869	طغیانی	-0.01270373
-3.693805	طفیل	-0.01270373
-3.994869	طلب	-0.01270373
-3.994869	طنزومزاح	-0.01270373
-3.693805	طور	-0.3137337
-3.994869	طوفان	-0.01270373
-3.994869	طوفاں	-0.01270373
-3.994869	طویل	-0.01270373
-3.994869	طیب	-0.01270373
-3.994869	طیبہ	-0.01270373
-3.517702	ظاہر	-0.01270373
-3.994869	ظریفی	-0.01270373
-3.994869	ظلم	-0.01270373
-3.994869	ظہر	-0.01270373
-3.994869	ظہور	-0.01270373
-3.994869	ظہیر	-0.01270373
-3.994869	عابد	-0.01270373
-3.693805	عارضی	-0.01270373
-3.994869	عاشق	-0.01270373
-3.994869	عاشور	-0.01270373
-3.994869	عالمی	-0.01270373
-3.994869	عالیشان	-0.01270373
-3.693805	عام	-0.01270373
-3.994869	عبدالحئی	-0.01270373
-3.994869	عبرت	-0.01270373
-3.994869	عبور	-0.01270373
-3.994869	عثمانی	-0.01270373
-3.994869	عجز	-0.01270373
-3.693805	عجلت	-0.01270373
-3.994869	عجیب	-0.01270373
-3.994869	عدالت	-0.01270373
-3.994869	عدل	-0.01270373
-3.994869	عدلیہ	-0.01270373
-3.693805	عذاب	-0.01270373
-3.994869	عراقی	-0.01270373
-3.994869	عرب	-0.01270373
-3.994869	عرس	-0.01270373
-3.994869	عرصہ	-0.01270373
-3.994869	عرصے	-0.01270373
-3.994869	عرضداشت	-0.01270373
-3.994869	عرف	-0.01270373
-3.994869	عرفان	-0.01270373
-3.994869	عروج	-0.01270373
-3.994869	عریاں	-0.01270373
-3.693805	عزت	-0.01270373
-3.994869	عزیز	-0.01270373
-3.994869	عزیزواقارب	-0.01270373
-3.994869	عشاق	-0.01270373
-3.994869	عشر	-0.01270373
-3.994869	عشرت	-0.01270373
-3.994869	عشروں	-0.01270373
-3.994869	عشرہ	-0.01270373
-3.994869	عشرے	-0.01270373
-3.994869	عشق	-0.01270373
-3.994869	عصیاں	-0.01270373
-3.994869	عضلات	-0.01270373
-3.994869	عظام	-0.01270373
-3.994869	عظمی	-0.01270373
-3.994869	عفت	-0.01270373
-3.994869	عفو	-0.01270373
-3.994869	عقاب	-0.01270373
-3.994869	عقلمندی	-0.01270373
-3.994869	عقوبت	-0.01270373
-3.994869	عقیل	-0.01270373
-3.994869	علاج	-0.01270373
-3.994869	علاقائی	-0.01270373
-3.994869	علاقوں	-0.01270373
-3.994869	علاقے	-0.01270373
-3.693805	علاوہ	-0.01270373
-3.517702	علم	-0.01270373
-3.994869	علوی	-0.01270373
-3.994869	علی	-0.01270373
-3.994869	علیحدہ	-0.01270373
-3.392758	عمر	-0.01270373
-3.994869	عمرقید	-0.01270373
-3.994869	عمریں	-0.01270373
-3.517702	عمل	-0.01270373
-3.994869	عملا	-0.01270373
-3.994869	عملی	-0.01270373
-3.994869	عموماً	-0.01270373
-3.994869	عمیق	-0.01270373
-3.994869	عندیہ	-0.01270373
-3.994869	عنوان	-0.01270373
-3.994869	عوام	-0.01270373
-3.994869	عود	-0.01270373
-3.994869	عورت	-0.01270373
-3.994869	عہدہ	-0.01270373
-3.994869	عہدیداروں	-0.01270373
-3.994869	عہدے	-0.01270373
-3.994869	عیادت	-0.01270373
-3.994869	عیاشی	-0.01270373
-3.994869	عیاں	-0.01270373
-3.994869	عیب	-0.01270373
-3.994869	عید	-0.01270373
-3.994869	غائب	-0.01270373
-3.994869	غافل	-0.01270373
-3.994869	غالب	-0.01270373
-3.994869	غاں	-0.01270373
-3.994869	غایت	-0.01270373
-3.994869	غبار	-0.01270373
-3.994869	غبن	-0.01270373
-3.994869	غدار	-0.01270373
-3.994869	غدود	-0.01270373
-3.994869	غدودوں	-0.01270373
-3.994869	غذا	-0.01270373
-3.994869	غذاؤں	-0.01270373
-3.994869	غذائی	-0.01270373
-3.994869	غرارے	-0.01270373
-3.994869	غربت	-0.01270373
-3.994869	غریب	-0.01270373
-3.994869	غزل	-0.01270373
-3.994869	غزلوں	-0.01270373
-3.994869	غزلیات	-0.01270373
-3.994869	غزلیں	-0.01270373
-3.994869	غزوہ	-0.01270373
-3.994869	غشی	-0.01270373
-3.994869	غصب	-0.01270373
-3.994869	غصہ	-0.01270373
-3.994869	غفلت	-0.01270373
-3.994869	غفور	-0.01270373
-3.994869	غلاف	-0.01270373
-3.994869	غلام	-0.01270373
-3.994869	غلط	-0.01270373
-3.994869	غلیل	-0.01270373
-3.994869	غم	-0.01270373
-3.994869	غنا	-0.01270373
-3.994869	غنودگی	-0.01270373
-3.994869	غنی	-0.01270373
-3.994869	غوث	-0.01270373
-3.517702	غور	-0.188795
-3.994869	غوروخوض	-0.01270373
-3.994869	غوغا	-0.01270373
-3.994869	غول	-0.01270373
-3.994869	غوں	-0.01270373
-3.994869	غیب	-0.01270373
-3.295844	غیر	-0.01270373
-3.994869	غیرت	-0.01270373
-3.994869	غیردانشمندانہ	-0.01270373
-3.994869	غیررسمی	-0.01270373
-3.994869	غیرضروری	-0.01270373
-3.994869	غیرفیصلہ	-0.01270373
-3.994869	غیرقانونی	-0.01270373
-3.994869	غیرملکی	-0.01270373
-3.994869	غیرنمایاں	-0.01270373
-3.994869	غیریقینی	-0.01270373
-3.994869	غیظ	-0.01270373
-3.994869	غیور	-0.01270373
-3.994869	فاؤل	-0.01270373
-3.994869	فاؤنٹین	-0.01270373
-3.994869	فاؤنڈیشن	-0.01270373
-3.994869	فائدہ	-0.01270373
-3.994869	فائر	-0.01270373
-3.994869	فائربریگیڈ	-0.01270373
-3.994869	فاجر	-0.01270373
-3.994869	فاخرہ	-0.01270373
-3.994869	فارسی	-0.01270373
-3.994869	فارغ	-0.01270373
-3.994869	فارم	-0.01270373
-3.994869	فارمولے	-0.01270373
-3.994869	فارورڈ	-0.01270373
-3.994869	فاروق	-0.01270373
-3.994869	فاریسٹ	-0.01270373
-3.994869	فاسفورس	-0.01270373
-3.994869	فاسفیٹ	-0.01270373
-3.994869	فاسٹ	-0.01270373
-3.994869	فاش	-0.01270373
-3.994869	فالوآن	-0.01270373
-3.994869	فتحیاب	-0.01270373
-3.994869	فجر	-0.01270373
-3.994869	فجور	-0.01270373
-3.994869	فحش	-0.01270373
-3.994869	فخر	-0.01270373
-3.994869	فدا	-0.01270373
-3.994869	فرائض	-0.01270373
-3.994869	فراخدلی	-0.01270373
-3.994869	فرانسیسی	-0.01270373
-3.994869	فراواں	-0.01270373
-3.994869	فراہم	-0.01270373
-3.994869	فرخندہ	-0.01270373
-3.994869	فرخی	-0.01270373
-3.994869	فردوس	-0.01270373
-3.994869	فرسودہ	-0.01270373
-3.994869	فرض	-0.01270373
-3.994869	فرعون	-0.01270373
-3.994869	فرقان	-0.01270373
-3.994869	فرقہ	-0.01270373
-3.994869	فرمائیں	-0.01270373
-3.994869	فرماں	-0.01270373
-3.994869	فرمایا	-0.01270373
-3.994869	فروخت	-0.01270373
-3.994869	فروزاں	-0.01270373
-3.994869	فروش	-0.01270373
-3.994869	فروغ	-0.01270373
-3.994869	فروگزاشت	-0.01270373
-3.994869	فریب	-0.01270373
-3.994869	فریقین	-0.01270373
-3.994869	فرینڈ	-0.01270373
-3.994869	فرینڈلی	-0.01270373
-3.994869	فزیوتھراپسٹ	-0.01270373
-3.994869	فشار	-0.01270373
-3.994869	فشر	-0.01270373
-3.994869	فشنگ	-0.01270373
-3.994869	فصل	-0.01270373
-3.693805	فصلیں	-0.01270373
-3.994869	فضل	-0.01270373
-3.994869	فضول	-0.01270373
-3.994869	فضیلت	-0.01270373
-3.994869	فعال	-0.01270373
-3.994869	فعل	-0.01270373
-3.994869	فعلن	-0.01270373
-3.994869	فغاں	-0.01270373
-3.994869	ففٹی	-0.01270373
-3.994869	فقدان	-0.01270373
-3.994869	فقر	-0.01270373
-3.693805	فقروں	-0.01270373
-3.994869	فقرے	-0.01270373
-3.994869	فقہی	-0.01270373
-3.693805	فقیر	-0.01270373
-3.994869	فلالین	-0.01270373
-3.994869	فلاں	-0.01270373
-3.994869	فلسطینی	-0.01270373
-3.994869	فلسفے	-0.01270373
-3.994869	فلم	-0.01270373
-3.994869	فلمساز	-0.01270373
-3.994869	فلموں	-0.01270373
-3.994869	فلو	-0.01270373
-3.994869	فلور	-0.01270373
-3.994869	فلڈ	-0.01270373
-3.994869	فلک	-0.01270373
-3.994869	فلیش	-0.01270373
-3.994869	فلیچر	-0.01270373
-3.994869	فلیگ	-0.01270373
-3.693805	فن	-0.01270373
-3.994869	فنانس	-0.01270373
-3.994869	فنون	-0.01270373
-3.994869	فنڈز	-0.01270373
-3.994869	فنگس	-0.01270373
-3.994869	فوائد	-0.01270373
-3.994869	فوبیا	-0.01270373
-3.994869	فوج	-0.01270373
-3.994869	فوجداری	-0.01270373
-3.994869	فوجوں	-0.01270373
-3.994869	فوجی	-0.01270373
-3.994869	فوجیوں	-0.01270373
-3.994869	فوجیں	-0.01270373
-3.994869	فوراً	-0.01270373
-3.693805	فورس	-0.01270373
-3.994869	فورسڈ	-0.01270373
-3.994869	فورم	-0.01270373
-3.994869	فوری	-0.01270373
-3.994869	فوریکس	-0.01270373
-3.994869	فوسٹر	-0.01270373
-3.994869	فوقیت	-0.01270373
-3.994869	فول	-0.01270373
-3.994869	فولاد	-0.01270373
-3.994869	فولڈر	-0.01270373
-3.994869	فوم	-0.01270373
-3.994869	فون	-0.01270373
-3.994869	فوڈ	-0.01270373
-3.994869	فٹ	-0.01270373
-3.994869	فٹنیس	-0.01270373
-3.994869	فکر	-0.01270373
-3.994869	فکروعمل	-0.01270373
-3.994869	فگار	-0.01270373
-3.994869	فہرست	-0.01270373
-3.994869	فہرستیں	-0.01270373
-3.994869	فی	-0.01270373
-3.994869	فیاض	-0.01270373
-3.994869	فیاضی	-0.01270373
-3.994869	فیبرکس	-0.01270373
-3.994869	فیتھ	-0.01270373
-3.994869	فیر	-0.01270373
-3.994869	فیری	-0.01270373
-3.994869	فیز	-0.01270373
-3.994869	فیس	-0.01270373
-3.994869	فیسوں	-0.01270373
-3.994869	فیسیں	-0.01270373
-3.994869	فیشن	-0.01270373
-3.994869	فیصد	-0.01270373
-3.994869	فیصلوں	-0.01270373
-3.994869	فیصلہ	-0.01270373
-3.994869	فیصلے	-0.01270373
-3.693805	فیض	-0.01270373
-3.994869	فیضان	-0.01270373
-3.994869	فیلو	-0.01270373
-3.994869	فیلڈ	-0.01270373
-3.994869	فیم	-0.01270373
-3.994869	فیملی	-0.01270373
-3.994869	فین	-0.01270373
-3.994869	فیورٹ	-0.01270373
-3.994869	فیوض	-0.01270373
-3.994869	فیوچر	-0.01270373
-3.994869	فیچر	-0.01270373
-3.994869	فیڈر	-0.01270373
-3.994869	فیڈرل	-0.01270373
-3.994869	فیڈریشن	-0.01270373
-3.994869	فیڈریشنز	-0.01270373
-3.994869	قائم	-0.01270373
-3.994869	قابل	-0.01270373
-3.994869	قادری	-0.01270373
-3.994869	قادیانی	-0.01270373
-3.994869	قارئین	-0.01270373
-3.994869	قاری	-0.01270373
-3.994869	قاسم	-0.01270373
-3.994869	قاضی	-0.01270373
-3.994869	قالین	-0.01270373
-3.994869	قانون	-0.01270373
-3.994869	قانونگو	-0.01270373
-3.994869	قبرستان	-0.01270373
-3.994869	قبضے	-0.01270373
-3.994869	قبل	-0.01270373
-3.994869	قبول	-0.01270373
-3.994869	قبیح	-0.01270373
-3.994869	قبیلے	-0.01270373
-3.994869	قحط	-0.01270373
-3.693805	قدآدم	-0.01270373
-3.994869	قدر	-0.01270373
-3.994869	قدرتی	-0.01270373
-3.994869	قدروقیمت	-0.01270373
-3.994869	قدروں	-0.01270373
-3.994869	قدریں	-0.01270373
-3.994869	قدرے	-0.01270373
-3.994869	قدسی	-0.01270373
-3.994869	قدسیہ	-0.01270373
-3.994869	قدغن	-0.01270373
-3.994869	قدم	-0.01270373
-3.994869	قدوقامت	-0.01270373
-3.994869	قذف	-0.01270373
-3.994869	قرار	-0.01270373
-3.994869	قرارداد	-0.01270373
-3.994869	قرضوں	-0.01270373
-3.994869	قرضے	-0.01270373
-3.994869	قریب	-0.01270373
-3.994869	قریشی	-0.01270373
-3.994869	قزلباش	-0.01270373
-3.693805	قسم	-0.01270373
-3.994869	قصور	-0.01270373
-3.994869	قصوروار	-0.01270373
-3.994869	قضا	-0.01270373
-3.994869	قضہ	-0.01270373
-3.994869	قضیے	-0.01270373
-3.994869	قفس	-0.01270373
-3.994869	قل	-0.01270373
-3.994869	قلزم	-0.01270373
-3.994869	قلم	-0.01270373
-3.994869	قم	-0.01270373
-3.994869	قناعت	-0.01270373
-3.994869	قندیل	-0.01270373
-3.994869	قوام	-0.01270373
-3.994869	قوانین	-0.01270373
-3.994869	قوت	-0.01270373
-3.994869	قوتوں	-0.01270373
-3.994869	قورمہ	-0.01270373
-3.994869	قوس	-0.01270373
-3.994869	قومی	-0.01270373
-3.994869	قومیائے	-0.01270373
-3.994869	قونصل	-0.01270373
-3.994869	قونصلیٹ	-0.01270373
-3.994869	قوی	-0.01270373
-3.994869	قہقہے	-0.01270373
-3.994869	قہوے	-0.01270373
-3.994869	قیام	-0.01270373
-3.994869	قیامت	-0.01270373
-3.994869	قید	-0.01270373
-3.994869	قیدیوں	-0.01270373
-3.994869	قیصر	-0.01270373
-3.994869	قیلولہ	-0.01270373
-3.994869	قیم	-0.01270373
-3.994869	قیمت	-0.01270373
-3.994869	قیود	-0.01270373
-3.994869	قیوم	-0.01270373
-3.994869	قے	-0.01270373
-3.994869	لئیق	-0.01270373
-3.994869	لا	-0.01270373
-3.994869	لاؤ	-0.01270373
-3.994869	لاؤڈ	-0.01270373
-3.994869	لاؤں	-0.01270373
-3.994869	لائبریری	-0.01270373
-3.994869	لائبریرین	-0.01270373
-3.994869	لائحہ	-0.01270373
-3.693805	لائن	-0.01270373
-3.693805	لائی	-0.01270373
-3.994869	لائیو	-0.01270373
-3.994869	لائیوسٹاک	-0.01270373
-3.693805	لائیں	-0.3137337
-3.994869	لائے	-0.01270373
-3.994869	لاابالی	-0.01270373
-3.994869	لابنگ	-0.01270373
-3.994869	لاحق	-0.01270373
-3.994869	لادینیت	-0.01270373
-3.994869	لارا	-0.01270373
-3.994869	لاریب	-0.01270373
-3.994869	لاشوں	-0.01270373
-3.994869	لاشیں	-0.01270373
-3.994869	لال	-0.01270373
-3.994869	لالچی	-0.01270373
-3.994869	لانچنگ	-0.01270373
-3.994869	لانگ	-0.01270373
-3.994869	لاٹھی	-0.01270373
-3.994869	لاٹھیاں	-0.01270373
-3.994869	لاچار	-0.01270373
-3.994869	لاڈ	-0.01270373
-3.994869	لاڈلے	-0.01270373
-3.994869	لاکھ	-0.01270373
-3.994869	لاکھا	-0.01270373
-3.994869	لاکھوں	-0.01270373
-3.693805	لاگت	-0.01270373
-3.994869	لاہوری	-0.01270373
-3.994869	لاہوریات	-0.01270373
-3.517702	لایا	-0.489825
-3.994869	لاینفک	-0.01270373
-3.994869	لباس	-0.01270373
-3.994869	لبالب	-0.01270373
-3.994869	لتھڑے	-0.01270373
-3.994869	لخت	-0.01270373
-3.994869	لدھیانوی	-0.01270373
-3.994869	لذت	-0.01270373
-3.994869	لشکر	-0.01270373
-3.994869	لطیفے	-0.01270373
-3.994869	لعاب	-0.01270373
-3.994869	لغاری	-0.01270373
-3.994869	لغت	-0.01270373
-3.994869	لغزش	-0.01270373
-3.994869	لغو	-0.01270373
-3.994869	لغوی	-0.01270373
-3.994869	لفظ	-0.01270373
-3.994869	لفظوں	-0.01270373
-3.994869	لفظی	-0.01270373
-3.994869	لفظیات	-0.01270373
-3.994869	لقب	-0.01270373
-3.994869	لمحوں	-0.01270373
-3.994869	لمحے	-0.01270373
-3.994869	لنڈ	-0.01270373
-3.994869	لنگا	-0.01270373
-3.994869	لنگر	-0.01270373
-3.994869	لنگڑی	-0.01270373
-3.517702	لو	-0.01270373
-3.994869	لوئر	-0.01270373
-3.994869	لوئی	-0.01270373
-3.994869	لوتھڑا	-0.01270373
-3.994869	لوث	-0.01270373
-3.994869	لوحوں	-0.01270373
-3.994869	لوشن	-0.01270373
-3.994869	لولی	-0.01270373
-3.994869	لومڑ	-0.01270373
-3.994869	لومڑی	-0.01270373
-3.994869	لومیرج	-0.01270373
-3.994869	لون	-0.01270373
-3.994869	لونگ	-0.01270373
-3.693805	لوٹ	-0.01270373
-3.994869	لوڈ	-0.01270373
-3.994869	لوڈشیڈنگ	-0.01270373
-3.994869	لوک	-0.01270373
-3.994869	لوگ	-0.01270373
-3.994869	لوگو	-0.01270373
-3.693805	لوگوں	-0.01270373
-3.693805	لوں	-0.01270373
-3.994869	لوہا	-0.01270373
-3.994869	لوہار	-0.01270373
-3.994869	لوہے	-0.01270373
-3.994869	لٹریچر	-0.01270373
-3.994869	لچک	-0.01270373
-3.994869	لڑائی	-0.01270373
-3.994869	لڑکا	-0.01270373
-3.994869	لڑکھڑا	-0.01270373
-3.994869	لڑھک	-0.01270373
-3.994869	لڑیں	-0.01270373
-3.994869	لکڑہارے	-0.01270373
-3.994869	لکھ	-0.01270373
-3.994869	لکھا	-0.01270373
-3.994869	لکھتے	-0.01270373
-3.994869	لکھنے	-0.01270373
-3.994869	لکھو	-0.01270373
-3.994869	لکھوا	-0.01270373
-3.994869	لکھوں	-0.01270373
-3.693805	لکھی	-0.01270373
-3.994869	لکھیں	-0.01270373
-3.994869	لکھے	-0.01270373
-3.149713	لگا	-0.3806805
-3.994869	لگاؤ	-0.01270373
-3.994869	لگائی	-0.01270373
-3.994869	لگائیں	-0.01270373
-3.994869	لگائے	-0.01270373
-3.693805	لگاتا	-0.01270373
-3.994869	لگانا	-0.01270373
-3.693805	لگانے	-0.01270373
-3.994869	لگایئے	-0.01270373
-3.693805	لگایا	-0.01270373
-3.994869	لگژری	-0.01270373
-3.994869	لگی	-0.01270373
-3.994869	لگیں	-0.01270373
-3.517702	لگے	-0.188795
-3.994869	لہجہ	-0.01270373
-3.994869	لہجے	-0.01270373
-3.693805	لہذا	-0.01270373
-3.994869	لہریں	-0.01270373
-3.994869	لہو	-0.01270373
-3.994869	لہولہان	-0.01270373
-3.216661	لیا	-0.489825
-3.994869	لیاقت	-0.01270373
-3.994869	لیب	-0.01270373
-3.994869	لیبارٹری	-0.01270373
-3.994869	لیبر	-0.01270373
-3.994869	لیتا	-0.01270373
-3.994869	لیتی	-0.01270373
-3.994869	لیتے	-0.01270373
-3.994869	لیجنڈ	-0.01270373
-3.994869	لیجنڈری	-0.01270373
-3.994869	لیدر	-0.01270373
-3.994869	لیزر	-0.01270373
-3.994869	لیزنگ	-0.01270373
-3.994869	لیس	-0.01270373
-3.994869	لیفٹ	-0.01270373
-3.994869	لیفٹننٹ	-0.01270373
-3.994869	لیفٹیننٹ	-0.01270373
-3.994869	لیلی	-0.01270373
-3.994869	لیموں	-0.01270373
-3.994869	لیمپ	-0.01270373
-3.693805	لینا	-0.01270373
-3.994869	لینتھ	-0.01270373
-3.392758	لینڈ	-0.01270373
-3.693805	لینگویج	-0.01270373
-3.295844	لینے	-0.01270374
-3.994869	لیوا	-0.01270373
-3.994869	لیچی	-0.01270373
-3.994869	لیڈر	-0.01270373
-3.994869	لیڈز	-0.01270373
-3.994869	لیڈی	-0.01270373
-3.994869	لیکن	-0.01270373
-3.994869	لیکوئڈ	-0.01270373
-3.517702	لیں	-0.489825
-3.392758	لیے	-0.01270373
-3.091719	لے	-0.1376425
-3.994869	مآب	-0.01270373
-3.994869	مؤثر	-0.01270373
-3.994869	مؤخر	-0.01270373
-3.994869	ماؤتھ	-0.01270373
-3.994869	ماؤزے	-0.01270373
-3.994869	ماؤف	-0.01270373
-3.994869	ماؤنٹ	-0.01270373
-3.994869	مائنڈڈ	-0.01270373
-3.994869	مائیکروویوز	-0.01270373
-3.994869	مابین	-0.01270373
-3.994869	ماتھا	-0.01270373
-3.994869	ماتھے	-0.01270373
-3.994869	ماحول	-0.01270373
-3.994869	ماحولیات	-0.01270373
-3.994869	ماخذ	-0.01270373
-3.994869	ماخوذ	-0.01270373
-3.994869	مادھو	-0.01270373
-3.994869	مار	-0.01270373
-3.994869	مارشل	-0.01270373
-3.994869	مارچ	-0.01270373
-3.994869	مارے	-0.01270373
-3.994869	ماشے	-0.01270373
-3.693805	ماضی	-0.01270373
-3.994869	مافیا	-0.01270373
-3.994869	مالدار	-0.01270373
-3.994869	مالیخولیا	-0.01270373
-3.994869	مان	-0.01270373
-3.994869	مانجھے	-0.01270373
-3.994869	مانوس	-0.01270373
-3.994869	مانگ	-0.01270373
-3.994869	مانگنے	-0.01270373
-3.994869	ماچس	-0.01270373
-3.994869	ماچھی	-0.01270373
-3.994869	ماڈل	-0.01270373
-3.994869	ماڈلنگ	-0.01270373
-3.994869	ماڑی	-0.01270373
-3.994869	ماں	-0.01270373
-3.994869	ماہ	-0.01270373
-3.994869	ماہرین	-0.01270373
-3.994869	ماہوار	-0.01270373
-3.994869	مایوس	-0.01270373
-3.994869	مبتلا	-0.01270373
-3.994869	مبذول	-0.01270373
-3.994869	مبشر	-0.01270373
-3.994869	مبلغ	-0.01270373
-3.994869	مبلغین	-0.01270373
-3.994869	مبنی	-0.01270373
-3.994869	مبہم	-0.01270373
-3.994869	مبین	-0.01270373
-3.517702	مت	-0.01270373
-3.994869	متاثرہ	-0.01270373
-3.994869	متاثرین	-0.01270373
-3.994869	متاخرین	-0.01270373
-3.994869	متحدہ	-0.01270373
-3.994869	متحرک	-0.01270373
-3.994869	مترادف	-0.01270373
-3.994869	مترجم	-0.01270373
-3.994869	متعارف	-0.01270373
-3.994869	متعدد	-0.01270373
-3.994869	متعلق	-0.01270373
-3.994869	متعینہ	-0.01270373
-3.994869	متغیر	-0.01270373
-3.994869	متفقہ	-0.01270373
-3.994869	متنازعہ	-0.01270373
-3.994869	متنفر	-0.01270373
-3.994869	متنوع	-0.01270373
-3.994869	متوجہ	-0.01270373
-3.994869	متوفی	-0.01270373
-3.994869	متوفیہ	-0.01270373
-3.994869	متھرانی	-0.01270373
-3.994869	مثال	-0.01270373
-3.994869	مثبت	-0.01270373
-3.994869	مثلاً	-0.01270373
-3.994869	مجاہد	-0.01270373
-3.994869	مجبور	-0.01270373
-3.994869	مجذوب	-0.01270373
-3.994869	مجرد	-0.01270373
-3.693805	مجرم	-0.3137337
-3.994869	مجروح	-0.01270373
-3.994869	مجلس	-0.01270373
-3.994869	مجلے	-0.01270373
-3.994869	مجموعوں	-0.01270373
-3.994869	مجموعہ	-0.01270373
-3.994869	مجموعی	-0.01270373
-3.994869	مجموعے	-0.01270373
-3.994869	مجوزہ	-0.01270373
-3.994869	مجھ	-0.01270373
-3.693805	مجھے	-0.01270373
-3.994869	مجیب	-0.01270373
-3.994869	مجید	-0.01270373
-3.994869	محافظوں	-0.01270373
-3.994869	محبت	-0.01270373
-3.994869	محبوب	-0.01270373
-3.994869	محبوبہ	-0.01270373
-3.994869	محتاجوں	-0.01270373
-3.994869	محترمہ	-0.01270373
-3.994869	محدود	-0.01270373
-3.994869	محرر	-0.01270373
-3.994869	محروم	-0.01270373
-3.994869	محسن	-0.01270373
-3.994869	محسنہ	-0.01270373
-3.994869	محسوس	-0.01270373
-3.994869	محض	-0.01270373
-3.994869	محظوظ	-0.01270373
-3.994869	محفل	-0.01270373
-3.994869	محفوظ	-0.01270373
-3.994869	محقق	-0.01270373
-3.994869	محققین	-0.01270373
-3.994869	محلول	-0.01270373
-3.994869	محلوں	-0.01270373
-3.994869	محنت	-0.01270373
-3.994869	محور	-0.01270373
-3.994869	محویت	-0.01270373
-3.994869	محیرالعقول	-0.01270373
-3.994869	مخالفت	-0.01270373
-3.994869	مخالفوں	-0.01270373
-3.994869	مخبری	-0.01270373
-3.994869	مختلف	-0.01270373
-3.994869	مخدوش	-0.01270373
-3.994869	مخدوم	-0.01270373
-3.994869	مخرج	-0.01270373
-3.994869	مخزن	-0.01270373
-3.994869	مخصوص	-0.01270373
-3.994869	مخفف	-0.01270373
-3.994869	مخفی	-0.01270373
-3.994869	مخل	-0.01270373
-3.994869	مخلوق	-0.01270373
-3.994869	مخیر	-0.01270373
-3.994869	مداحوں	-0.01270373
-3.994869	مداخلت	-0.01270373
-3.994869	مدافعت	-0.01270373
-3.994869	مدت	-0.01270373
-3.994869	مدح	-0.01270373
-3.994869	مدد	-0.01270373
-3.994869	مدرسوں	-0.01270373
-3.994869	مدرسہ	-0.01270373
-3.994869	مدعا	-0.01270373
-3.994869	مدعو	-0.01270373
-3.994869	مدعی	-0.01270373
-3.994869	مدعیان	-0.01270373
-3.994869	مدغم	-0.01270373
-3.994869	مدفن	-0.01270373
-3.994869	مدفون	-0.01270373
-3.994869	مدمقابل	-0.01270373
-3.994869	مدون	-0.01270373
-3.994869	مدھر	-0.01270373
-3.994869	مدھم	-0.01270373
-3.994869	مدہوش	-0.01270373
-3.994869	مذاق	-0.01270373
-3.994869	مذاکرات	-0.01270373
-3.994869	مذہبی	-0.01270373
-3.994869	مراد	-0.01270373
-3.994869	مراعات	-0.01270373
-3.994869	مربعے	-0.01270373
-3.994869	مرتب	-0.01270373
-3.994869	مرتبہ	-0.01270373
-3.994869	مرثیے	-0.01270373
-3.994869	مرجھا	-0.01270373
-3.994869	مرحوم	-0.01270373
-3.994869	مردانگی	-0.01270373
-3.994869	مردوں	-0.01270373
-3.994869	مرزا	-0.01270373
-3.994869	مرشد	-0.01270373
-3.693805	مرض	-0.01270373
-3.994869	مرضی	-0.01270373
-3.994869	مرغ	-0.01270373
-3.994869	مرغا	-0.01270373
-3.994869	مرغابیوں	-0.01270373
-3.994869	مرغبانی	-0.01270373
-3.994869	مرغزار	-0.01270373
-3.994869	مرغن	-0.01270373
-3.994869	مرغوب	-0.01270373
-3.994869	مرغوں	-0.01270373
-3.994869	مرغی	-0.01270373
-3.994869	مرغیاں	-0.01270373
-3.994869	مرلہ	-0.01270373
-3.994869	مرلی	-0.01270373
-3.994869	مرچ	-0.01270373
-3.994869	مرچنٹ	-0.01270373
-3.994869	مرچوں	-0.01270373
-3.994869	مرچیں	-0.01270373
-3.994869	مرکزی	-0.01270373
-3.994869	مرہون	-0.01270373
-3.994869	مری	-0.01270373
-3.693805	مریضوں	-0.3137337
-3.994869	مزاج	-0.01270373
-3.994869	مزارعوں	-0.01270373
-3.994869	مزارعین	-0.01270373
-3.994869	مزدوروں	-0.01270373
-3.994869	مزید	-0.01270373
-3.994869	مزیدار	-0.01270373
